tree
version=v3
num_class=1
num_tree_per_iteration=1
label_index=0
max_feature_idx=30
objective=lambdarank
feature_names=log_ret_1 log_ret_5 log_ret_10 log_ret_21 log_ret_63 log_ret_126 log_ret_252 excess_log_ret_5 excess_log_ret_21 excess_log_ret_63 excess_log_ret_126 vol_20 vol_63 downside_vol_20 return_to_vol_21 return_to_vol_63 beta_63 corr_63 residual_log_ret_21 residual_log_ret_63 distance_to_63d_high distance_to_63d_low ma_20_50 ma_50_200 volume_z_20 dollar_volume_z_20 amihud_20 gap_pct intraday_ret benchmark_log_ret_21 benchmark_vol_20
feature_infos=[-0.43257848949413047:0.42061695919913433] [-0.62105101977820443:0.61400386604068213] [-1.0219770247907585:0.51640879618814939] [-1.2639619709335861:0.73575930944702739] [-1.2412368752575453:1.0499116805603581] [-1.3860546340170732:1.8107174298259121] [-1.3430914583140829:2.4018725595624506] [-0.49673794826499007:0.52753711459536401] [-0.90224872031983594:0.67364022283111646] [-0.9246316532271317:0.96310139270213302] [-1.2045023181501344:1.4590525481398702] [0.037807546527101075:2.2382360020276399] [0.063234462298234151:1.4628226026712341] [0:1.818912620299828] [-1.2321822191905951:1.9818238970052768] [-1.457723515524058:2.1549690400112573] [-0.97521392425278941:3.9702633267029679] [-0.33026551708815843:0.9806948131460449] [-0.69531164866102846:0.6537953484641329] [-0.81194863634343906:0.89651689102531118] [-0.7249236475233175:0] [0:1.8825287209390953] [-0.42682311714453591:0.31739199068254953] [-0.56849420943272788:0.83938718222935149] [-3.0367420695947178:4.2399592092532954] [-3.712571118244806:4.093929137987935] [6.0255196130984241e-13:1.6431304686732721e-09] [-0.29663519649766945:0.21755732693025198] [-0.16855459902968484:0.25078367961446957] [-0.40105860262986504:0.2275689519512607] [0.030611701262277222:0.98464553272519229]
tree_sizes=1771 1763 1777 1772 1771

Tree=0
num_leaves=15
num_cat=0
split_feature=6 10 12 17 15 17 12 22 18 23 10 12 12 15
split_gain=74.3942 84.3399 48.1687 44.9005 32.1008 35.8581 30.8189 27.7466 22.5667 24.7687 19.2278 18.6616 18.7724 18.5247
threshold=-0.21435891268948601 0.22334205023961531 0.65866211219336768 0.83087142889967003 0.95500305278335607 0.62256668874962828 0.1043875257267509 0.056990061363001783 -0.064369453233721313 0.18776473574874533 -0.039494757877421176 0.34938196999214366 0.65866211219336768 1.0149651576553997
decision_type=2 2 2 2 2 2 2 2 2 2 2 2 2 2
left_child=3 6 4 11 -3 -6 -2 8 -8 -10 -9 -1 -13 -12
right_child=1 2 -4 -5 5 -7 7 10 9 -11 13 12 -14 -15
leaf_value=0.010913421277187328 -0.036700539656508151 0.002112440784624769 0.046923537098486554 -0.017265022008487334 0.0076756691272426743 0.049042302204449696 0.0042687622696662231 0.026206429739498133 -0.0043429854604459797 -0.027973497785277083 -0.0022000159004495509 0.035453205255822511 -0.0035192094802671148 0.023038324282629592
leaf_weight=74.754797504749149 22.324284478556365 171.55124368472025 33.525545875541866 27.780194828752428 45.788409784436226 31.189367299899459 278.18508642353117 39.586044813506305 1906.2197949155234 38.86133089242503 122.40039867535233 92.133043987676501 12.225998530164359 31.198229321278632
leaf_count=2979 1463 6782 735 1353 1513 224 11477 1043 85673 1520 4777 3411 623 852
internal_value=0 -0.00129204 0.0141807 0.0172851 0.00942449 0.0252538 -0.00309168 -0.0027511 -0.00370039 -0.00484336 0.00809987 0.0227752 0.0309071 0.00315651
internal_weight=0 2720.83 282.055 206.894 248.529 76.9778 2438.78 2416.45 2223.27 1945.08 193.185 179.114 104.359 153.599
internal_count=124425 116059 9254 8366 8519 1737 106805 105342 98670 87193 6672 7013 4034 5629
is_linear=0
shrinkage=0.03


Tree=1
num_leaves=15
num_cat=0
split_feature=16 12 19 22 6 18 17 6 17 12 6 23 5 6
split_gain=593.157 178.828 163.602 128.893 125.092 118.775 78.0535 82.5516 69.0412 63.8091 59.1827 45.2742 42.9406 40.5805
threshold=1.2716189171603145 0.37023530245963632 0.17692944580484324 0.050583926830746646 -0.17522309952247792 -0.064369453233721313 0.56072435403535048 0.40196195205958879 0.83087142889967003 0.81519715183123331 0.29826725413115046 0.13366438167228026 -0.018456851087638389 -0.37729175371789697
decision_type=2 2 2 2 2 2 2 2 2 2 2 2 2 2
left_child=1 2 5 4 8 -1 -3 -8 11 -6 -7 12 13 -2
right_child=3 6 -4 -5 9 10 7 -9 -10 -11 -12 -13 -14 -15
leaf_value=0.0012123408326004564 0.031360952185460089 0.022184231049794629 0.013754417642081213 0.026118464914875461 0.0025447273817652575 -0.014129021087916896 -0.0046003573744864733 0.047636225143568654 -0.025710386149402568 0.040777851594640854 -0.0035794821717621494 -0.042182509522095922 0.045485996764749105 0.010924973166356008
leaf_weight=739.63249452598393 178.43308080919087 253.44177790172398 288.38277534581721 518.21982096321881 1161.0625347681344 2549.1559961363673 301.48038768209517 27.911847077310085 24.181939761154354 38.681764628738165 591.13552501425147 7.1921927612274876 82.873030761256814 176.05674646515399
leaf_count=7848 1180 2933 2901 4806 21234 61945 5767 179 846 269 12772 36 508 1446
internal_value=0 -0.00580243 -0.0079791 0.0130714 0.00899265 -0.00960074 0.00973874 8.68133e-05 0.0221004 0.00384324 -0.0121467 0.0248046 0.0260931 0.0213297
internal_weight=0 4751.14 4168.31 2186.7 1668.48 3879.92 582.834 329.392 468.737 1199.74 3140.29 444.555 437.363 354.49
internal_count=124670 94345 85466 30325 25519 82565 8879 5946 4016 21503 74717 3170 3134 2626
is_linear=0
shrinkage=0.03


Tree=2
num_leaves=15
num_cat=0
split_feature=16 10 26 12 6 22 17 12 17 17 12 12 12 6
split_gain=565.176 246.279 152.414 149.297 119.025 118.461 109.448 71.1069 87.8917 64.3366 61.6851 39.7732 58.2979 41.6945
threshold=1.2663716639751483 0.28292935320227591 4.6169504843400279e-11 0.30707747852097017 -0.35387111225841167 0.056990061363001783 0.53003410853484068 0.15362737023649012 0.55206196476837721 0.80610797043028104 0.65866211219336768 0.81519715183123331 0.553356000071484 -0.045406565884383403
decision_type=2 2 2 2 2 2 2 2 2 2 2 2 2 2
left_child=1 3 4 7 -2 11 -5 -1 -9 -4 -3 12 13 -6
right_child=2 10 9 6 5 -7 -8 8 -10 -11 -12 -13 -14 -15
leaf_value=-0.022970518564341257 0.026690265479338175 0.012942753823028551 0.035578008889404059 0.013574744027397778 0.013070200904029319 0.017514479600201475 -0.0085267028567917683 -0.0055494382514946093 -0.017910019088201862 -0.00082416944604670427 0.051155884346202198 0.032526536468200494 -0.022506851229356195 -0.00062156250121033309
leaf_weight=524.38250031508505 267.92923164088279 248.72517998982221 275.33826657384634 371.39534447994083 242.7139762500301 534.92403823323548 436.49051438458264 1263.1718991938978 878.62196361180395 51.762645989656448 43.493716727942228 33.2492037974298 92.496200304478407 1098.857916709967
leaf_count=16486 1716 2980 2521 4960 3096 3332 10778 31290 26936 975 202 233 1219 17876
internal_value=0 -0.00742567 0.0107589 -0.00965298 0.00798459 0.00545737 0.00164204 -0.0130742 -0.0106321 0.0298475 0.0189395 0.00104398 0.000269762 0.00187129
internal_weight=0 3766.28 2597.27 3474.06 2270.17 2002.24 807.886 2666.18 2141.79 327.101 292.219 1467.32 1434.07 1341.57
internal_count=124600 93632 30968 90450 27472 25756 15738 74712 58226 3496 3182 22424 22191 20972
is_linear=0
shrinkage=0.03


Tree=3
num_leaves=15
num_cat=0
split_feature=12 6 26 17 26 12 6 9 30 12 5 10 26 18
split_gain=468.621 277.85 133.702 100.385 96.938 78.9357 76.7058 103.024 70.8677 65.8775 91.4858 62.4599 60.8282 59.3109
threshold=0.32302784814624264 0.31031219495724832 4.307536361876847e-11 0.78185874795127586 3.1816298192997445e-12 0.15156948425135655 -0.31437588966022506 0.23978607866060944 0.14715646705058422 0.65866211219336768 0.54542333098926543 0.28292935320227591 5.652856623109519e-11 -0.063072099903723894
decision_type=2 2 2 2 2 2 2 2 2 2 2 2 2 2
left_child=1 4 6 -4 -1 -6 -2 8 -8 10 -9 -10 -3 -7
right_child=2 12 3 -5 5 13 7 9 11 -11 -12 -13 -14 -15
leaf_value=0.020994281456743709 0.019421543265940314 0.0048065056138360601 0.033646455353767972 0.0015150923237809983 -0.025730585554996188 -0.00063143364996731579 0.0083921597125947434 0.025208608251137327 -0.0099369834484070059 0.049263793178576328 -0.017539389547089133 0.015089560355905076 0.03917608052163523 -0.012991676107424147
leaf_weight=77.344873719848692 359.72294792346656 1015.7838227888569 331.7866637846455 118.86785315535963 360.4214060343802 433.12494775932282 542.87920268345624 153.96389139816165 580.78811839222908 55.598610639572144 61.72127475682646 104.25517814233899 46.631232667714357 1810.0705058407038
leaf_count=1532 2935 18587 2749 2580 13880 7193 6663 1231 11697 256 458 944 339 53490
internal_value=0 -0.00658918 0.0105882 0.0252154 -0.0117319 -0.0127194 0.00701888 0.00402105 0.000312948 0.0206801 0.0129269 -0.00609541 0.00638582 -0.0106078
internal_weight=0 3743.38 2309.58 450.655 2680.96 2603.62 1858.93 1499.21 1227.92 271.284 215.685 685.043 1062.42 2243.2
internal_count=124534 95021 29513 5329 76095 74563 24184 21249 19304 1945 1689 12641 18926 60683
is_linear=0
shrinkage=0.03


Tree=4
num_leaves=15
num_cat=0
split_feature=16 12 26 6 19 6 10 12 9 26 16 12 10 22
split_gain=539.081 267.392 225.541 120.315 96.0108 96.7624 74.2508 59.7514 59.531 54.915 59.4354 58.7877 84.6573 65.0727
threshold=1.2663716639751483 0.30382100428932601 4.5514947856745604e-11 0.31031219495724832 0.23864839806745097 -0.23462501780924441 0.44095599917790379 0.15156948425135655 0.1935263707123869 1.2128019868757767e-11 2.0472856629317198 0.36070480134509869 -0.094321969697654925 0.044837935783608625
decision_type=2 2 2 2 2 2 2 2 2 2 2 2 2 2
left_child=1 3 4 7 5 -2 -3 -1 -5 10 11 13 -13 -7
right_child=2 6 -4 8 -6 9 -8 -9 -10 -11 -12 12 -14 -15
leaf_value=-0.029757045672262138 0.018577329915944654 0.0023382372462935554 0.029011816043659207 -0.0052731389963812172 0.030991606582152768 0.0010248599194184252 0.031541905175346829 -0.014949222418425863 0.02332354352001173 -0.0034925348705282431 0.025935023531843539 0.019524371499132477 -0.029862333912081523 0.027889772864099924
leaf_weight=296.75516688264906 350.31764909252524 929.61314210388809 473.45154102891684 459.83694717846811 128.29720354266465 260.82263322826475 83.61528418213129 1458.9639416057616 74.352829022333026 926.78161203023046 129.12602098099887 45.286187862046063 91.325842690654099 115.90091789327562
leaf_count=13518 2818 17535 3597 11276 774 4451 612 49909 648 14796 1353 654 1390 899
internal_value=0 -0.00801965 0.0103942 -0.0136938 0.00606583 0.00436935 0.00480562 -0.0174831 -0.00122067 0.00117795 0.00790528 0.00328697 -0.0134454 0.00939362
internal_weight=0 3303.14 2521.31 2289.91 2047.86 1919.56 1013.23 1755.72 534.19 1569.24 642.462 513.336 136.612 376.724
internal_count=124230 93498 30732 75351 27135 26361 18147 63427 11924 23543 8747 7394 2044 5350
is_linear=0
shrinkage=0.03


end of trees

feature_importances:
vol_63=17
log_ret_252=11
corr_63=8
excess_log_ret_126=6
amihud_20=6
beta_63=4
ma_20_50=4
residual_log_ret_21=3
log_ret_126=2
excess_log_ret_63=2
return_to_vol_63=2
residual_log_ret_63=2
ma_50_200=2
benchmark_vol_20=1

parameters:
[boosting: gbdt]
[objective: lambdarank]
[metric: ndcg]
[tree_learner: serial]
[device_type: cpu]
[data: ]
[valid: ]
[num_iterations: 400]
[learning_rate: 0.03]
[num_leaves: 15]
[num_threads: 0]
[deterministic: 0]
[force_col_wise: 0]
[force_row_wise: 0]
[histogram_pool_size: -1]
[max_depth: -1]
[min_data_in_leaf: 40]
[min_sum_hessian_in_leaf: 0.001]
[bagging_fraction: 0.85]
[pos_bagging_fraction: 1]
[neg_bagging_fraction: 1]
[bagging_freq: 1]
[bagging_seed: 26602]
[feature_fraction: 0.85]
[feature_fraction_bynode: 1]
[feature_fraction_seed: 18297]
[extra_trees: 0]
[extra_seed: 13015]
[early_stopping_round: 40]
[first_metric_only: 0]
[max_delta_step: 0]
[lambda_l1: 0]
[lambda_l2: 2]
[linear_lambda: 0]
[min_gain_to_split: 0]
[drop_rate: 0.1]
[max_drop: 50]
[skip_drop: 0.5]
[xgboost_dart_mode: 0]
[uniform_drop: 0]
[drop_seed: 30017]
[top_rate: 0.2]
[other_rate: 0.1]
[min_data_per_group: 100]
[max_cat_threshold: 32]
[cat_l2: 10]
[cat_smooth: 10]
[max_cat_to_onehot: 4]
[top_k: 20]
[monotone_constraints: ]
[monotone_constraints_method: basic]
[monotone_penalty: 0]
[feature_contri: ]
[forcedsplits_filename: ]
[refit_decay_rate: 0.9]
[cegb_tradeoff: 1]
[cegb_penalty_split: 0]
[cegb_penalty_feature_lazy: ]
[cegb_penalty_feature_coupled: ]
[path_smooth: 0]
[interaction_constraints: ]
[verbosity: -1]
[saved_feature_importance_type: 0]
[linear_tree: 0]
[max_bin: 255]
[max_bin_by_feature: ]
[min_data_in_bin: 3]
[bin_construct_sample_cnt: 200000]
[data_random_seed: 94]
[is_enable_sparse: 1]
[enable_bundle: 1]
[use_missing: 1]
[zero_as_missing: 0]
[feature_pre_filter: 0]
[pre_partition: 0]
[two_round: 0]
[header: 0]
[label_column: ]
[weight_column: ]
[group_column: ]
[ignore_column: ]
[categorical_feature: ]
[forcedbins_filename: ]
[precise_float_parser: 0]
[objective_seed: 20363]
[num_class: 1]
[is_unbalance: 0]
[scale_pos_weight: 1]
[sigmoid: 1]
[boost_from_average: 1]
[reg_sqrt: 0]
[alpha: 0.9]
[fair_c: 1]
[poisson_max_delta_step: 0.7]
[tweedie_variance_power: 1.5]
[lambdarank_truncation_level: 30]
[lambdarank_norm: 1]
[label_gain: ]
[eval_at: 1,3,5]
[multi_error_top_k: 1]
[auc_mu_weights: ]
[num_machines: 1]
[local_listen_port: 12400]
[time_out: 120]
[machine_list_filename: ]
[machines: ]
[gpu_platform_id: -1]
[gpu_device_id: -1]
[gpu_use_dp: 0]
[num_gpu: 1]

end of parameters

pandas_categorical:[]
