tree
version=v3
num_class=1
num_tree_per_iteration=1
label_index=0
max_feature_idx=30
objective=lambdarank
feature_names=log_ret_1 log_ret_5 log_ret_10 log_ret_21 log_ret_63 log_ret_126 log_ret_252 excess_log_ret_5 excess_log_ret_21 excess_log_ret_63 excess_log_ret_126 vol_20 vol_63 downside_vol_20 return_to_vol_21 return_to_vol_63 beta_63 corr_63 residual_log_ret_21 residual_log_ret_63 distance_to_63d_high distance_to_63d_low ma_20_50 ma_50_200 volume_z_20 dollar_volume_z_20 amihud_20 gap_pct intraday_ret benchmark_log_ret_21 benchmark_vol_20
feature_infos=[-0.28555187224505252:0.42061695919913433] [-0.62105101977820443:0.61400386604068213] [-1.0219770247907585:0.51640879618814939] [-1.2639619709335861:0.73575930944702739] [-1.2412368752575453:1.0499116805603581] [-1.3860546340170732:1.8107174298259121] [-1.3430914583140829:2.4018725595624506] [-0.49634537079170116:0.52753711459536401] [-0.90224872031983594:0.67364022283111646] [-0.9246316532271317:0.96310139270213302] [-1.1500462376648652:1.4590525481398702] [0.037807546527101075:2.2382360020276399] [0.063234462298234151:1.4628226026712341] [0:1.6951523916319398] [-1.2321822191905951:1.9818238970052768] [-1.457723515524058:2.1549690400112573] [-0.53974793899975126:3.9702633267029679] [-0.29636955902704382:0.9806948131460449] [-0.69531164866102846:0.6537953484641329] [-0.77976250720550522:0.89651689102531118] [-0.7249236475233175:0] [0:1.8825287209390953] [-0.42682311714453591:0.31739199068254953] [-0.53225419139565833:0.83938718222935149] [-3.0367420695947178:4.2399592092532954] [-3.712571118244806:4.093929137987935] [6.0255196130984241e-13:1.6431304686732721e-09] [-0.25104787681263196:0.21755732693025198] [-0.16855459902968484:0.25078367961446957] [-0.40105860262986504:0.2275689519512607] [0.030611701262277222:0.98464553272519229]
tree_sizes=1771 1764 1766 1769 1774 1769

Tree=0
num_leaves=15
num_cat=0
split_feature=12 5 6 12 6 17 21 10 12 10 20 23 17 22
split_gain=92.6481 35.4327 58.0575 60.9073 43.9652 35.3976 34.1763 23.4801 22.9603 20.3046 19.5662 22.2871 19.1686 28.8334
threshold=0.22506800447348893 0.13841989426777526 0.11441363315073706 0.64853106837614949 -0.21331096081002474 0.73670604233097448 0.40535842322518995 0.050502136267130078 0.25095015405171783 0.31036424981399474 -0.2848498200502409 -0.058843659357030058 0.58837178065206641 0.043899114343283425
decision_type=2 2 2 2 2 2 2 2 2 2 2 2 2 2
left_child=7 4 8 6 5 -2 -4 -1 -3 -8 -6 -12 -9 -14
right_child=1 2 3 -5 10 -7 9 12 -10 -11 11 -13 13 -15
leaf_value=-0.009998402743053034 0.028235535822321706 -0.0088470070663892991 -0.0008607379558376911 0.042214236412900265 0.028490611452593573 -0.0098813352563440811 0.041739925298185869 0.0035810739521127898 0.036897633022401094 0.0045106829164255745 -0.013829085909467805 0.00038690229827177832 -0.015528912698121122 0.01477450990073177
leaf_weight=647.57377303182147 84.983404444996268 10.313261066097764 322.57093756878749 37.08742677886039 17.383022335823625 28.173188488930464 27.437500271014869 287.64165025483817 88.381521534174681 24.859875584021211 117.99901593895629 573.50052995514125 131.28459658054635 34.154490975197405
leaf_count=32733 2815 557 13206 792 437 1389 633 11053 2733 829 4896 24179 6192 814
internal_value=0 0.00540933 0.0115995 0.00657208 0.00154518 0.0187386 0.00284053 -0.00634203 0.0320367 0.0248608 -0.00124434 -0.00207183 -0.00109513 -0.0091711
internal_weight=0 1332.69 510.651 411.956 822.039 113.157 374.868 1100.65 98.6948 52.2974 708.883 691.5 453.081 165.439
internal_count=103258 52466 18750 15460 33716 4204 14668 50792 3290 1462 29512 29075 18059 7006
is_linear=0
shrinkage=0.03


Tree=1
num_leaves=15
num_cat=0
split_feature=16 9 19 16 17 11 6 12 5 17 17 12 16 12
split_gain=494.867 171.115 108.651 71.3749 105.419 55.7406 66.3371 42.1844 41.291 63.8538 46.0547 45.0326 40.1968 37.1591
threshold=1.3120251859804457 0.24727190246724542 0.12108806588992717 1.0005560330631396 0.51255422895327751 0.72895835178947821 0.03155959770294859 0.32800602850850541 0.067993605076497113 0.60400500610612806 0.71657937288416373 0.42508423798572542 0.68278924021073839 0.79363128386824477
decision_type=2 2 2 2 2 2 2 2 2 2 2 2 2 2
left_child=2 5 3 4 12 6 8 -5 10 11 -2 -10 -1 -9
right_child=1 -3 -4 7 -6 -7 -8 13 9 -11 -12 -13 -14 -15
leaf_value=-0.010887075908973831 0.019166549671563178 0.037681455907110764 0.0051534756587077735 -0.0052817134447450788 -0.020572368117693144 0.033439420257462778 0.0037269906036515852 0.011760187742175132 -0.017601883479224836 0.040121043140747797 -0.009699324953606675 0.033805982714169243 -0.00055096616925640464 -0.025503014358479625
leaf_weight=801.5300530642271 141.11949121579528 228.27573291771114 665.5794216291979 937.90389817487448 737.25274048093706 82.241271026432514 914.55231903679669 244.03063286095858 36.924734477885067 129.84090814273804 74.717366025783122 23.321467086672783 585.65884789079428 24.815656255930662
leaf_count=17875 2026 888 8329 19962 18971 708 15991 4067 307 980 1871 191 10594 596
internal_value=0 0.0136985 -0.00590044 -0.00811081 -0.0114182 0.00974746 0.00822355 -0.00227906 0.0182864 0.028427 0.00917659 0.00274504 -0.00653034 0.00815771
internal_weight=0 1630.99 3996.77 3331.19 2124.44 1402.72 1320.48 1206.75 405.924 190.087 215.837 60.2462 1387.19 268.846
internal_count=103356 22962 80394 72065 47440 22074 21366 24625 5375 1478 3897 498 28469 4663
is_linear=0
shrinkage=0.03


Tree=2
num_leaves=15
num_cat=0
split_feature=12 16 10 19 16 26 12 12 21 6 17 23 26 11
split_gain=538.609 177.367 138.141 97.0052 81.2751 73.2434 71.8827 53.5005 52.4099 73.0134 61.4625 57.466 50.6644 46.5182
threshold=0.31674591119884571 1.3120251859804457 0.21616843890506113 0.12108806588992717 1.1050080534576148 3.8125325397132837e-12 0.83479067934153772 0.16936967873114578 0.31600007804848201 -0.068228442412094012 0.84170804907015628 -0.14239062704132763 2.9666599280162755e-12 0.14490766677417855
decision_type=2 2 2 2 2 2 2 2 2 2 2 2 2 2
left_child=1 3 4 -1 5 -2 -4 -5 9 10 -6 -10 -3 -14
right_child=2 12 6 7 8 -7 -8 -9 11 -11 -12 -13 13 -15
leaf_value=-0.01391059267308321 0.045538626854500684 0.025857029088248395 0.021112532326190734 0.014934150071766718 0.030284454516274359 -0.0095225596136100394 0.052037272115078456 -0.0058970600463763472 -0.034469943390384249 0.0078785048760903944 -0.015023807426841325 0.0059399830715396468 0.021237347894566414 -0.00061964962880329709
leaf_weight=2062.014477959834 21.497917858883739 88.328585900366306 448.20896129216999 160.58988517336547 298.55636028014123 292.72415324300528 79.56085092946887 347.46528283599764 36.85628036223352 479.55552097968757 28.409020506776869 169.38675836659968 98.273454293608665 694.57826079800725
leaf_count=62399 165 940 3793 1515 2831 6075 290 4065 460 6422 604 2085 1392 10295
internal_value=0 -0.00703998 0.0129962 -0.0110201 0.00781156 -0.00549128 0.0259533 0.000720165 0.0119416 0.0153852 0.0262804 -0.0015431 0.00456706 0.00213613
internal_weight=0 3451.25 1854.76 2570.07 1326.99 314.222 527.77 508.055 1012.76 806.521 326.965 206.243 881.18 792.852
internal_count=103331 80606 22725 67979 18642 6240 4083 5580 12402 9857 3435 2545 12627 11687
is_linear=0
shrinkage=0.03


Tree=3
num_leaves=15
num_cat=0
split_feature=12 26 19 21 17 20 6 30 30 12 17 26 23 12
split_gain=561.78 172.45 122.791 105.622 75.4225 75.4778 73.2147 58.0711 54.7242 53.7694 49.5112 49.0182 42.7385 42.4458
threshold=0.31674591119884571 3.2538713040577871e-12 0.1926530515098995 0.13892768062786356 0.714130099656895 -0.26593916873561557 -0.11028255496275906 0.19367836516763715 0.077569513427025005 0.16936967873114578 0.75465166822921603 2.8822451694721186e-11 0.13967874228175894 0.88930255622310894
decision_type=2 2 2 2 2 2 2 2 2 2 2 2 2 2
left_child=1 10 4 6 5 -2 -3 12 -6 -5 -1 -7 -8 -4
right_child=2 3 13 9 8 11 7 -9 -10 -11 -12 -13 -14 -15
leaf_value=0.0087580774407725031 0.039229501561828188 0.0029332450029345429 0.02335555673509912 0.0098350232891641857 0.044371002257484124 0.0057578984778815078 -0.015586351676070986 -0.029824926751565024 -0.0029776096822257949 -0.0063444931092264088 0.041329690175087391 0.019876094937267923 0.0041287154059659993 0.053634237988888479
leaf_weight=162.91685685981065 89.114249795675278 194.48603272251785 343.96599743142724 246.13420932553709 20.985859826207161 646.97457723598927 1299.811403574422 249.44437799975276 494.88392609544098 723.54809160996228 55.367885734885931 336.48922548536211 106.29916701465845 47.47310533747077
leaf_count=2145 512 4453 2223 4473 143 7048 41196 8333 9289 17001 489 3496 2396 163
internal_value=0 -0.0082611 0.0122676 -0.0102523 0.00853805 0.0130646 -0.0144523 -0.0164958 -0.000887522 -0.00222586 0.0173201 0.0106189 -0.0140922 0.0272817
internal_weight=0 3038.01 1979.89 2819.72 1588.45 1072.58 1850.04 1655.55 515.87 969.682 218.285 983.464 1406.11 391.439
internal_count=103360 80486 22874 77852 20488 11056 56378 51925 9432 21474 2634 10544 43592 2386
is_linear=0
shrinkage=0.03


Tree=4
num_leaves=15
num_cat=0
split_feature=16 26 19 12 15 6 12 22 10 12 12 26 6 11
split_gain=502.504 199.502 141.253 114.181 127.887 91.1926 60.2526 56.7997 46.8355 45.1451 47.7021 42.0382 41.5546 36.4649
threshold=1.2674053403620735 3.8125325397132837e-12 0.23673530416508404 0.32324206042534082 1.0051414770977145 -0.068228442412094012 0.83479067934153772 0.043899114343283425 0.073355113749264081 0.51895159398402857 0.37435992485559083 2.1940098904556456e-11 -0.11028255496275906 0.64567152693402974
decision_type=2 2 2 2 2 2 2 2 2 2 2 2 2 2
left_child=1 -1 5 4 12 -2 7 -7 -6 10 11 -5 -3 -12
right_child=2 3 -4 9 8 6 -8 -9 -10 -11 13 -13 -14 -15
leaf_value=0.022509206435054559 0.020906405573957735 -0.0027870854269447941 0.036382089010682052 -0.018493312180000776 -0.015983595002180748 0.0005644755954573651 0.042694961949244367 0.013973173400723593 0.014789929982104925 -0.012872854269242891 0.019206089644611787 0.0074874610522358926 -0.018396904764225459 -0.021727008963146683
leaf_weight=174.11307029705495 427.34250401891768 171.20822926051915 180.64741173014045 98.969114399515092 58.05007482599467 1050.0765894558281 35.579334910959005 387.98833956383169 171.51909222174436 157.08285752870142 204.91666373703629 124.24286804907024 1549.3828422948718 19.978342678397894
leaf_count=2434 4387 4365 788 1447 1349 16575 268 4139 2312 3483 2596 1858 56649 404
internal_value=0 -0.00839332 0.0111674 -0.0105149 -0.0140444 0.00873559 0.00518261 0.00419651 0.00693753 0.000867391 0.0057198 -0.00409399 -0.0168487 0.0154104
internal_weight=0 2729.46 2081.63 2555.35 1950.16 1900.99 1473.64 1438.06 229.569 605.19 448.107 223.212 1720.59 224.895
internal_count=103054 76897 26157 74463 64675 25369 20982 20714 3661 9788 6305 3305 61014 3000
is_linear=0
shrinkage=0.03


Tree=5
num_leaves=15
num_cat=0
split_feature=12 16 19 15 26 17 20 26 30 12 26 12 6 30
split_gain=457.002 226.904 121.579 116.181 91.2352 72.6863 68.6443 65.847 59.7142 54.3671 49.1982 46.7812 46.5739 52.163
threshold=0.31674591119884571 1.3120251859804457 0.1926530515098995 1.0051414770977145 3.8125325397132837e-12 0.714130099656895 -0.2848498200502409 2.9666599280162755e-12 0.074913112113880201 0.25417199515861982 3.2991786945502102e-11 0.16542937185311571 -0.11028255496275906 0.19243604547770382
decision_type=2 2 2 2 2 2 2 2 2 2 2 2 2 2
left_child=1 3 5 4 -1 6 -2 9 -7 -3 -8 -9 -6 -14
right_child=2 7 -4 -5 12 8 10 11 -10 -11 -12 -13 13 -15
leaf_value=0.010061035522603391 0.039113225381083437 0.0071621075118416377 0.026326731234927424 0.0050661923366006239 -0.0028733770060479294 0.043502419599150972 0.0051471015004499014 0.023288251502744321 -0.004912693774149433 0.044772276602992364 0.019820237031423136 -0.0012452343745183122 -0.017255104378626436 -0.03279841840221636
leaf_weight=109.14381659775972 75.425113830715418 79.170877255499363 387.96303704939783 264.30150714050978 161.62080406583846 22.191122949123383 668.15126793924719 76.705488864332438 438.76639842707664 60.738614071160555 296.53007373772562 627.48943966347724 1162.7493426697329 235.97253987938166
leaf_count=1708 388 624 2386 3998 4280 139 7870 874 9244 296 2823 10832 48264 9685
internal_value=0 -0.00772203 0.0113949 -0.0133826 -0.0163058 0.00750576 0.0118938 0.00524682 -0.00240406 0.0238906 0.0096891 0.0014855 -0.0181606 -0.0199204
internal_weight=0 2777.89 1889.03 1933.79 1669.49 1501.06 1040.11 844.104 460.958 139.909 964.681 704.195 1560.34 1398.72
internal_count=103411 80561 22850 67935 63937 20464 11081 12626 9383 920 10693 11706 62229 57949
is_linear=0
shrinkage=0.03


end of trees

feature_importances:
vol_63=19
corr_63=9
amihud_20=9
log_ret_252=8
beta_63=7
residual_log_ret_63=5
excess_log_ret_126=4
benchmark_vol_20=4
vol_20=3
distance_to_63d_high=3
distance_to_63d_low=3
ma_50_200=3
log_ret_126=2
return_to_vol_63=2
ma_20_50=2
excess_log_ret_63=1

parameters:
[boosting: gbdt]
[objective: lambdarank]
[metric: ndcg]
[tree_learner: serial]
[device_type: cpu]
[data: ]
[valid: ]
[num_iterations: 400]
[learning_rate: 0.03]
[num_leaves: 15]
[num_threads: 0]
[deterministic: 0]
[force_col_wise: 0]
[force_row_wise: 0]
[histogram_pool_size: -1]
[max_depth: -1]
[min_data_in_leaf: 40]
[min_sum_hessian_in_leaf: 0.001]
[bagging_fraction: 0.85]
[pos_bagging_fraction: 1]
[neg_bagging_fraction: 1]
[bagging_freq: 1]
[bagging_seed: 26602]
[feature_fraction: 0.85]
[feature_fraction_bynode: 1]
[feature_fraction_seed: 18297]
[extra_trees: 0]
[extra_seed: 13015]
[early_stopping_round: 40]
[first_metric_only: 0]
[max_delta_step: 0]
[lambda_l1: 0]
[lambda_l2: 2]
[linear_lambda: 0]
[min_gain_to_split: 0]
[drop_rate: 0.1]
[max_drop: 50]
[skip_drop: 0.5]
[xgboost_dart_mode: 0]
[uniform_drop: 0]
[drop_seed: 30017]
[top_rate: 0.2]
[other_rate: 0.1]
[min_data_per_group: 100]
[max_cat_threshold: 32]
[cat_l2: 10]
[cat_smooth: 10]
[max_cat_to_onehot: 4]
[top_k: 20]
[monotone_constraints: ]
[monotone_constraints_method: basic]
[monotone_penalty: 0]
[feature_contri: ]
[forcedsplits_filename: ]
[refit_decay_rate: 0.9]
[cegb_tradeoff: 1]
[cegb_penalty_split: 0]
[cegb_penalty_feature_lazy: ]
[cegb_penalty_feature_coupled: ]
[path_smooth: 0]
[interaction_constraints: ]
[verbosity: -1]
[saved_feature_importance_type: 0]
[linear_tree: 0]
[max_bin: 255]
[max_bin_by_feature: ]
[min_data_in_bin: 3]
[bin_construct_sample_cnt: 200000]
[data_random_seed: 94]
[is_enable_sparse: 1]
[enable_bundle: 1]
[use_missing: 1]
[zero_as_missing: 0]
[feature_pre_filter: 0]
[pre_partition: 0]
[two_round: 0]
[header: 0]
[label_column: ]
[weight_column: ]
[group_column: ]
[ignore_column: ]
[categorical_feature: ]
[forcedbins_filename: ]
[precise_float_parser: 0]
[objective_seed: 20363]
[num_class: 1]
[is_unbalance: 0]
[scale_pos_weight: 1]
[sigmoid: 1]
[boost_from_average: 1]
[reg_sqrt: 0]
[alpha: 0.9]
[fair_c: 1]
[poisson_max_delta_step: 0.7]
[tweedie_variance_power: 1.5]
[lambdarank_truncation_level: 30]
[lambdarank_norm: 1]
[label_gain: ]
[eval_at: 1,3,5]
[multi_error_top_k: 1]
[auc_mu_weights: ]
[num_machines: 1]
[local_listen_port: 12400]
[time_out: 120]
[machine_list_filename: ]
[machines: ]
[gpu_platform_id: -1]
[gpu_device_id: -1]
[gpu_use_dp: 0]
[num_gpu: 1]

end of parameters

pandas_categorical:[]
