tree
version=v3
num_class=1
num_tree_per_iteration=1
label_index=0
max_feature_idx=30
objective=lambdarank
feature_names=log_ret_1 log_ret_5 log_ret_10 log_ret_21 log_ret_63 log_ret_126 log_ret_252 excess_log_ret_5 excess_log_ret_21 excess_log_ret_63 excess_log_ret_126 vol_20 vol_63 downside_vol_20 return_to_vol_21 return_to_vol_63 beta_63 corr_63 residual_log_ret_21 residual_log_ret_63 distance_to_63d_high distance_to_63d_low ma_20_50 ma_50_200 volume_z_20 dollar_volume_z_20 amihud_20 gap_pct intraday_ret benchmark_log_ret_21 benchmark_vol_20
feature_infos=[-0.27745556184218101:0.42061695919913433] [-0.3957244534354456:0.41648047618422357] [-0.49370308912685301:0.43819716220440874] [-0.61440354872279102:0.52782319843673764] [-0.8047167671230413:0.76926225495481715] [-0.7092470191286715:1.3474796323168969] [-0.93369139060584949:1.9976326629446586] [-0.35717680306604338:0.40676438533864001] [-0.52303921492064731:0.49897534497940166] [-0.63296765521398579:0.69285018273018073] [-0.7127994658011616:1.2086989061493809] [0.037807546527101075:1.6902742360877918] [0.063234462298234151:1.084895230302396] [0:1.6951523916319398] [-1.2321822191905951:1.9818238970052768] [-1.457723515524058:2.1549690400112573] [-0.53974793899975126:3.9702633267029679] [-0.29636955902704382:0.93843861727305711] [-0.47921011783968626:0.49235861662545222] [-0.56484036825088446:0.76893104733728268] [-0.56038452225566937:0] [0:1.1857047853785452] [-0.23207915984123273:0.26860021762241182] [-0.34356331099929394:0.67221878813955005] [-3.0367420695947178:4.2399592092532954] [-3.712571118244806:4.093929137987935] [8.4669944439156429e-13:1.6431304686732721e-09] [-0.23285127672811012:0.21755732693025198] [-0.12467631348861419:0.25078367961446957] [-0.11908253189722462:0.12751519401330924] [0.030611701262277222:0.30953295433300337]
tree_sizes=1764 1751 1742 1750 1747

Tree=0
num_leaves=15
num_cat=0
split_feature=12 4 12 5 6 12 10 6 12 6 17 23 6 23
split_gain=106.305 48.6909 31.3824 26.1357 24.4959 23.9122 20.0766 18.5274 18.1952 21.7403 14.771 20.7985 13.6805 31.3276
threshold=0.36443140940330049 0.19836753873830129 0.20969867486096408 0.042346319045859067 0.03796568020698033 0.10130700714513262 0.26314758191608628 0.3288904473505237 0.27461566429556833 -0.19232908894290832 0.75151924366311917 0.13259776503411083 0.0075641873406928637 0.07623304667298049
decision_type=2 2 2 2 2 2 2 2 2 2 2 2 2 2
left_child=1 2 5 8 -2 -1 -6 12 9 -4 -5 -12 13 -7
right_child=4 -3 3 10 6 7 -8 -9 -10 -11 11 -13 -14 -15
leaf_value=-0.042067026721390996 0.032863270085885563 0.017756491216558687 0.0240965667848262 0.0019197956251366546 0.00049513906675383501 -0.0054525397298004017 0.029149705259277278 0.0033878597632786165 -0.013841323385239752 -0.0039615958616750092 0.018958333649891031 -0.021493522678331684 -0.01143512498895825 0.045049171251411703
leaf_weight=16.438908729236573 87.295050621498376 96.842507963534445 27.803604510612786 248.66700813174248 62.466208686120808 88.978004559874535 32.03503642231226 119.57067009853199 136.18274466879666 147.68920497596264 105.55577079113573 11.131355647929011 513.83732574991882 10.584563870914279
leaf_count=1128 2556 2852 693 10269 2180 4720 936 4148 6090 7079 3304 623 25235 101
internal_value=0 -0.00261323 -0.00401908 0.000663583 0.0215377 -0.00823999 0.0106116 -0.00736892 -0.00569849 0.000705135 0.0060924 0.0148023 -0.00946994 0.000697727
internal_weight=0 1523.28 1426.44 677.03 181.796 749.409 94.5012 732.971 311.676 175.493 365.354 116.687 613.4 99.5626
internal_count=71914 66242 63390 28058 5672 35332 3116 34204 13862 7772 14196 3927 30056 4821
is_linear=0
shrinkage=0.03


Tree=1
num_leaves=15
num_cat=0
split_feature=12 16 6 12 6 17 23 16 4 6 16 17 6 15
split_gain=788.945 291.543 157.096 83.7498 44.921 47.1878 43.6198 42.7062 41.6433 36.7603 37.2611 32.1611 32.7524 29.9886
threshold=0.36443140940330049 1.2765843766668961 0.31184676960040508 0.15671348190624187 0.56406655857179888 0.54298058432940943 0.11490435530451372 0.96387310493452338 0.15676091966429431 -0.045787189595457793 1.6073498379130424 0.52277356604731062 -0.18404445805187783 1.1171479952559438
decision_type=2 2 2 2 2 2 2 2 2 2 2 2 2 2
left_child=1 2 3 -1 7 -6 9 13 -9 10 -3 -5 -13 -4
right_child=-2 6 4 11 5 -7 -8 8 -10 -11 -12 12 -14 -15
leaf_value=-0.029145891938596149 0.02461039412433294 0.0063725004327421777 -0.016587753621250256 -0.0084517503739985969 0.0462008020169263 -0.020639036594604358 0.016066338182288916 0.017866548153059842 -0.0130401564696613 -0.0017680519616783534 0.046807229524059163 0.010672302013127936 -0.019578523707523124 0.013463529249579451
leaf_weight=411.05630768928677 911.96124502271414 69.770938281901181 149.45783781912178 600.53565626777709 35.950665960088372 11.379188172519205 329.50645624939352 139.64560970757157 52.616069107316434 419.1214252570644 27.53169415332377 32.71920651383698 634.30718194786459 35.625167504884303
leaf_count=13147 5676 1400 2507 14800 239 178 4201 1950 638 8245 416 782 17513 343
internal_value=0 -0.00728771 -0.013266 -0.0173857 0.00302328 0.0299457 0.00757278 -0.000493645 0.00936117 0.00211235 0.0185258 -0.0135321 -0.0180672 -0.0107213
internal_weight=0 2949.22 2103.29 1678.62 424.675 47.3299 845.931 377.345 192.262 516.424 97.3026 1267.56 667.026 185.083
internal_count=72035 66359 52097 46242 5855 417 14262 5438 2588 10061 1816 33095 18295 2850
is_linear=0
shrinkage=0.03


Tree=2
num_leaves=15
num_cat=0
split_feature=12 6 16 26 26 12 16 6 16 6 12 16 23 26
split_gain=540.49 356.39 153.793 90.6545 76.0102 86.568 90.1574 68.7719 68.4914 66.9774 62.922 54.7062 59.994 53.5539
threshold=0.3250889731351681 0.31865985535286662 1.3706981174107957 3.0968730017598199e-12 8.1971824273145257e-11 0.57525202846610191 2.043906098006405 0.56406655857179888 2.0023086671350296 0.035870850672354855 0.20727024138391018 0.96387310493452338 0.19739258327849565 1.4805195540323504e-11
decision_type=2 2 2 2 2 2 2 2 2 2 2 2 2 2
left_child=1 2 3 -1 5 6 9 11 -9 13 -5 -3 -13 -2
right_child=4 7 -4 10 -6 -7 -8 8 -10 -11 -12 12 -14 -15
leaf_value=0.030279171388169851 0.035687608224022636 -0.014967743745399699 0.0043091241310800115 -0.025876618090210194 0.047034836002889199 -0.011958719678858563 0.037418170154072124 0.036387942893037685 -0.023512208914488283 0.0019508142856510436 -0.013096280642551961 0.012747534208079456 -0.031010595621725069 0.013777052194707314
leaf_weight=31.033150951378047 141.59778698440641 95.352396365255117 305.04367896076292 788.22459098417312 70.829417219385505 94.66892995685339 173.09398814477026 127.04772548098117 18.418895203620195 286.55346889980137 631.77547637466341 419.26010421663523 28.337961312383413 351.18552678823471
leaf_count=665 737 2564 5477 28781 488 642 944 784 202 3761 18511 5625 409 2494
internal_value=0 -0.00786324 -0.0150307 -0.0190968 0.0172999 0.0152026 0.0179218 0.0104108 0.0285874 0.0135069 -0.0202169 0.00545386 0.00985153 0.0201917
internal_weight=0 2444.49 1756.08 1451.03 1117.93 1047.1 952.431 688.417 145.467 779.337 1420 542.95 447.598 492.783
internal_count=72084 63018 53434 47957 9066 8578 7936 9584 986 6992 47292 8598 6034 3231
is_linear=0
shrinkage=0.03


Tree=3
num_leaves=15
num_cat=0
split_feature=12 6 26 12 26 6 17 26 6 23 26 9 22 6
split_gain=554.111 379.397 170.928 98.9282 93.8227 92.8002 50.131 49.0205 47.2845 64.5117 45.5292 42.7979 35.2347 43.2873
threshold=0.3250889731351681 0.31865985535286662 3.0968730017598199e-12 0.20727024138391018 8.1971824273145257e-11 0.54358166651720563 0.50908391241929707 1.5021777563588306e-11 0.89684897069158365 -0.067444085745711355 1.817025544468154e-11 0.093734517441149037 -0.030979584015568936 0.052730389573766086
decision_type=2 2 2 2 2 2 2 2 2 2 2 2 2 2
left_child=1 2 -1 -4 7 -3 -7 8 9 11 -8 -2 -11 -14
right_child=4 5 3 -5 -6 6 10 -9 -10 12 -12 -13 13 -15
leaf_value=0.028793116639636667 0.041715938741689752 0.0037025236101096851 -0.025943387963288315 -0.010693409592469734 0.042684725690742831 0.04168203071567967 -0.014276595509269342 0.0083107779896930221 0.046877567605655972 -0.011414079615457113 0.030539417152345399 -0.015672535428991399 0.03140410757787232 0.0028973570237529308
leaf_weight=71.031932907178998 109.21875712089241 517.96474524121732 760.89582441095263 778.13255554437637 122.50650306418538 106.05397992394865 36.465871283784509 491.63482740707695 59.014387153089046 56.11928179115057 41.872328648343682 12.036782693117855 82.801615017466247 111.33961388655007
leaf_count=949 632 8413 30121 22202 472 485 345 5497 258 461 388 72 396 1331
internal_value=0 -0.00812809 -0.016148 -0.0182569 0.0181766 0.0102502 0.0284056 0.0148355 0.0222133 0.0180654 0.00984181 0.0358572 0.00922906 0.0152518
internal_weight=0 2312.42 1610.06 1539.03 1044.67 702.357 184.392 922.165 430.53 371.516 78.3382 121.256 250.261 194.141
internal_count=72022 62903 53272 52323 9119 9631 1218 8647 3150 2892 733 704 2188 1727
is_linear=0
shrinkage=0.03


Tree=4
num_leaves=15
num_cat=0
split_feature=12 6 26 16 26 6 12 16 16 12 16 23 6 26
split_gain=447.49 310.17 181.16 99.6028 84.7303 68.0067 61.6987 57.834 44.5233 40.4953 55.6852 60.7637 42.5733 34.3293
threshold=0.32268641567498196 0.31865985535286662 3.0968730017598199e-12 1.3706981174107957 8.1971824273145257e-11 0.54358166651720563 0.20727024138391018 0.96811486382710343 2.0898778522508574 0.57525202846610191 2.043906098006405 -0.10352649637254528 0.16454244087785289 2.1989310381587805e-11
decision_type=2 2 2 2 2 2 2 2 2 2 2 2 2 2
left_child=1 2 -1 6 9 7 -4 -3 -7 10 11 -2 -11 -14
right_child=4 5 3 -5 -6 8 -8 -9 -10 12 -12 -13 13 -15
leaf_value=0.025311264673774096 0.029372996685481132 -0.018340877442299421 -0.027905953669691341 -0.00048711372004163391 0.040628760855057594 0.029985672455173591 -0.013999230808794432 0.008041130124480763 -0.021247490470493766 -0.041095367673675817 0.030628610313586317 0.0065780166169901707 0.028367327408179002 -0.026913978873596402
leaf_weight=90.978065967559814 129.64218038227409 88.552457655780017 637.52126613864675 242.91454697027802 113.86363440006971 156.34689600206912 535.13831595424563 428.60524357669055 15.48175181634724 22.3930574785918 163.52161028236151 534.87017193902284 26.181600524112582 13.885018195956944
leaf_count=939 1051 2546 28653 5032 477 972 18354 5794 208 229 966 6171 249 142
internal_value=0 -0.00771474 -0.0153338 -0.0179781 0.0164403 0.00894147 -0.0215943 0.00347051 0.0251782 0.0132633 0.015021 0.0111 -0.00978184 0.00884092
internal_weight=0 2195.54 1506.55 1415.57 1004.36 688.986 1172.66 517.158 171.829 890.494 828.034 664.512 62.4597 40.0666
internal_count=71783 62498 52978 52039 9285 9520 47007 8340 1180 8808 8188 7222 620 391
is_linear=0
shrinkage=0.03


end of trees

feature_importances:
log_ret_252=18
vol_63=14
beta_63=11
amihud_20=10
ma_50_200=6
corr_63=4
log_ret_63=2
log_ret_126=1
excess_log_ret_63=1
excess_log_ret_126=1
return_to_vol_63=1
ma_20_50=1

parameters:
[boosting: gbdt]
[objective: lambdarank]
[metric: ndcg]
[tree_learner: serial]
[device_type: cpu]
[data: ]
[valid: ]
[num_iterations: 400]
[learning_rate: 0.03]
[num_leaves: 15]
[num_threads: 0]
[deterministic: 0]
[force_col_wise: 0]
[force_row_wise: 0]
[histogram_pool_size: -1]
[max_depth: -1]
[min_data_in_leaf: 40]
[min_sum_hessian_in_leaf: 0.001]
[bagging_fraction: 0.85]
[pos_bagging_fraction: 1]
[neg_bagging_fraction: 1]
[bagging_freq: 1]
[bagging_seed: 26602]
[feature_fraction: 0.85]
[feature_fraction_bynode: 1]
[feature_fraction_seed: 18297]
[extra_trees: 0]
[extra_seed: 13015]
[early_stopping_round: 40]
[first_metric_only: 0]
[max_delta_step: 0]
[lambda_l1: 0]
[lambda_l2: 2]
[linear_lambda: 0]
[min_gain_to_split: 0]
[drop_rate: 0.1]
[max_drop: 50]
[skip_drop: 0.5]
[xgboost_dart_mode: 0]
[uniform_drop: 0]
[drop_seed: 30017]
[top_rate: 0.2]
[other_rate: 0.1]
[min_data_per_group: 100]
[max_cat_threshold: 32]
[cat_l2: 10]
[cat_smooth: 10]
[max_cat_to_onehot: 4]
[top_k: 20]
[monotone_constraints: ]
[monotone_constraints_method: basic]
[monotone_penalty: 0]
[feature_contri: ]
[forcedsplits_filename: ]
[refit_decay_rate: 0.9]
[cegb_tradeoff: 1]
[cegb_penalty_split: 0]
[cegb_penalty_feature_lazy: ]
[cegb_penalty_feature_coupled: ]
[path_smooth: 0]
[interaction_constraints: ]
[verbosity: -1]
[saved_feature_importance_type: 0]
[linear_tree: 0]
[max_bin: 255]
[max_bin_by_feature: ]
[min_data_in_bin: 3]
[bin_construct_sample_cnt: 200000]
[data_random_seed: 94]
[is_enable_sparse: 1]
[enable_bundle: 1]
[use_missing: 1]
[zero_as_missing: 0]
[feature_pre_filter: 0]
[pre_partition: 0]
[two_round: 0]
[header: 0]
[label_column: ]
[weight_column: ]
[group_column: ]
[ignore_column: ]
[categorical_feature: ]
[forcedbins_filename: ]
[precise_float_parser: 0]
[objective_seed: 20363]
[num_class: 1]
[is_unbalance: 0]
[scale_pos_weight: 1]
[sigmoid: 1]
[boost_from_average: 1]
[reg_sqrt: 0]
[alpha: 0.9]
[fair_c: 1]
[poisson_max_delta_step: 0.7]
[tweedie_variance_power: 1.5]
[lambdarank_truncation_level: 30]
[lambdarank_norm: 1]
[label_gain: ]
[eval_at: 1,3,5]
[multi_error_top_k: 1]
[auc_mu_weights: ]
[num_machines: 1]
[local_listen_port: 12400]
[time_out: 120]
[machine_list_filename: ]
[machines: ]
[gpu_platform_id: -1]
[gpu_device_id: -1]
[gpu_use_dp: 0]
[num_gpu: 1]

end of parameters

pandas_categorical:[]
