tree
version=v3
num_class=1
num_tree_per_iteration=1
label_index=0
max_feature_idx=30
objective=lambdarank
feature_names=log_ret_1 log_ret_5 log_ret_10 log_ret_21 log_ret_63 log_ret_126 log_ret_252 excess_log_ret_5 excess_log_ret_21 excess_log_ret_63 excess_log_ret_126 vol_20 vol_63 downside_vol_20 return_to_vol_21 return_to_vol_63 beta_63 corr_63 residual_log_ret_21 residual_log_ret_63 distance_to_63d_high distance_to_63d_low ma_20_50 ma_50_200 volume_z_20 dollar_volume_z_20 amihud_20 gap_pct intraday_ret benchmark_log_ret_21 benchmark_vol_20
feature_infos=[-0.27745556184218101:0.42061695919913433] [-0.30876824934746239:0.39053944262320706] [-0.47892633715840871:0.37583330941101889] [-0.52439456220246994:0.52782319843673764] [-0.57662282607992665:0.76525040470998995] [-0.64208789918266884:1.3474796323168969] [-0.81361011884137557:1.9976326629446586] [-0.30924255824666202:0.38478323005754611] [-0.47884292299856535:0.48539937073823558] [-0.47534171093818856:0.69020630699867402] [-0.7127994658011616:1.2086989061493809] [0.037807546527101075:1.6902742360877918] [0.063234462298234151:1.084895230302396] [0:1.6951523916319398] [-1.2321822191905951:1.9818238970052768] [-1.3314865148858583:2.1549690400112573] [-0.53974793899975126:3.8769339233884854] [-0.2703808500166005:0.93843861727305711] [-0.46540003620909276:0.44352438088617191] [-0.48059572805301265:0.65729707202305909] [-0.47616396967684205:0] [0:1.1803278229291418] [-0.23056464974984947:0.21968838537735524] [-0.28190571173856027:0.67221878813955005] [-3.0367420695947178:4.2399592092532954] [-3.712571118244806:4.093929137987935] [1.0444366686953671e-12:1.6431304686732721e-09] [-0.23285127672811012:0.21755732693025198] [-0.1202045952625459:0.25078367961446957] [-0.095135066740593466:0.10195536959830775] [0.030611701262277222:0.27374387470471828]
tree_sizes=1764 1752 1747 1756 1761 1759 1772 1766 1753 1751 1748 1749 1762 1767 1756 1768 1759 1771 1774

Tree=0
num_leaves=15
num_cat=0
split_feature=12 6 21 17 6 23 21 17 5 6 11 21 6 23
split_gain=67.7726 41.9922 26.7903 26.4837 23.3047 20.5024 15.3231 16.1725 11.9846 21.3453 12.6109 11.9076 11.218 13.3295
threshold=0.17525179100764524 0.31457929575780624 0.20096088655251279 0.39943938343355351 -0.20725515702801853 -0.078649845013528327 0.050113113334839372 0.56875109181010053 0.075387360042871623 -0.023887520952058591 0.1356035785994914 0.070682251012972333 0.23363032561345845 0.034445483867941558
decision_type=2 2 2 2 2 2 2 2 2 2 2 2 2 2
left_child=1 3 4 11 5 -2 -5 12 -6 -10 -11 -1 13 -8
right_child=2 -3 -4 6 8 -7 7 -9 9 10 -12 -13 -14 -15
leaf_value=-0.039869487115452504 -0.0082635625710648745 0.011589076678133909 0.016987154594309908 -0.021775932343426747 -0.0041235586019408663 0.034913391220305484 -0.012465981549842761 -0.015177794276293566 0.029472607415115912 -0.016323582978304409 0.0045551405405035118 -0.0182578576219877 -0.013875378048163071 0.019504002122011064
leaf_weight=41.897461805958301 13.046605178620664 60.785036126151681 138.33080728538334 54.324656203389168 255.30508879339322 31.907059301622212 14.002675104886292 55.49604081036523 26.553373740054667 27.730598802212626 208.71437758952379 62.540087106171995 18.312697179149836 46.061002855189145
leaf_count=2758 637 2207 4873 3179 11487 725 659 3165 653 1093 8045 3202 840 1295
internal_value=0 -0.0108155 0.00525641 -0.0155164 0.00232554 0.0225642 -0.00863914 -0.00306623 0.000490201 0.00496632 0.00199008 -0.0275141 0.00567389 0.0118893
internal_weight=0 353.42 701.588 292.635 563.257 44.9537 188.197 133.872 518.303 262.998 236.445 104.438 78.3764 60.0637
internal_count=44818 17305 27513 15098 22640 1362 9138 5959 21278 9791 9138 5960 2794 1954
is_linear=0
shrinkage=0.03


Tree=1
num_leaves=15
num_cat=0
split_feature=16 6 16 6 17 6 12 9 9 12 17 17 6 6
split_gain=271.053 155.406 118.341 85.0865 83.572 82.0143 81.5128 64.3857 45.9569 51.6719 40.3235 39.0987 33.2374 29.683
threshold=1.2613651551084399 0.52030818212721164 0.72747347147212393 -0.033341623939825864 0.73208287763992885 -0.19779208231134635 0.17525179100764524 0.028251275075014574 -0.075804073359138954 0.33215648529885322 0.56875109181010053 0.45937242481209734 0.30134450871098434 0.24908493612041574
decision_type=2 2 2 2 2 2 2 2 2 2 2 2 2 2
left_child=1 2 6 8 7 -4 -1 -5 9 -2 -7 -9 -12 -6
right_child=3 -3 5 4 13 10 -8 11 -10 -11 12 -13 -14 -15
leaf_value=-0.034355547322035412 -0.02905585406428594 0.037898112584528812 0.022457166808540718 -0.0028889199894367875 0.0018908245756669979 -0.0012541375882709849 -0.007080420231096755 0.0343716648259055 0.040081936707010594 0.029106187062987031 -0.017120100298390489 0.013352914878461223 0.0041589487211364587 -0.028976446765271405
leaf_weight=233.22782015055418 20.079052427783608 64.340855384245515 94.669838027097285 147.25638957601041 51.489040460437536 581.5208978196606 171.98708376660943 121.53424793668091 142.9530664337799 34.65663190651685 361.64463119301945 238.06410917453468 79.88968538120389 58.96207844465971
leaf_count=7851 309 619 665 3230 1258 9780 3443 1013 1216 441 9678 3078 1265 1057
internal_value=0 -0.00707555 -0.0090228 0.0141868 0.00864697 -0.00397057 -0.0228707 0.0137966 0.0312256 0.00749809 -0.00645514 0.0206075 -0.0132686 -0.0148093
internal_weight=0 1587.28 1522.94 814.995 617.306 1117.73 405.215 506.855 197.689 54.7357 1023.06 359.598 441.534 110.451
internal_count=44903 33301 32682 11602 9636 21388 11294 7321 1966 750 20723 4091 10943 2315
is_linear=0
shrinkage=0.03


Tree=2
num_leaves=15
num_cat=0
split_feature=16 6 6 9 12 16 17 26 16 9 16 12 6 26
split_gain=465.761 352.544 89.8883 119.974 74.013 58.3866 54.1041 43.2846 38.6603 35.8591 41.8643 39.9555 34.9524 32.9279
threshold=1.2613651551084399 0.45791455315904589 -0.030179163454202792 0.030724337915331915 0.20488957193186086 0.75541627266204003 0.60167661128704608 1.7328313606826905e-11 1.1438832715096121 -0.047942875461704164 1.5329511948937926 0.40249526467779811 -0.12014039615661253 5.3262192675659695e-11
decision_type=2 2 2 2 2 2 2 2 2 2 2 2 2 2
left_child=1 4 9 -4 5 -1 13 -8 -3 10 11 -2 -6 -5
right_child=2 8 3 6 12 -7 7 -9 -10 -11 -12 -13 -14 -15
leaf_value=-0.035709849226002149 -0.02518055706734729 0.038675250537843445 -0.010720072548994583 0.019987798760596941 0.0060840404942003427 -0.017010396642099388 -0.019155480904664516 0.014491798939570682 0.00528592360997237 0.03818343048299877 0.033971491474111583 0.036503813025121762 -0.013068733932382831 0.045808449559694889
leaf_weight=247.23103634174913 30.120630051009357 116.13756717182696 180.32123726047575 297.71417244896293 110.31671008467674 398.5407292554155 52.102527070790529 92.599989283829927 43.370187859982252 182.29541458748281 43.899608151987195 11.444573014974592 367.96968610305339 52.595443941652775
leaf_count=10128 460 707 4685 2313 1613 10943 954 1288 262 1024 399 88 9679 419
internal_value=0 -0.0117118 0.0160301 0.0101451 -0.0176412 -0.0242576 0.0177584 0.00228056 0.0297746 0.0306875 0.0141913 -0.00730026 -0.00864421 0.0241025
internal_weight=0 1283.57 943.094 675.333 1124.06 645.772 495.012 144.703 159.508 267.76 85.4648 41.5652 478.286 350.31
internal_count=44962 33332 11630 9659 32363 21071 4974 2242 969 1971 947 548 11292 2732
is_linear=0
shrinkage=0.03


Tree=3
num_leaves=15
num_cat=0
split_feature=12 6 6 6 26 23 17 26 17 23 6 26 12 5
split_gain=367.827 198.802 131.226 119.255 108.774 62.7842 57.6055 50.7963 47.3438 47.14 46.5636 36.9843 35.6517 31.8614
threshold=0.20661864139690669 0.31457929575780624 0.50735672170501378 -0.087360832374427697 4.3963098372567209e-11 0.13404303034672219 0.79850645400618925 2.4790413136031256e-12 0.55738821028512986 -0.11353341323188836 0.56721480934972546 3.1837138203946883e-12 0.36703159660069079 0.081225707705457242
decision_type=2 2 2 2 2 2 2 2 2 2 2 2 2 2
left_child=1 11 3 9 7 -4 13 -5 -7 12 -3 -1 -2 -6
right_child=2 10 5 4 6 8 -8 -9 -10 -11 -12 -13 -14 -15
leaf_value=0.021681580448818363 -0.036936197616777508 0.0028921645337366703 -0.020615010396804256 0.040533740956983373 0.0032773001790563808 0.038147252139555388 -0.019015672435115084 -0.010646007484293906 0.0085317888654147366 0.025108979295797945 0.040698452975590035 -0.025817578347185788 0.015608052266005689 0.03481297813841433
leaf_weight=13.697648080997167 19.23317969404161 174.07181192189455 21.430411282926798 16.130236186087132 40.329619709402323 207.98753092996776 29.319194062612951 513.3819567784667 64.98758767452091 258.77786797005683 33.350375665351748 588.12904431205243 23.91514165699482 103.23846913035959
leaf_count=315 361 3328 325 187 1030 1216 583 11541 725 2811 127 21035 265 1138
internal_value=0 -0.0159599 0.00978065 0.00459398 -0.00219341 0.0273239 0.0183366 -0.00894029 0.03121 0.0202947 0.00930147 -0.0246683 -0.00841201 0.0261211
internal_weight=0 809.249 1298.73 1004.33 702.399 294.406 172.887 529.512 272.975 301.926 207.422 601.827 43.1483 143.568
internal_count=44987 24805 20182 17916 14479 2266 2751 11728 1941 3437 3455 21350 626 2168
is_linear=0
shrinkage=0.03


Tree=4
num_leaves=15
num_cat=0
split_feature=16 6 26 12 6 6 15 26 26 26 6 6 29 6
split_gain=381.397 357.912 109.36 87.1666 75.7894 44.4 71.2372 37.4998 36.3255 34.7497 33.0198 31.1601 32.1201 26.8581
threshold=1.2613651551084399 0.44142808526475991 8.2710210340148723e-11 0.20488957193186086 0.31457929575780624 -0.033341623939825864 0.30825471373828245 3.252728084509696e-11 5.0476298374896838e-11 2.9431507360373715e-12 -0.30262456656172859 0.56721480934972546 -0.0055556924231607843 0.3180170878619078
decision_type=2 2 2 2 2 2 2 2 2 2 2 2 2 2
left_child=1 3 5 4 9 10 -7 -5 13 -1 -2 12 -3 -8
right_child=2 11 -4 7 -6 6 8 -9 -10 -11 -12 -13 -14 -15
leaf_value=0.021368352190300022 -0.018232417251066849 0.041081880457165106 0.045227721629295704 -0.01454561136897607 -0.00013147432292665961 -0.0076195071532970463 -0.0038184981444487772 0.0036335535355425902 0.038710979297829622 -0.032239448369344198 0.027534357807342331 0.040093508648456462 -0.0025088880396672338 0.016016812352690479
leaf_weight=9.8515668455511314 14.100889233872293 21.388665642589331 94.327169664204121 297.18633501697332 84.709790616296232 195.58652784163132 81.832590499892831 154.01650291029364 47.549939852207899 450.06044409889728 170.53572916425765 98.440677400678396 42.921814484521747 236.68304740265012
leaf_count=185 144 172 530 7565 1830 4590 1668 3726 357 18898 1592 422 522 2633
internal_value=0 -0.01141 0.0151068 -0.0181568 -0.0262198 0.0111889 0.00694656 -0.00835157 0.0147282 -0.0310036 0.0238812 0.0295911 0.0127905 0.0109287
internal_weight=0 1158.58 840.616 995.825 544.622 746.289 561.652 451.203 366.066 459.912 184.637 162.751 64.3105 318.516
internal_count=44834 33320 11514 32204 20913 10984 9248 11291 4658 19083 1736 1116 694 4301
is_linear=0
shrinkage=0.03


Tree=5
num_leaves=15
num_cat=0
split_feature=23 16 17 12 6 26 26 6 5 16 26 26 26 6
split_gain=360.126 323.422 129.062 112.463 89.0956 49.9838 48.82 68.0127 40.1497 32.812 42.1885 31.0166 28.1471 26.2211
threshold=0.13548916355987375 1.2613651551084399 0.61987014572816579 0.19221634848737623 -0.033341623939825864 3.252728084509696e-11 4.6632776171006394e-11 0.52030818212721164 0.075387360042871623 1.4920316408863676 2.0160771275856172e-11 2.9431507360373715e-12 2.2476212671694277e-12 0.31457929575780624
decision_type=2 2 2 2 2 2 2 2 2 2 2 2 2 2
left_child=1 3 6 12 -3 11 7 -2 -6 -9 -11 -5 -1 -14
right_child=2 4 -4 5 8 -7 -8 9 -10 10 -12 -13 13 -15
leaf_value=0.019352508186231202 0.0042458534829446356 0.026285889850590764 -0.0096571798789779392 0.022493878890787744 -0.016524712117274198 0.0043576217460368607 0.048241157180340367 0.041204603066107556 0.0073156015043833369 0.033931854009990381 -0.010163718316366704 -0.018246079319345344 -0.03391762811708382 -0.011122064033854719
leaf_weight=8.9847618192434293 115.14289056509733 204.9995079729706 96.812006751075387 16.224253926426172 83.966648912988603 172.35160171706229 89.173837803304195 143.52181979641318 242.17372051998973 46.840076517313719 31.297868743538857 280.77642978075892 359.45194841688499 54.802512319758534
leaf_count=166 2030 1976 1649 273 2361 4055 434 695 4291 329 313 8505 16629 1283
internal_value=0 -0.00761838 0.0214495 -0.0186327 0.0108918 -0.00846473 0.0285312 0.0230587 0.00111447 0.0327058 0.0164567 -0.015885 -0.0298156 -0.0309699
internal_weight=0 1423.73 522.789 892.592 531.14 469.352 425.976 336.803 326.14 221.66 78.1379 297.001 423.239 414.254
internal_count=44989 39539 5450 30911 8628 12833 3801 3367 6652 1337 642 8778 18078 17912
is_linear=0
shrinkage=0.03


Tree=6
num_leaves=15
num_cat=0
split_feature=23 16 17 12 6 26 6 26 4 23 26 26 26 6
split_gain=333.409 283.346 112.424 110.552 80.3408 48.5617 48.1177 56.2522 35.2775 34.2289 33.9359 30.9979 21.8924 21.6922
threshold=0.13548916355987375 1.2667296021594592 0.61556792378294867 0.19221634848737623 -0.033341623939825864 3.2243196702694118e-11 0.54934744519137413 3.4245662140140107e-11 -0.020370905512908873 0.23758903228187803 2.9431507360373715e-12 2.2476212671694277e-12 5.4295681318997509e-11 0.31457929575780624
decision_type=2 2 2 2 2 2 2 2 2 2 2 2 2 2
left_child=1 3 6 11 -3 10 7 9 -6 -2 -5 -1 -10 -13
right_child=2 4 -4 5 8 -7 -8 -9 12 -11 -12 13 -14 -15
leaf_value=0.018883013681930221 0.0081430419282172792 0.024790871139386248 -0.00935064688414315 0.021068814560042792 -0.023461390012721392 0.0036092525509196557 0.036079566370653161 0.038399322071015297 0.0010602887709294448 -0.045523868446073479 -0.019154603090072088 -0.033845378920312329 0.024893208452666061 -0.012231881455753569
leaf_weight=10.247893730178474 107.22622171603143 197.87358002923429 90.655855153687298 18.781240966171026 45.193713380489498 187.57613356411457 239.47822010144591 59.628727194853127 232.55249721743166 9.86436505243182 250.34092268580571 338.30728563200682 38.811718758195639 51.068091897293925
leaf_count=164 1765 1919 1709 278 1366 4132 1337 540 4667 130 8464 16706 448 1290
internal_value=0 -0.00767411 0.0207562 -0.0182299 0.00989955 -0.00809121 0.0273274 0.015196 0.000494095 0.00293325 -0.0162128 -0.0297186 0.00462617 -0.0310877
internal_weight=0 1370.75 506.853 856.322 514.432 456.698 416.198 176.719 316.558 117.091 269.122 399.623 271.364 389.375
internal_count=44915 39434 5481 31034 8400 12874 3772 2435 6481 1895 8742 18160 5115 17996
is_linear=0
shrinkage=0.03


Tree=7
num_leaves=15
num_cat=0
split_feature=23 16 12 17 6 26 26 6 26 16 26 26 22 20
split_gain=315.073 244.184 112.582 94.5529 63.9931 50.1474 49.279 56.1528 36.6326 34.4291 38.9629 32.9034 32.1317 30.5159
threshold=0.13548916355987375 1.2667296021594592 0.19221634848737623 0.61556792378294867 -0.045568198092627014 3.252728084509696e-11 4.8082598352379468e-11 0.52030818212721164 2.9431507360373715e-12 1.4920316408863676 2.0160771275856172e-11 2.2476212671694277e-12 0.063716822694387512 -0.10875251688496183
decision_type=2 2 2 2 2 2 2 2 2 2 2 2 2 2
left_child=1 2 11 6 -3 8 7 -2 -4 -9 -11 -1 13 -6
right_child=3 4 5 -5 12 -7 -8 9 -10 10 -12 -13 -14 -15
leaf_value=0.019734087625150092 0.0040487676511657723 0.022766572373206069 0.019945628793752307 -0.0085567477198082997 -0.033379523142336935 0.004227227047020765 0.045349738360091651 0.038844794775159251 -0.019612055858588537 0.029861242165425839 -0.013873019452653281 -0.031156194636995233 0.024786214554180327 0.00019006344846802004
leaf_weight=10.521146945655344 120.72452385444194 185.93898611702025 21.576930308714509 84.185460666194558 24.987074895296246 191.64263222645968 92.544526167213917 133.38359253853559 229.4374106451869 44.592428229749203 28.686566080898046 366.04330123821273 41.051440573297441 251.20377515722066
leaf_count=160 2012 1799 276 1680 799 4066 436 670 8485 332 323 18022 472 5304
internal_value=0 -0.00753302 -0.0176199 0.0202948 0.00889407 -0.00730931 0.0260919 0.0204058 -0.0160809 0.0298306 0.0128269 -0.0296376 0.000671563 -0.00306513
internal_weight=0 1322.4 819.221 504.117 503.181 442.657 419.932 327.387 251.014 206.663 73.279 376.564 317.242 276.191
internal_count=44836 39383 31009 5453 8374 12827 3773 3337 8761 1325 655 18182 6575 6103
is_linear=0
shrinkage=0.03


Tree=8
num_leaves=15
num_cat=0
split_feature=23 16 12 6 6 10 23 6 4 16 22 13 12 6
split_gain=282.271 234.783 101.54 52.5242 51.3045 31.1588 30.0974 30.6607 24.9425 21.9672 19.0536 15.8138 15.225 13.9923
threshold=0.13548916355987375 1.2667296021594592 0.19380474959962837 -0.077646300417877553 0.54934744519137413 0.26602777140663841 0.15794545311391076 0.35635184772199407 -0.0077386924849065499 1.003136357546736 0.027351656653066162 0.27711825436176801 0.45941256676653758 -0.12014039615661253
decision_type=2 2 2 2 2 2 2 2 2 2 2 2 2 2
left_child=1 2 -1 -3 6 8 7 -2 -5 -6 13 -8 -10 -4
right_child=4 3 10 5 9 -7 11 -9 12 -11 -12 -13 -14 -15
leaf_value=-0.029087840619877861 -0.0021214484849765417 0.02314461546652186 0.007146785919701997 -0.017359075903741861 0.044523540022946194 0.04259764783947232 -0.0051790142147499808 0.032001798843090574 0.005386584147802828 0.023247426555663506 -0.020234533882467549 0.02126878568296716 -0.030872420770209352 -0.0074717291869907292
leaf_weight=365.25884524267167 34.778286354616284 154.24342304468155 73.800440195947886 57.992723577655852 60.029255241155624 14.34714264795184 110.32640026696026 70.830197084695101 264.01493410952389 196.22934856638312 82.511306087486446 22.848698930814862 8.8734509749338013 266.2145570255816
leaf_count=18449 740 1445 1589 1745 240 87 1819 870 4925 1501 2681 292 146 8366
internal_value=0 -0.00735832 -0.0175429 0.00871106 0.0192529 0.00216616 0.00913449 0.020934 0.000167639 0.0285376 -0.00747267 -0.000393847 0.00399152 -0.00427553
internal_weight=0 1287.26 787.785 499.472 495.042 345.228 238.784 105.608 330.881 256.259 422.526 133.175 272.888 340.015
internal_count=44895 39433 31085 8348 5462 6903 3721 1610 6816 1741 12636 2111 5071 9955
is_linear=0
shrinkage=0.03


Tree=9
num_leaves=15
num_cat=0
split_feature=23 16 12 17 15 10 19 22 16 16 23 9 12 9
split_gain=259.592 228.002 98.9415 83.9902 28.2421 24.6584 20.6406 17.0741 16.8608 15.9669 13.4246 19.4007 13.1474 28.3405
threshold=0.13548916355987375 1.2667296021594592 0.19380474959962837 0.61556792378294867 1.3159657070000648 0.24658124101846959 0.21172849909162084 0.031858626974927813 1.9663617126647974 2.1863254823922449 -0.063487781141728358 -0.045569769909267858 0.37261281407578162 -0.051311899703496248
decision_type=2 2 2 2 2 2 2 2 2 2 2 2 2 2
left_child=1 2 -1 4 6 8 9 -4 10 -2 12 -12 13 -3
right_child=3 5 7 -5 -6 -7 -8 -9 -10 -11 11 -13 -14 -15
leaf_value=-0.029299797678032941 0.023807568199688423 -0.037601393371928665 -0.0048887962830322 -0.0080744158289140552 -0.011752312584725498 0.038909449269548105 0.037552092549995697 -0.021676719130610398 0.020618731213893911 0.00044045573115790448 -0.012640712220338857 0.0056939753025151627 0.026700536178136291 0.033284662461138245
leaf_weight=346.29335837718099 257.29651798866689 8.7198785301297921 350.16523231007159 87.528139663860202 17.756009781733155 21.067696712911129 102.28312955051661 63.075300411321223 68.543704673647881 29.37580212764442 61.167064337059855 291.40808235947043 40.753049372695386 7.6669175662100306
leaf_count=18453 2674 193 10474 1697 242 128 540 2203 1008 317 1529 5053 426 79
internal_value=0 -0.00717982 -0.0175136 0.0184347 0.0241513 0.00854625 0.025842 -0.0075433 0.00705226 0.0214327 0.00469351 0.00245979 0.0179271 -0.00442286
internal_weight=0 1258.86 759.534 494.24 406.711 499.326 388.955 413.241 478.259 286.672 409.715 352.575 57.1398 16.3868
internal_count=45016 39546 31130 5470 3773 8416 3531 12677 8288 2991 7280 6582 698 272
is_linear=0
shrinkage=0.03


Tree=10
num_leaves=15
num_cat=0
split_feature=23 6 17 21 6 6 17 15 11 21 10 19 17 17
split_gain=225.049 118.735 71.2513 57.5402 38.943 38.8835 37.6959 25.7491 24.5822 20.845 19.7233 17.3316 16.0112 14.3275
threshold=0.13548916355987375 -0.097527505045176474 0.61556792378294867 0.22883192408849354 0.29298563044447073 0.50735672170501378 0.43159859419720942 0.98719402251527222 0.15032102831164959 0.23308930617188964 0.25539471144802445 -0.06918900787469294 0.42897191581968247 0.48125200191953715
decision_type=2 2 2 2 2 2 2 2 2 2 2 2 2 2
left_child=1 6 5 4 8 7 -1 13 -3 -9 -5 -7 -6 -2
right_child=2 3 -4 10 12 11 -8 9 -10 -11 -12 -13 -14 -15
leaf_value=-0.010728834093623709 0.005144013975888621 -0.024677505717400631 -0.0075072993681817536 0.0038579065393425957 -0.019643375333758581 -0.0096827479048203543 0.01785177444954298 0.011524637243627971 -0.012879099634710758 -0.033207753885160216 0.038821093692995537 0.03131932116360512 0.002693478730576941 0.025914974245459889
leaf_weight=51.387831695377827 54.538171675056219 250.12386636063457 86.249685651622713 81.573864976875484 33.682581230066717 8.7912259809672815 192.07984396070242 16.54228762164712 460.06866672029719 17.537057425826788 15.819925943389533 237.24253892153502 149.80392914265394 67.550587434321642
leaf_count=1398 789 12280 1705 1652 1303 96 2905 264 16352 318 99 1475 3569 800
internal_value=0 -0.00692155 0.0170946 -0.0115305 -0.0139167 0.0223813 0.0117811 0.0104834 -0.017092 -0.0120592 0.0102039 0.029788 -0.00157448 0.0168689
internal_weight=0 1234.54 488.452 991.073 893.679 402.202 243.468 156.168 710.193 34.0793 97.3938 246.034 183.487 122.089
internal_count=45005 39558 5447 35255 33504 3742 4303 2171 28632 582 1751 1571 4872 1589
is_linear=0
shrinkage=0.03


Tree=11
num_leaves=15
num_cat=0
split_feature=23 16 17 26 26 6 26 6 6 16 26 9 16 4
split_gain=208.728 171.938 72.3685 69.7533 52.927 45.206 41.9489 42.7233 33.6829 28.9609 31.0501 25.7129 22.2596 21.7614
threshold=0.13548916355987375 1.2667296021594592 0.61987014572816579 3.252728084509696e-11 2.9431507360373715e-12 -0.017946211313961898 4.8778735145528604e-11 0.52030818212721164 -0.097527505045176474 1.4920316408863676 2.0160771275856172e-11 -0.047942875461704164 1.9663617126647974 0.19291583344987287
decision_type=2 2 2 2 2 2 2 2 2 2 2 2 2 2
left_child=1 3 6 4 -1 11 7 13 -5 -9 -11 -3 -12 -2
right_child=2 5 -4 8 -6 -7 -8 9 -10 10 12 -13 -14 -15
leaf_value=0.015537725229518653 0.01044579488004254 0.004912989472853257 -0.009324032865744793 0.021059298381704596 -0.024820218112517882 -0.00024025904502933315 0.041454580629658275 0.034344852283334837 -0.0078769020065434583 0.026037611568754487 0.01470458588273583 0.027851960710443158 -0.034494868496850642 -0.01697982574655368
leaf_weight=29.880858018063009 99.978093164041638 74.531147869303823 81.169239136390388 42.630446749739349 468.17657817108557 292.69689972046763 75.900781091302633 122.7892973087728 190.17974041961133 42.837999809533358 13.442900750786068 108.96064345166087 16.439337477087975 33.024145368486643
leaf_count=553 1467 993 1673 700 23202 6278 408 670 6617 329 135 1063 207 621
internal_value=0 -0.0069085 0.0163435 -0.0160308 -0.0223465 0.0071011 0.0215157 0.0166859 -0.00244408 0.0255398 0.0101511 0.018688 -0.0128279 0.00348541
internal_weight=0 1207.06 485.582 730.868 498.057 476.189 404.413 328.512 232.81 195.51 72.7202 183.492 29.8822 133.002
internal_count=44916 39406 5510 31072 23755 8334 3837 3429 7317 1341 671 2056 342 2088
is_linear=0
shrinkage=0.03


Tree=12
num_leaves=15
num_cat=0
split_feature=23 16 12 17 6 26 26 6 26 9 12 16 26 26
split_gain=203.403 160.944 93.2365 62.6559 45.9657 41.2162 37.0116 40.5324 28.9122 23.9231 30.7498 23.5409 42.1672 21.6321
threshold=0.13548916355987375 1.2613651551084399 0.19380474959962837 0.61556792378294867 -0.014897981777048484 3.2243196702694118e-11 4.8778735145528604e-11 0.53465027767321305 2.9431507360373715e-12 -0.043368486213254169 0.38869774960665937 1.5748167243819944 2.0160771275856172e-11 2.2476212671694277e-12
decision_type=2 2 2 2 2 2 2 2 2 2 2 2 2 2
left_child=1 2 13 6 9 8 7 -2 -4 10 -3 -9 -13 -1
right_child=3 4 5 -5 -6 -7 -8 11 -10 -11 -12 12 -14 -15
leaf_value=0.016571085693034813 0.0047028409455386385 -0.013925455726162614 0.0182422174356499 -0.0073076084470835899 -0.00060854321283586559 0.0049581487148449869 0.040603122237264908 0.03382747031348847 -0.018273738583411015 0.026865917198686987 0.024455214959658637 0.028495348599210539 -0.023236469602300375 -0.028822261911580268
leaf_weight=8.5165829136967641 139.80020361021161 37.24080066755414 20.119310799986124 80.989547024480999 298.59393506217748 176.1173151275143 73.226387854665518 120.00544460490346 189.85944421216846 112.83552717231214 34.146405874285847 37.409984104335308 20.332570873200893 315.95908678602427
leaf_count=160 2103 672 296 1689 6468 4036 401 668 8236 1080 349 291 264 18252
internal_value=0 -0.00666697 -0.0157309 0.0165611 0.00668244 -0.00571856 0.02152 0.0168928 -0.0146358 0.0183795 0.0045992 0.0263213 0.0101112 -0.0275366
internal_weight=0 1193.39 710.572 471.764 482.817 386.096 390.775 317.548 209.979 184.223 71.3872 177.748 57.7426 324.476
internal_count=44965 39549 30980 5416 8569 12568 3727 3326 8532 2101 1021 1223 555 18412
is_linear=0
shrinkage=0.03


Tree=13
num_leaves=15
num_cat=0
split_feature=23 16 12 17 6 26 6 26 26 9 12 26 4 16
split_gain=185.933 152.159 89.9463 59.4265 41.8936 37.4375 36.0265 33.4271 32.2372 26.4826 30.3148 20.5425 20.1372 18.0903
threshold=0.13548916355987375 1.2613651551084399 0.19380474959962837 0.693665037424956 -0.014897981777048484 3.2243196702694118e-11 0.52030818212721164 4.4503145627057454e-11 2.9431507360373715e-12 -0.041330554442032368 0.38869774960665937 2.2476212671694277e-12 -0.018958079547730652 1.5748167243819944
decision_type=2 2 2 2 2 2 2 2 2 2 2 2 2 2
left_child=1 2 11 6 9 8 7 -2 -4 10 13 -1 -6 -3
right_child=3 4 5 -5 12 -7 -8 -9 -10 -11 -12 -13 -14 -15
leaf_value=0.014294661276897137 0.0025881649824787507 -0.02660469554777976 0.018804354102270587 -0.017525375285974046 -0.020499934267513616 0.0045320986060360087 0.026871673188770533 0.033415300624804717 -0.018396840079157373 0.02697202071420397 0.023770378227596953 -0.028303349329283353 0.0027633225490594081 0.017421247747124839
leaf_weight=9.3901120498776418 147.77624297700822 27.666349451988935 22.074386272579432 41.800296526402235 36.416111669503152 181.48635331168771 244.17150628753006 38.428068936802447 179.28080496238545 111.67275077290833 32.991108760237694 306.43252368969843 259.11338203027844 10.125049101188777
leaf_count=172 2367 558 292 1022 1353 4048 1761 321 8252 1073 328 18283 5019 156
internal_value=0 -0.0062477 -0.0151536 0.0159982 0.00677879 -0.00532872 0.0193202 0.00923763 -0.0141737 0.0179973 0.00348602 -0.0269548 -0.000221784 -0.0145265
internal_weight=0 1176.65 698.664 472.176 477.985 382.842 430.376 186.204 201.355 182.455 70.7825 315.823 295.529 37.7914
internal_count=45005 39534 31047 5471 8487 12592 4449 2688 8544 2115 1042 18455 6372 714
is_linear=0
shrinkage=0.03


Tree=14
num_leaves=15
num_cat=0
split_feature=12 6 26 6 16 26 16 17 16 26 17 12 26 16
split_gain=158.118 104.285 79.2418 57.935 44.6861 38.2709 40.5199 35.8655 33.7229 29.6515 27.7646 26.2312 22.5 26.8135
threshold=0.20570045254536207 0.3180170878619078 8.7764631579231202e-11 0.50735672170501378 1.2716951274044612 3.3087313626158843e-11 1.5329511948937926 0.55948139207735836 1.5216474806367966 2.9431507360373715e-12 0.82680448766745074 0.29309929267608398 1.5032413251296648e-11 1.9663617126647974
decision_type=2 2 2 2 2 2 2 2 2 2 2 2 2 2
left_child=1 4 3 5 9 6 -2 8 -5 -1 -7 -9 -10 -14
right_child=2 -3 -4 7 -6 10 -8 11 12 -11 -12 -13 13 -15
leaf_value=0.019699134835221888 -0.010761418740505877 0.0074606575163527434 0.034077273681881681 0.036865520123262552 -0.00021134622605812971 0.011541511957433904 0.01057997461076705 0.020069702176867252 0.026536686597507766 -0.027030275539628702 -0.017808950504601944 -0.0201928919526831 0.019142177470891805 -0.029503223880906752
leaf_weight=11.32606436870992 322.23439358081669 164.71606087125838 86.171827455051243 90.920788183808327 78.295337586663663 269.01910406909883 104.56028949655592 23.713859643787146 31.986281106248498 326.47518792189658 30.68985500279814 31.63467650860548 17.326736699789762 19.765681291930377
leaf_count=209 10233 3298 762 552 1896 4771 1664 299 287 19229 717 522 168 275
internal_value=0 -0.0126789 0.00687439 0.00431861 -0.0206489 0.000252547 -0.00550804 0.0179074 0.0250325 -0.0253568 0.00843793 -0.00284422 0.00885893 -0.00696304
internal_weight=0 580.813 1028.02 941.852 416.097 726.504 426.795 215.348 159.999 337.801 299.709 55.3485 69.0787 37.0924
internal_count=44882 24632 20250 19488 21334 17385 11897 2103 1282 19438 5488 821 730 443
is_linear=0
shrinkage=0.03


Tree=15
num_leaves=15
num_cat=0
split_feature=23 12 17 6 26 6 26 26 23 17 26 23 17 6
split_gain=157.124 118.87 52.9817 51.2867 31.8693 36.4179 29.1719 24.9211 23.0674 21.6699 21.4488 19.4498 17.2075 15.6901
threshold=0.13548916355987375 0.19221634848737623 0.63757310617586005 -0.097527505045176474 4.8778735145528604e-11 0.53465027767321305 4.2985002687491277e-11 9.5553843060373054e-11 0.18706514639296837 0.81148098466355767 2.6880922322840064e-12 0.0047732439654009093 0.42601405350059401 -0.30262456656172859
decision_type=2 2 2 2 2 2 2 2 2 2 2 2 2 2
left_child=1 -1 4 7 5 8 10 12 -2 11 -5 -8 -3 -14
right_child=2 3 -4 6 -6 -7 9 -9 -10 -11 -12 -13 13 -15
leaf_value=-0.019314325373300197 0.0095354560888241697 -0.010148029474289512 -0.010742072561656543 0.020204246145089401 0.037247029338768313 0.024098255569413633 -0.005161821812127842 0.039220752320285227 -0.020100139545953192 -0.018952092722163142 -0.0096386425434531603 0.019763849524864541 -0.013005133453932198 0.017028193303505856
leaf_weight=387.10259299632162 118.89860289636999 31.93321864400059 60.790816671214998 21.144559001550078 70.039328623563051 173.98793082498014 39.697940478101373 27.735705159604549 27.432873224839568 21.994723685085773 378.38463080208749 89.481140899471939 16.235215914435685 132.74714949075133
leaf_count=20235 1794 940 1486 257 426 1299 845 174 473 566 12611 1529 288 2028
internal_value=0 -0.00583108 0.0150303 0.00107507 0.0190781 0.0148989 -0.00372848 0.0136683 0.00378354 0.00742968 -0.00796648 0.012142 0.00936494 0.0136264
internal_weight=0 1146.46 451.15 759.354 390.359 320.319 550.703 208.651 146.331 151.174 399.529 129.179 180.916 148.982
internal_count=44951 39473 5478 19238 3992 3566 15808 3430 2267 2940 12868 2374 3256 2316
is_linear=0
shrinkage=0.03


Tree=16
num_leaves=15
num_cat=0
split_feature=12 6 26 6 5 16 6 16 26 26 17 12 26 16
split_gain=138.699 95.6467 70.8894 58.1702 42.6606 40.5374 39.6918 35.5389 29.3825 25.9535 25.3253 24.0905 20.8845 20.2272
threshold=0.20661864139690669 0.3180170878619078 4.4503145627057454e-11 0.52030818212721164 0.12451107147745689 1.2716951274044612 -0.069230371474301208 1.5216474806367966 2.6880922322840064e-12 2.1695498559595018e-11 0.57141798862107474 0.2949048717164991 2.4790413136031256e-12 1.5329511948937926
decision_type=2 2 2 2 2 2 2 2 2 2 2 2 2 2
left_child=1 5 3 6 -4 8 13 10 -1 -9 -5 -12 -8 -2
right_child=2 -3 4 7 -6 -7 12 9 -10 -11 11 -13 -14 -15
leaf_value=0.020909627883778641 0.003341680036874151 0.0073326642387532498 0.0075543375331865795 0.03548523373990832 0.030860537001380275 0.00012537720783999958 0.021741306750014251 0.013772321892170017 -0.02586648242394066 -0.021494713235238015 0.02899943116193884 -0.028161128479719626 -0.0096266131431224072 0.028471336581031206
leaf_weight=11.135913935489951 108.70396744413301 166.17539326194674 141.90787911880761 80.334290262311697 142.31337960623205 76.079940918833017 18.255740027874708 49.385923262685537 317.03141090180725 27.600450656376779 10.9319952018559 11.629947749897836 379.68566927686334 37.561150174587965
leaf_count=188 2423 3364 2457 492 1379 1900 205 581 19347 414 119 226 11425 403
internal_value=0 -0.0117651 0.00671808 0.00171691 0.0193582 -0.0196131 -0.00318132 0.0164078 -0.0241622 0.00090459 0.0277688 -0.000358856 -0.00808607 0.010092
internal_weight=0 570.423 1008.31 724.089 284.221 404.247 544.207 179.883 328.167 76.9864 102.896 22.5619 397.941 146.265
internal_count=44923 24799 20124 16288 3836 21435 14456 1832 19535 995 837 345 11630 2826
is_linear=0
shrinkage=0.03


Tree=17
num_leaves=15
num_cat=0
split_feature=23 12 6 17 26 6 26 10 23 26 26 17 6 20
split_gain=128.447 103.324 50.6651 47.5402 32.6923 34.8454 28.1733 25.8291 20.4243 18.0508 23.4678 17.9903 15.7423 15.823
threshold=0.13404303034672219 0.18995824331358532 -0.097527505045176474 0.70050717878026136 4.8778735145528604e-11 0.54934744519137413 9.5553843060373054e-11 0.26602777140663841 0.18706514639296837 3.6157060179568681e-11 1.0730062740713753e-11 0.42897191581968247 0.34537529413962625 -0.029498784408745534
decision_type=2 2 2 2 2 2 2 2 2 2 2 2 2 2
left_child=1 -1 6 4 5 8 11 9 12 10 -4 -3 13 -2
right_child=3 2 7 -5 -6 -7 -8 -9 -10 -11 -12 -13 -14 -15
leaf_value=-0.018538870578384586 0.012779590026100046 -0.01073848835565611 0.0044390978752185733 -0.019444064156638706 0.034509544673258848 0.022104773100397084 0.040741089552354427 0.034197819784304674 -0.017481200239180938 0.0022196785833208323 -0.013789020520670279 0.013280544930964278 0.014790815137679082 -0.022439846524986335
leaf_weight=362.69683851487935 19.006854920648038 32.874866372905672 83.802277885377407 34.367835803888738 72.915123376995325 165.6065117251128 27.353689197450876 13.576509807258843 33.707927947863936 195.11476982571185 251.05721541587263 149.10654006153345 93.295159166678786 23.675288632512093
leaf_count=19622 380 1005 2256 1002 485 1362 179 87 589 4302 9433 2339 1306 520
internal_value=0 -0.00543244 0.000913864 0.0136324 0.0164984 0.0124002 0.0133824 -0.00391955 0.00278175 -0.00502091 -0.00922796 0.00887195 0.00798539 -0.00688621
internal_weight=0 1115.58 752.886 442.575 408.207 335.292 209.335 543.551 169.685 529.974 334.859 181.981 135.977 42.6821
internal_count=44867 39223 19601 5644 4642 4157 3523 16078 2795 15991 11689 3344 2206 900
is_linear=0
shrinkage=0.03


Tree=18
num_leaves=15
num_cat=0
split_feature=12 16 26 19 5 10 26 26 16 26 20 12 16 10
split_gain=125.955 71.8444 61.8319 43.4405 41.3866 32.4213 17.0054 27.0402 19.4547 16.6489 16.5183 15.2145 12.1236 11.7771
threshold=0.20570045254536207 1.1254176609803752 4.4503145627057454e-11 0.21172849909162084 0.13012656265996017 0.23290779115042673 3.252728084509696e-11 1.1268142971445757e-11 1.9219778442296014 2.6880922322840064e-12 -0.17767612039859229 0.17015931421472211 0.75541627266204003 -0.10998439657328428
decision_type=2 2 2 2 2 2 2 2 2 2 2 2 2 2
left_child=1 5 3 6 10 9 7 8 -2 -1 -4 -3 -11 -8
right_child=2 11 4 -5 -6 -7 13 -9 -10 12 -12 -13 -14 -15
leaf_value=0.009122610721079203 0.00075763737079725089 0.013391008589087828 0.029316636871479548 0.022817216578694219 0.029521020259689029 0.020193031103626528 0.023460494230127252 -0.0085705623983654954 0.026122931731396019 -0.028994296988898865 0.0022838586741039846 -0.0035913317196548502 -0.016840828364718383 0.0032731650297353177
leaf_weight=14.186252592131494 115.03911356069148 75.899239980150014 22.426267276518047 75.533458824269474 141.88442345894873 16.064254071563482 31.355927898548543 327.95231790468097 33.69781999476254 158.65203480701894 124.25855534523726 120.00619831029326 161.35067914472893 122.15392998140305
leaf_count=281 2646 2065 227 689 1344 210 487 9671 444 9923 2311 3105 8958 2494
internal_value=0 -0.0114776 0.00642719 0.00162681 0.0180751 -0.0195783 -0.000977143 -0.00377421 0.00677475 -0.0215988 0.00675558 0.00305694 -0.023009 0.00764532
internal_weight=0 546.159 994.302 705.733 288.569 350.253 630.199 476.689 148.737 334.189 146.685 195.905 320.003 153.51
internal_count=44855 24542 20313 16431 3882 19372 15742 12761 3090 19162 2538 5170 18881 2981
is_linear=0
shrinkage=0.03


end of trees

feature_importances:
amihud_20=57
log_ret_252=55
beta_63=34
vol_63=27
corr_63=27
ma_50_200=21
excess_log_ret_63=9
excess_log_ret_126=6
log_ret_126=5
distance_to_63d_low=5
log_ret_63=4
return_to_vol_63=3
residual_log_ret_63=3
distance_to_63d_high=3
ma_20_50=3
vol_20=2
downside_vol_20=1
benchmark_log_ret_21=1

parameters:
[boosting: gbdt]
[objective: lambdarank]
[metric: ndcg]
[tree_learner: serial]
[device_type: cpu]
[data: ]
[valid: ]
[num_iterations: 400]
[learning_rate: 0.03]
[num_leaves: 15]
[num_threads: 0]
[deterministic: 0]
[force_col_wise: 0]
[force_row_wise: 0]
[histogram_pool_size: -1]
[max_depth: -1]
[min_data_in_leaf: 40]
[min_sum_hessian_in_leaf: 0.001]
[bagging_fraction: 0.85]
[pos_bagging_fraction: 1]
[neg_bagging_fraction: 1]
[bagging_freq: 1]
[bagging_seed: 26602]
[feature_fraction: 0.85]
[feature_fraction_bynode: 1]
[feature_fraction_seed: 18297]
[extra_trees: 0]
[extra_seed: 13015]
[early_stopping_round: 40]
[first_metric_only: 0]
[max_delta_step: 0]
[lambda_l1: 0]
[lambda_l2: 2]
[linear_lambda: 0]
[min_gain_to_split: 0]
[drop_rate: 0.1]
[max_drop: 50]
[skip_drop: 0.5]
[xgboost_dart_mode: 0]
[uniform_drop: 0]
[drop_seed: 30017]
[top_rate: 0.2]
[other_rate: 0.1]
[min_data_per_group: 100]
[max_cat_threshold: 32]
[cat_l2: 10]
[cat_smooth: 10]
[max_cat_to_onehot: 4]
[top_k: 20]
[monotone_constraints: ]
[monotone_constraints_method: basic]
[monotone_penalty: 0]
[feature_contri: ]
[forcedsplits_filename: ]
[refit_decay_rate: 0.9]
[cegb_tradeoff: 1]
[cegb_penalty_split: 0]
[cegb_penalty_feature_lazy: ]
[cegb_penalty_feature_coupled: ]
[path_smooth: 0]
[interaction_constraints: ]
[verbosity: -1]
[saved_feature_importance_type: 0]
[linear_tree: 0]
[max_bin: 255]
[max_bin_by_feature: ]
[min_data_in_bin: 3]
[bin_construct_sample_cnt: 200000]
[data_random_seed: 94]
[is_enable_sparse: 1]
[enable_bundle: 1]
[use_missing: 1]
[zero_as_missing: 0]
[feature_pre_filter: 0]
[pre_partition: 0]
[two_round: 0]
[header: 0]
[label_column: ]
[weight_column: ]
[group_column: ]
[ignore_column: ]
[categorical_feature: ]
[forcedbins_filename: ]
[precise_float_parser: 0]
[objective_seed: 20363]
[num_class: 1]
[is_unbalance: 0]
[scale_pos_weight: 1]
[sigmoid: 1]
[boost_from_average: 1]
[reg_sqrt: 0]
[alpha: 0.9]
[fair_c: 1]
[poisson_max_delta_step: 0.7]
[tweedie_variance_power: 1.5]
[lambdarank_truncation_level: 30]
[lambdarank_norm: 1]
[label_gain: ]
[eval_at: 1,3,5]
[multi_error_top_k: 1]
[auc_mu_weights: ]
[num_machines: 1]
[local_listen_port: 12400]
[time_out: 120]
[machine_list_filename: ]
[machines: ]
[gpu_platform_id: -1]
[gpu_device_id: -1]
[gpu_use_dp: 0]
[num_gpu: 1]

end of parameters

pandas_categorical:[]
