tree
version=v3
num_class=1
num_tree_per_iteration=1
label_index=0
max_feature_idx=30
objective=lambdarank
feature_names=log_ret_1 log_ret_5 log_ret_10 log_ret_21 log_ret_63 log_ret_126 log_ret_252 excess_log_ret_5 excess_log_ret_21 excess_log_ret_63 excess_log_ret_126 vol_20 vol_63 downside_vol_20 return_to_vol_21 return_to_vol_63 beta_63 corr_63 residual_log_ret_21 residual_log_ret_63 distance_to_63d_high distance_to_63d_low ma_20_50 ma_50_200 volume_z_20 dollar_volume_z_20 amihud_20 gap_pct intraday_ret benchmark_log_ret_21 benchmark_vol_20
feature_infos=[-0.27745556184218101:0.42061695919913433] [-0.3957244534354456:0.39053944262320706] [-0.49370308912685301:0.37583330941101889] [-0.61440354872279102:0.52782319843673764] [-0.8047167671230413:0.76926225495481715] [-0.7092470191286715:1.3474796323168969] [-0.93369139060584949:1.9976326629446586] [-0.35717680306604338:0.38478323005754611] [-0.52303921492064731:0.49897534497940166] [-0.63296765521398579:0.69285018273018073] [-0.7127994658011616:1.2086989061493809] [0.037807546527101075:1.6902742360877918] [0.063234462298234151:1.084895230302396] [0:1.6951523916319398] [-1.2321822191905951:1.9818238970052768] [-1.457723515524058:2.1549690400112573] [-0.53974793899975126:3.8769339233884854] [-0.29636955902704382:0.93843861727305711] [-0.47921011783968626:0.49235861662545222] [-0.56484036825088446:0.76893104733728268] [-0.56038452225566937:0] [0:1.1857047853785452] [-0.23207915984123273:0.26860021762241182] [-0.34356331099929394:0.67221878813955005] [-3.0367420695947178:4.2399592092532954] [-3.712571118244806:4.093929137987935] [8.5174270759869074e-13:1.6431304686732721e-09] [-0.23285127672811012:0.21755732693025198] [-0.12467631348861419:0.25078367961446957] [-0.11908253189722462:0.12751519401330924] [0.030611701262277222:0.30953295433300337]
tree_sizes=1764 1741

Tree=0
num_leaves=15
num_cat=0
split_feature=12 6 12 23 10 6 5 6 12 6 12 23 19 21
split_gain=59.4041 33.8252 29.1537 18.5132 19.29 18.0229 17.474 24.8048 19.0967 14.6577 14.9635 11.4185 10.5482 17.4879
threshold=0.36488699125653046 0.33566488475854156 0.10157193317781031 -0.066678860956833272 0.22489308447335191 0.3425358212064134 0.037802884603357796 0.0074557814657190144 0.14509742011067431 -0.21863648881231976 0.29054750025226345 0.080854680533445591 0.032713680919298528 0.046680322727345798
decision_type=2 2 2 2 2 2 2 2 2 2 2 2 2 2
left_child=1 2 -1 -2 5 -5 8 11 -4 10 -10 -8 13 -9
right_child=3 -3 6 4 -6 -7 7 12 9 -11 -12 -13 -14 -15
leaf_value=-0.041713336770912691 0.03299182879107021 0.0084347039941728725 -0.029466293550813781 0.01078618806069064 0.028436572143578365 -0.020812652535528206 0.0096299632849400334 -0.01241236246740493 0.022325787230954717 -0.0088059741492576057 -0.012098297222252731 0.040550569196875851 -0.007021970969232994 0.0062297906769874069
leaf_weight=16.760924042668194 45.84842012450099 214.30956056853756 34.431906819809228 52.839439223986119 33.390569818206131 21.091494993306696 61.643656867556274 58.241975856479257 27.47012853436172 327.88088834285736 16.869182834867388 11.647414450533686 268.07466179504991 180.69459256529808
leaf_count=1136 1264 7814 2222 1952 988 616 2342 3033 766 16195 695 179 11981 7208
internal_value=0 -0.00233324 -0.00464457 0.0173739 0.0102203 0.00146071 -0.00393196 -0.00058347 -0.0086841 -0.00661446 0.00927202 0.0154905 -0.00295878 0.00162036
internal_weight=0 1218.02 1003.72 153.17 107.322 73.9309 986.954 580.302 406.652 372.22 44.3393 73.2911 507.011 238.937
internal_count=58391 53571 45757 4820 3556 2568 44621 24743 19878 17656 1461 2521 22222 10241
is_linear=0
shrinkage=0.03


Tree=1
num_leaves=15
num_cat=0
split_feature=16 6 12 6 9 6 12 17 23 12 16 17 16 11
split_gain=513.909 207.85 115.062 89.6998 92.7743 78.904 64.6364 49.2874 43.9821 39.4024 34.323 34.042 31.7983 30.5628
threshold=1.2427159235865763 0.33566488475854156 0.36906815144782829 -0.038852234439430193 0.26066280780944423 0.56130033636341825 0.17081772382494209 0.60163872059527812 -0.098966756657553653 0.51796002366452543 0.78127403240391524 0.52086113838997583 0.88891348488504096 0.1919916819670516
decision_type=2 2 2 2 2 2 2 2 2 2 2 2 2 2
left_child=1 2 6 9 7 10 -1 -5 -9 -2 -3 13 -8 -4
right_child=3 5 11 4 -6 -7 12 8 -10 -11 -12 -13 -14 -15
leaf_value=-0.025352695698753317 0.032870233917029007 -0.016534310543235398 -0.031793284829769584 0.01371636357037799 0.035857633642006427 0.040725842877467756 -0.0057761825581058735 0.036128126669858783 -0.0027455328995028365 0.00086325951676426301 0.01005386817430789 -0.028364705435920685 -0.017188297228657376 0.022854319660395191
leaf_weight=519.01483285892755 266.66136348154396 53.874376760795712 8.3497970402240735 471.247413886711 111.15742215700448 66.136601408943534 407.4912942936644 25.976605005562305 409.20221595652401 39.861532539129257 199.6023905351758 14.211754612624643 482.59751814324409 104.3188253082335
leaf_count=15556 2408 812 35 5642 472 461 9991 81 7377 328 2464 134 12243 518
internal_value=0 -0.00989715 -0.0144754 0.0145521 0.0102302 0.0120578 -0.0169398 0.00701544 -0.000270431 0.0287405 0.00431757 0.0127323 -0.0119884 0.0183205
internal_weight=0 1855.6 1535.98 1324.11 1017.58 319.613 1409.1 906.426 435.179 306.523 253.477 126.88 890.089 112.669
internal_count=58522 42214 38477 16308 13572 3737 37790 13100 7458 2736 3276 687 22234 553
is_linear=0
shrinkage=0.03


end of trees

feature_importances:
log_ret_252=7
vol_63=7
beta_63=3
ma_50_200=3
corr_63=2
log_ret_126=1
excess_log_ret_63=1
excess_log_ret_126=1
vol_20=1
residual_log_ret_63=1
distance_to_63d_low=1

parameters:
[boosting: gbdt]
[objective: lambdarank]
[metric: ndcg]
[tree_learner: serial]
[device_type: cpu]
[data: ]
[valid: ]
[num_iterations: 400]
[learning_rate: 0.03]
[num_leaves: 15]
[num_threads: 0]
[deterministic: 0]
[force_col_wise: 0]
[force_row_wise: 0]
[histogram_pool_size: -1]
[max_depth: -1]
[min_data_in_leaf: 40]
[min_sum_hessian_in_leaf: 0.001]
[bagging_fraction: 0.85]
[pos_bagging_fraction: 1]
[neg_bagging_fraction: 1]
[bagging_freq: 1]
[bagging_seed: 26602]
[feature_fraction: 0.85]
[feature_fraction_bynode: 1]
[feature_fraction_seed: 18297]
[extra_trees: 0]
[extra_seed: 13015]
[early_stopping_round: 40]
[first_metric_only: 0]
[max_delta_step: 0]
[lambda_l1: 0]
[lambda_l2: 2]
[linear_lambda: 0]
[min_gain_to_split: 0]
[drop_rate: 0.1]
[max_drop: 50]
[skip_drop: 0.5]
[xgboost_dart_mode: 0]
[uniform_drop: 0]
[drop_seed: 30017]
[top_rate: 0.2]
[other_rate: 0.1]
[min_data_per_group: 100]
[max_cat_threshold: 32]
[cat_l2: 10]
[cat_smooth: 10]
[max_cat_to_onehot: 4]
[top_k: 20]
[monotone_constraints: ]
[monotone_constraints_method: basic]
[monotone_penalty: 0]
[feature_contri: ]
[forcedsplits_filename: ]
[refit_decay_rate: 0.9]
[cegb_tradeoff: 1]
[cegb_penalty_split: 0]
[cegb_penalty_feature_lazy: ]
[cegb_penalty_feature_coupled: ]
[path_smooth: 0]
[interaction_constraints: ]
[verbosity: -1]
[saved_feature_importance_type: 0]
[linear_tree: 0]
[max_bin: 255]
[max_bin_by_feature: ]
[min_data_in_bin: 3]
[bin_construct_sample_cnt: 200000]
[data_random_seed: 94]
[is_enable_sparse: 1]
[enable_bundle: 1]
[use_missing: 1]
[zero_as_missing: 0]
[feature_pre_filter: 0]
[pre_partition: 0]
[two_round: 0]
[header: 0]
[label_column: ]
[weight_column: ]
[group_column: ]
[ignore_column: ]
[categorical_feature: ]
[forcedbins_filename: ]
[precise_float_parser: 0]
[objective_seed: 20363]
[num_class: 1]
[is_unbalance: 0]
[scale_pos_weight: 1]
[sigmoid: 1]
[boost_from_average: 1]
[reg_sqrt: 0]
[alpha: 0.9]
[fair_c: 1]
[poisson_max_delta_step: 0.7]
[tweedie_variance_power: 1.5]
[lambdarank_truncation_level: 30]
[lambdarank_norm: 1]
[label_gain: ]
[eval_at: 1,3,5]
[multi_error_top_k: 1]
[auc_mu_weights: ]
[num_machines: 1]
[local_listen_port: 12400]
[time_out: 120]
[machine_list_filename: ]
[machines: ]
[gpu_platform_id: -1]
[gpu_device_id: -1]
[gpu_use_dp: 0]
[num_gpu: 1]

end of parameters

pandas_categorical:[]
