tree
version=v3
num_class=1
num_tree_per_iteration=1
label_index=0
max_feature_idx=30
objective=lambdarank
feature_names=log_ret_1 log_ret_5 log_ret_10 log_ret_21 log_ret_63 log_ret_126 log_ret_252 excess_log_ret_5 excess_log_ret_21 excess_log_ret_63 excess_log_ret_126 vol_20 vol_63 downside_vol_20 return_to_vol_21 return_to_vol_63 beta_63 corr_63 residual_log_ret_21 residual_log_ret_63 distance_to_63d_high distance_to_63d_low ma_20_50 ma_50_200 volume_z_20 dollar_volume_z_20 amihud_20 gap_pct intraday_ret benchmark_log_ret_21 benchmark_vol_20
feature_infos=[-0.3063906288890399:0.42061695919913433] [-0.62105101977820443:0.61400386604068213] [-1.0219770247907585:0.51640879618814939] [-1.2639619709335861:0.73575930944702739] [-1.2412368752575453:1.0499116805603581] [-1.3860546340170732:1.8107174298259121] [-1.3430914583140829:2.4018725595624506] [-0.49634537079170116:0.52753711459536401] [-0.90224872031983594:0.67364022283111646] [-0.9246316532271317:0.96310139270213302] [-1.1500462376648652:1.4590525481398702] [0.037807546527101075:2.2382360020276399] [0.063234462298234151:1.4628226026712341] [0:1.6951523916319398] [-1.2321822191905951:1.9818238970052768] [-1.457723515524058:2.1549690400112573] [-0.97521392425278941:3.9702633267029679] [-0.33026551708815843:0.9806948131460449] [-0.69531164866102846:0.6537953484641329] [-0.77976250720550522:0.89651689102531118] [-0.7249236475233175:0] [0:1.8825287209390953] [-0.42682311714453591:0.31739199068254953] [-0.53225419139565833:0.83938718222935149] [-3.0367420695947178:4.2399592092532954] [-3.712571118244806:4.093929137987935] [6.0255196130984241e-13:1.6431304686732721e-09] [-0.25104787681263196:0.21755732693025198] [-0.16855459902968484:0.25078367961446957] [-0.40105860262986504:0.2275689519512607] [0.030611701262277222:0.98464553272519229]
tree_sizes=1758 1760 1775

Tree=0
num_leaves=15
num_cat=0
split_feature=22 6 17 12 15 17 10 23 12 10 17 12 12 13
split_gain=81.2488 53.346 33.2676 31.8012 23.0144 26.4571 18.1934 25.9872 20.5835 17.577 17.4356 25.6967 20.3226 15.7461
threshold=0.056930041545658179 -0.11715157819132192 0.92984687747643147 0.1025371610428535 1.0165158498694145 0.62729104943471381 0.24671763930963955 0.18828763459420964 0.20509471801255419 0.16793524249862693 0.85409898489711722 0.3612668080954527 0.54268941036126794 0.10096217337962707
decision_type=2 2 2 2 2 2 2 2 2 2 2 2 2 2
left_child=1 10 3 -3 -2 -6 7 8 -5 -4 11 13 -13 -1
right_child=4 2 9 6 5 -7 -8 -9 -10 -11 -12 12 -14 -15
leaf_value=-0.015453155644793064 0.0094726088423710188 -0.04011127396812364 -0.014499317214680632 -0.0068076114309102535 0.013053493812590359 0.048099263353696964 0.0093635519876826053 -0.022781484272278343 -0.000551736728076964 0.049875067151913546 -0.018441063856178899 0.035642851857820027 0.00015022497396480097 0.010348362332215529
leaf_weight=23.7705975654535 219.00645972695202 19.424529308453202 4.0307311341166523 852.29520834237337 48.048283075913787 33.153379474766552 94.688583500683308 62.036801761481911 1062.4046080764383 13.795356543734668 14.713013237807898 59.345395685639232 19.04351091850549 124.04226388083771
leaf_count=1131 7832 1304 210 40349 1534 282 3338 2446 44938 75 834 1933 1000 5011
internal_value=0 -0.00184042 -0.00337119 -0.00373455 0.0146841 0.0281744 -0.00335507 -0.00397316 -0.00334063 0.0353248 0.0114755 0.013566 0.0272387 0.00604817
internal_weight=0 2349.59 2108.68 2090.85 300.208 81.2017 2071.43 1976.74 1914.7 17.8261 240.915 226.202 78.3889 147.813
internal_count=112217 102569 92660 92375 9648 1816 91071 87733 85287 285 9909 9075 2933 6142
is_linear=0
shrinkage=0.03


Tree=1
num_leaves=15
num_cat=0
split_feature=16 12 6 17 6 22 12 4 12 12 15 6 23 9
split_gain=447.057 216.875 151.207 134.827 115.286 117.346 110.572 104.409 91.732 71.7377 69.0483 61.9385 59.6685 53.5635
threshold=1.2608723719061996 0.20590580308992945 0.44949646143934491 0.53719317829497892 -0.11138158527657581 0.056930041545658179 0.36895468425258909 0.15815439505968756 0.63578343699908291 0.63578343699908291 0.15313950594624526 -0.59771453228186389 0.13364421286647324 0.22387304246163955
decision_type=2 2 2 2 2 2 2 2 2 2 2 2 2 2
left_child=1 7 3 6 8 -6 10 -1 12 -4 11 -3 -2 -12
right_child=4 2 9 -5 5 -7 -8 -9 -10 -11 13 -13 -14 -15
leaf_value=-0.017290505674118148 0.030333732789368427 -0.040653366567016472 0.013189661701556041 -0.010510238603761131 0.0024152034049424922 0.02063873609378802 0.024302345311796727 0.0038884983419247609 -0.017204084442709114 0.056189613503493128 -0.012370564476086424 0.0087775355027933915 -0.035656914684690809 0.022162033896080385
leaf_weight=1348.9153072051704 434.42097720596939 21.824477527290583 324.38538256473839 1093.4459946071729 1078.0153746493161 449.46575311757624 199.31864845193923 247.16825930774212 41.960446945391595 37.536039983853698 399.48867315612733 557.69831133075058 11.085006686858831 43.11571435444057
leaf_count=37516 3042 158 3725 22068 21427 3279 1882 2952 793 166 6731 8245 61 353
internal_value=0 -0.00526472 -4.36816e-05 -0.00286739 0.0118702 0.00779751 0.00398052 -0.01401 0.024548 0.0179336 -2.20275e-05 0.00678258 0.0285397 -0.00892206
internal_weight=0 4272.9 2676.81 2314.89 2014.95 1527.48 1221.45 1596.08 487.466 361.921 1022.13 579.523 445.506 442.604
internal_count=112398 83796 43328 39437 28602 24706 17369 40468 3896 3891 15487 8403 3103 7084
is_linear=0
shrinkage=0.03


Tree=2
num_leaves=15
num_cat=0
split_feature=12 6 19 16 26 26 16 6 16 21 12 26 17 12
split_gain=479.236 179.978 254.659 162.358 101.449 113.903 109.976 90.3139 81.9072 73.1609 70.1505 60.3152 56.3042 54.6794
threshold=0.20681824622364911 -0.11715157819132192 0.21380320559406027 1.2501371650609514 3.3247631667175555e-11 1.2821818253870546e-11 1.9668609699844815 0.29357971460061943 1.3788738143194987 0.1685955427946523 0.61221311599280559 4.6691412102746369e-12 0.25893201020499573 0.66530092977436028
decision_type=2 2 2 2 2 2 2 2 2 2 2 2 2 2
left_child=3 8 4 9 5 6 11 -6 -2 -1 -10 -3 -13 -4
right_child=1 2 13 -5 7 -7 -8 -9 10 -11 -12 12 -14 -15
leaf_value=-0.023141956472659889 0.0087186079212363491 0.011344309323946353 0.018945213633327223 0.005954358855923195 0.0011827997472419181 -0.010372303205519087 0.029599518741874067 0.024044671380388627 0.029548138338796014 -0.0039421207015188963 -0.023353420324973912 0.017159044186580482 -0.0097054255377029986 0.049994199071128932
leaf_weight=964.65311027923599 518.81595294270664 260.99585898872465 370.09063396696001 275.14067261666059 481.81910044886172 1260.7780161476694 122.77365333214402 227.79125419910997 394.84135548211634 220.23937979899347 22.486182261258364 79.754383528605103 500.41393248457462 58.689033541828394
leaf_count=35862 6629 3791 2489 5060 10535 25305 1336 2912 2175 4614 691 1049 9562 350
internal_value=0 0.00511046 0.00186813 -0.0147713 -0.0012931 -0.00444353 0.0033164 0.00856862 0.0167297 -0.0195859 0.0265999 -0.000580916 -0.00596617 0.0234074
internal_weight=0 4299.25 3363.11 1460.03 2934.33 2224.72 963.938 709.61 936.143 1184.89 417.328 841.164 580.168 428.78
internal_count=112360 66824 57329 45536 54490 41043 15738 13447 9495 40476 2866 14402 10611 2839
is_linear=0
shrinkage=0.03


end of trees

feature_importances:
vol_63=11
log_ret_252=6
corr_63=5
beta_63=4
amihud_20=3
excess_log_ret_126=2
return_to_vol_63=2
ma_20_50=2
ma_50_200=2
log_ret_63=1
excess_log_ret_63=1
downside_vol_20=1
residual_log_ret_63=1
distance_to_63d_low=1

parameters:
[boosting: gbdt]
[objective: lambdarank]
[metric: ndcg]
[tree_learner: serial]
[device_type: cpu]
[data: ]
[valid: ]
[num_iterations: 400]
[learning_rate: 0.03]
[num_leaves: 15]
[num_threads: 0]
[deterministic: 0]
[force_col_wise: 0]
[force_row_wise: 0]
[histogram_pool_size: -1]
[max_depth: -1]
[min_data_in_leaf: 40]
[min_sum_hessian_in_leaf: 0.001]
[bagging_fraction: 0.85]
[pos_bagging_fraction: 1]
[neg_bagging_fraction: 1]
[bagging_freq: 1]
[bagging_seed: 26602]
[feature_fraction: 0.85]
[feature_fraction_bynode: 1]
[feature_fraction_seed: 18297]
[extra_trees: 0]
[extra_seed: 13015]
[early_stopping_round: 40]
[first_metric_only: 0]
[max_delta_step: 0]
[lambda_l1: 0]
[lambda_l2: 2]
[linear_lambda: 0]
[min_gain_to_split: 0]
[drop_rate: 0.1]
[max_drop: 50]
[skip_drop: 0.5]
[xgboost_dart_mode: 0]
[uniform_drop: 0]
[drop_seed: 30017]
[top_rate: 0.2]
[other_rate: 0.1]
[min_data_per_group: 100]
[max_cat_threshold: 32]
[cat_l2: 10]
[cat_smooth: 10]
[max_cat_to_onehot: 4]
[top_k: 20]
[monotone_constraints: ]
[monotone_constraints_method: basic]
[monotone_penalty: 0]
[feature_contri: ]
[forcedsplits_filename: ]
[refit_decay_rate: 0.9]
[cegb_tradeoff: 1]
[cegb_penalty_split: 0]
[cegb_penalty_feature_lazy: ]
[cegb_penalty_feature_coupled: ]
[path_smooth: 0]
[interaction_constraints: ]
[verbosity: -1]
[saved_feature_importance_type: 0]
[linear_tree: 0]
[max_bin: 255]
[max_bin_by_feature: ]
[min_data_in_bin: 3]
[bin_construct_sample_cnt: 200000]
[data_random_seed: 94]
[is_enable_sparse: 1]
[enable_bundle: 1]
[use_missing: 1]
[zero_as_missing: 0]
[feature_pre_filter: 0]
[pre_partition: 0]
[two_round: 0]
[header: 0]
[label_column: ]
[weight_column: ]
[group_column: ]
[ignore_column: ]
[categorical_feature: ]
[forcedbins_filename: ]
[precise_float_parser: 0]
[objective_seed: 20363]
[num_class: 1]
[is_unbalance: 0]
[scale_pos_weight: 1]
[sigmoid: 1]
[boost_from_average: 1]
[reg_sqrt: 0]
[alpha: 0.9]
[fair_c: 1]
[poisson_max_delta_step: 0.7]
[tweedie_variance_power: 1.5]
[lambdarank_truncation_level: 30]
[lambdarank_norm: 1]
[label_gain: ]
[eval_at: 1,3,5]
[multi_error_top_k: 1]
[auc_mu_weights: ]
[num_machines: 1]
[local_listen_port: 12400]
[time_out: 120]
[machine_list_filename: ]
[machines: ]
[gpu_platform_id: -1]
[gpu_device_id: -1]
[gpu_use_dp: 0]
[num_gpu: 1]

end of parameters

pandas_categorical:[]
