tree
version=v3
num_class=1
num_tree_per_iteration=1
label_index=0
max_feature_idx=30
objective=lambdarank
feature_names=log_ret_1 log_ret_5 log_ret_10 log_ret_21 log_ret_63 log_ret_126 log_ret_252 excess_log_ret_5 excess_log_ret_21 excess_log_ret_63 excess_log_ret_126 vol_20 vol_63 downside_vol_20 return_to_vol_21 return_to_vol_63 beta_63 corr_63 residual_log_ret_21 residual_log_ret_63 distance_to_63d_high distance_to_63d_low ma_20_50 ma_50_200 volume_z_20 dollar_volume_z_20 amihud_20 gap_pct intraday_ret benchmark_log_ret_21 benchmark_vol_20
feature_infos=[-0.28555187224505252:0.42061695919913433] [-0.62105101977820443:0.61400386604068213] [-1.0219770247907585:0.51640879618814939] [-1.2639619709335861:0.73575930944702739] [-1.2412368752575453:1.0499116805603581] [-1.3860546340170732:1.8107174298259121] [-1.3430914583140829:2.4018725595624506] [-0.49634537079170116:0.52753711459536401] [-0.90224872031983594:0.67364022283111646] [-0.9246316532271317:0.96310139270213302] [-1.1500462376648652:1.4590525481398702] [0.037807546527101075:2.2382360020276399] [0.063234462298234151:1.4628226026712341] [0:1.6951523916319398] [-1.2321822191905951:1.9818238970052768] [-1.457723515524058:2.1549690400112573] [-0.53974793899975126:3.9702633267029679] [-0.29636955902704382:0.9806948131460449] [-0.69531164866102846:0.6537953484641329] [-0.77976250720550522:0.89651689102531118] [-0.7249236475233175:0] [0:1.8825287209390953] [-0.42682311714453591:0.31739199068254953] [-0.53225419139565833:0.83938718222935149] [-3.0367420695947178:4.2399592092532954] [-3.712571118244806:4.093929137987935] [6.1705007627264032e-13:1.6431304686732721e-09] [-0.25104787681263196:0.21755732693025198] [-0.16855459902968484:0.25078367961446957] [-0.40105860262986504:0.2275689519512607] [0.030611701262277222:0.98464553272519229]
tree_sizes=1756 1749 1756 1766 1763 1761 1776 1769 1758 1763 1755

Tree=0
num_leaves=15
num_cat=0
split_feature=12 10 12 17 17 17 10 10 12 21 6 12 6 15
split_gain=93.7727 70.1783 41.2132 34.9671 34.1629 26.2999 36.7101 27.3587 46.3555 25.1358 23.1942 22.4726 17.5262 17.2716
threshold=0.20984863133109136 0.23043840477957403 0.36850308425406281 0.7584850251982681 0.55504850701187214 0.93259336345348631 0.1689846531866939 -0.1331646091600622 0.59657205501555144 0.045336230479338664 -0.19363576119375511 0.10138744821302829 0.33069383643814959 0.86998862142464051
decision_type=2 2 2 2 2 2 2 2 2 2 2 2 2 2
left_child=1 11 3 10 -4 7 -7 8 -6 -5 -2 -1 -13 -3
right_child=2 13 4 9 5 6 -8 -9 -10 -11 -12 12 -14 -15
leaf_value=-0.041784721638721198 0.015953132576082669 -0.0082686618658286172 0.025132446834866217 -0.0095280913687780071 0.036526029988365995 -0.026356173263030119 0.051743951460507358 -0.0023663101396720946 -0.016843694148874332 0.016474455181819888 -0.0028658544234369454 -0.010419891632089144 0.0014026686718092859 0.04375119034832993
leaf_weight=16.873866103123873 62.013912214897573 6.451836457476019 133.5727286725305 39.272463279776275 44.632851575501263 5.7491745203733471 20.620349829085171 185.37078218255192 19.941146309487522 186.9876200449653 743.75416066916659 708.38446303410456 133.64089765073732 26.99720676895231
leaf_count=1157 2069 304 4971 1814 1302 276 111 7346 1118 6377 31741 35006 4741 408
internal_value=0 -0.00760524 0.00475657 0.00155143 0.0127799 0.00667085 0.0340586 0.00353397 0.020034 0.0119172 -0.00138159 -0.0092932 -0.00854461 0.0338169
internal_weight=0 892.348 1441.92 1032.03 409.887 276.314 26.3695 249.945 64.574 226.26 805.768 858.899 842.025 33.449
internal_count=98741 41616 57125 42001 15124 10153 387 9766 2420 8191 33810 40904 39747 712
is_linear=0
shrinkage=0.03


Tree=1
num_leaves=15
num_cat=0
split_feature=16 12 6 12 12 16 15 17 6 6 6 23 22 12
split_gain=799.889 330.284 179.151 112.228 100.537 80.9341 74.7861 59.8136 73.0239 70.1635 54.8459 54.8078 73.3611 60.2734
threshold=1.26205590099673 0.36850308425406281 0.30484985123935943 0.20796216802403042 0.36495986865405866 0.96196255527890584 1.0856786454329261 0.56412143970485762 0.4253264961953041 0.076500392395106434 0.61882280138831625 0.0057413067836130658 0.11225402885772152 0.5056700093426818
decision_type=2 2 2 2 2 2 2 2 2 2 2 2 2 2
left_child=1 2 3 -1 10 6 -4 9 -9 -3 -2 13 -13 -6
right_child=4 7 5 -5 11 -7 -8 8 -10 -11 -12 12 -14 -15
leaf_value=-0.024848634510293722 0.0065507240238139534 0.030101125456368321 -0.016190323848837354 -0.010869463033420663 0.035062499408905413 0.0119463217208572 0.019432634753602851 -0.0050659540231794073 0.049713830556556454 0.0036620914888274235 0.03473341803160656 0.0099300569358877992 0.041206868730666139 0.010669934027593472
leaf_weight=1018.4776124907658 996.69036514125764 202.75072410516441 277.25859361048788 1058.6434829970822 360.0129159418866 294.23134666308761 63.689806213602424 245.83888791687787 22.024167512543499 162.77715919259936 64.469357898458838 444.6357778031379 78.123838421888649 124.88922440167516
leaf_count=31463 16616 1150 5398 24379 2093 4274 670 4498 156 1294 691 4123 391 1678
internal_value=0 -0.00892751 -0.0134812 -0.0177412 0.0147935 0.000461587 -0.00946137 0.0105533 -0.000226808 0.0184113 0.00832505 0.0215753 0.0147435 0.0288497
internal_weight=0 3345.69 2712.3 2077.12 2068.82 635.18 340.948 633.391 267.863 365.528 1061.16 1007.66 522.76 484.902
internal_count=98874 73282 66184 55842 25592 10342 6068 7098 4654 2444 17307 8285 4514 3771
is_linear=0
shrinkage=0.03


Tree=2
num_leaves=15
num_cat=0
split_feature=16 12 12 6 16 10 17 6 26 16 26 17 12 23
split_gain=671.685 221.564 194.389 181.864 126.828 100.362 93.8519 53.3196 66.0973 48.3685 43.5736 83.666 60.5518 102.322
threshold=1.0165363918201142 0.36495986865405866 0.36495986865405866 0.29917555362717457 1.2775315557368729 0.23043840477957403 0.48108030949477804 -0.098383313171361605 3.4220139345985337e-12 1.5874864409748968 9.8165158534075307e-11 0.64853960975298353 0.54762446514819241 -0.084589149485649204
decision_type=2 2 2 2 2 2 2 2 2 2 2 2 2 2
left_child=2 3 5 4 -2 -1 -4 9 -9 -6 12 -12 13 -3
right_child=1 10 6 -5 7 -7 -8 8 -10 -11 11 -13 -14 -15
leaf_value=-0.021792684165303083 -0.018507023305746058 0.037808856459579689 0.021476990212741846 0.011973468894621675 0.0060857065864740809 0.010601562573844691 -0.01358380077023586 0.032546328152285774 -0.0050915339523424849 0.048696992544015813 0.054244271729417509 -0.01200073104969944 0.0044317396480502208 0.014280371704672438
leaf_weight=1323.7411214215681 459.91528891026974 216.609763212502 169.99415562860668 841.28164330404252 65.784803599119186 90.896174147725105 112.68161421455443 44.194180501624942 460.20843141339719 36.350197060033679 66.13180772960186 22.084948275238276 308.11507000215352 719.27739197667688
leaf_count=46679 14532 1128 1349 10483 943 1596 2531 459 8205 367 290 464 3641 6098
internal_value=0 0.00812012 -0.0151653 0.00155963 -0.00666245 -0.0196992 0.00750364 0.00235016 -0.00167831 0.0218952 0.0174983 0.0377615 0.0160031 0.019795
internal_weight=0 3239.95 1697.31 1907.73 1066.45 1414.64 282.676 606.538 504.403 102.135 1332.22 88.2168 1244 935.887
internal_count=98765 46610 52155 34989 24506 48275 3880 9974 8664 1310 11621 754 10867 7226
is_linear=0
shrinkage=0.03


Tree=3
num_leaves=15
num_cat=0
split_feature=12 6 26 12 6 26 10 12 17 17 12 23 12 26
split_gain=672.544 296.438 172.832 134.122 80.69 72.1302 81.8311 104.276 92.126 75.4195 58.5563 52.498 72.7184 42.7231
threshold=0.36090771379020797 0.30484985123935943 3.4220139345985337e-12 0.20796216802403042 -0.098383313171361605 9.8165158534075307e-11 -0.18345072733782516 0.59657205501555144 0.15817615048883268 0.64853960975298353 0.84037196685754545 -0.084589149485649204 0.5056700093426818 3.3003192733988089e-11
decision_type=2 2 2 2 2 2 2 2 2 2 2 2 2 2
left_child=1 2 -1 -4 -5 6 7 -2 -8 -7 11 12 -10 -3
right_child=5 13 3 4 -6 9 8 -9 10 -11 -12 -13 -14 -15
leaf_value=0.027183178097748666 0.030785369101200871 0.0015849851675910835 -0.026029976611815404 0.0054477642522200425 -0.014373156943749892 0.05212866901296534 0.043237616816578742 -0.022928907881898032 0.038668243616491134 -0.016774122340852089 0.034830066712956131 0.0034182279788922596 -0.012947839111931782 0.017082860432355625
leaf_weight=81.153096674010158 346.03744036331773 842.48235049005598 839.2945809988305 236.44031288847327 830.52734129503369 80.045598411932588 67.827120928093791 34.441149984486401 86.284950302913785 16.310749999247491 65.130872029811144 914.33659402839839 32.888247178867459 195.79571445379406
leaf_count=1244 1719 13965 33689 5632 25562 316 229 794 448 524 628 10762 632 2729
internal_value=0 -0.00845138 -0.0152334 -0.0170658 -0.00997886 0.0153773 0.013771 0.0258286 0.00980059 0.0403612 0.00766146 0.00588536 0.0244451 0.00453476
internal_weight=0 3025.69 1987.42 1906.26 1066.97 1643.3 1546.95 380.479 1166.47 96.3563 1098.64 1033.51 119.173 1038.28
internal_count=98873 82821 66127 64883 31194 16052 15212 2513 12699 840 12470 11842 1080 16694
is_linear=0
shrinkage=0.03


Tree=4
num_leaves=15
num_cat=0
split_feature=16 12 12 16 6 10 12 26 10 12 19 26 6 16
split_gain=609.712 258.28 196.771 80.3305 107.971 75.1926 57.2646 50.4723 52.6698 100.169 56.5403 47.9019 57.4926 51.9823
threshold=1.0481249134387336 0.36495986865405866 0.40436732693713884 1.3116343149327225 0.29917555362717457 0.23043840477957403 0.1902141535732329 9.8165158534075307e-11 -0.14655384581265271 0.5056700093426818 0.23736476238917611 3.1417595970607336e-12 -0.098383313171361605 1.6010926070702496
decision_type=2 2 2 2 2 2 2 2 2 2 2 2 2 2
left_child=1 5 3 4 -2 6 -1 8 9 -4 -10 -5 13 -13
right_child=2 -3 7 11 -6 -7 -8 -9 10 -11 -12 12 -14 -15
leaf_value=-0.029213187688891962 -0.014504104472494403 0.0089198787440409582 0.037381549947102161 0.023965010095157901 0.0083663300746070236 0.0054614713191202709 -0.016114822551481636 0.041940984653427028 0.007105928948728823 -0.0040818557313639361 0.031204769616980377 0.0066770036270186852 0.0026346502420252276 0.043736022805658012
leaf_weight=593.79609386436641 432.63988036755472 334.82583668641746 223.09221092611551 143.17737186327577 322.73126956447959 92.274743118323386 628.36512196902186 82.657675777561963 443.4946751948446 67.883842617273331 107.8299947232008 76.771478436887264 869.39235008414835 60.507162865251303
leaf_count=25205 14243 4285 1039 1229 4128 1640 24097 666 5184 1153 693 1008 13573 456
internal_value=0 -0.014561 0.0083752 0.00285626 -0.00473645 -0.0205467 -0.0225161 0.0197124 0.0174368 0.0277464 0.011915 0.00784371 0.00550783 0.0234047
internal_weight=0 1649.26 2830.18 1905.22 755.371 1314.44 1222.16 924.958 842.301 290.976 551.325 1149.85 1006.67 137.279
internal_count=98599 55227 43372 34637 18371 50942 49302 8735 8069 2192 5877 16266 15037 1464
is_linear=0
shrinkage=0.03


Tree=5
num_leaves=15
num_cat=0
split_feature=12 16 26 6 19 6 30 16 6 26 15 12 5 12
split_gain=530.408 334.072 112.948 127.814 80.213 111.666 96.5103 67.4756 59.0325 49.8638 47.8911 57.694 47.1616 43.1434
threshold=0.32494303553175546 1.0481249134387336 3.4220139345985337e-12 0.30484985123935943 0.28469478653059793 1.0000000180025095e-35 0.26948529354973161 1.26205590099673 1.0177794379185803 3.1673419635781935e-11 1.0025348286565186 0.18854438952096772 0.2700768477417293 0.65943524881766136
decision_type=2 2 2 2 2 2 2 2 2 2 2 2 2 2
left_child=1 10 -3 7 5 6 -2 -4 -7 -5 11 -1 -12 -6
right_child=4 2 3 9 13 8 -8 -9 -10 -11 12 -13 -14 -15
leaf_value=-0.029965371295314357 0.024591407328880873 0.022277921960526709 -0.023217388626066586 0.0019519729366441385 0.020164573620863088 0.001075994176386317 -0.0049827971690906492 -0.0035882582979964387 0.02985675804842388 0.020562699137598898 -0.019318061185355079 -0.015817217145704332 0.02104452770915425 0.050352869042913334
leaf_weight=479.65529676899314 577.85147351305932 195.63312341086566 253.05709231738001 392.50279905647039 124.77879224158823 795.83430948387831 119.10233477316797 414.9108553910628 67.780094784684479 191.77677087113261 54.122577445581555 583.86029314668849 46.630588249303401 67.071721285581589
leaf_count=22536 5438 1823 10641 5622 802 11516 2594 8764 432 1675 2335 23723 703 287
internal_value=0 -0.00842365 0.00119992 -0.00212327 0.0129001 0.0106221 0.0195377 -0.0110718 0.00339859 0.00810984 -0.020373 -0.0222424 -0.000591433 0.0311291
internal_weight=0 2612.15 1447.88 1252.25 1752.42 1560.57 696.954 667.968 863.614 584.28 1164.27 1063.52 100.753 191.851
internal_count=98891 77822 28525 26702 21069 19980 8032 19405 11948 7297 49297 46259 3038 1089
is_linear=0
shrinkage=0.03


Tree=6
num_leaves=15
num_cat=0
split_feature=16 12 12 30 26 26 10 17 16 6 23 12 17 26
split_gain=482.856 222.543 157.079 110.383 68.0221 71.4142 62.8988 59.6661 56.9492 77.9881 48.286 45.9797 44.3804 69.2855
threshold=1.0563733554069523 0.36495986865405866 0.40436732693713884 0.23910198114538506 4.7641089821685299e-12 3.3294575143617276e-11 0.23043840477957403 0.70877585240896102 1.6671221918301635 -0.072100814659612031 0.064054436668851814 0.1902141535732329 0.72847421754004993 8.2961943325981327e-11
decision_type=2 2 2 2 2 2 2 2 2 2 2 2 2 2
left_child=1 6 4 -3 -2 8 11 10 -6 -10 -7 -1 13 -4
right_child=2 3 12 -5 5 7 -8 -9 9 -11 -12 -13 -14 -15
leaf_value=-0.028397874390260563 0.015280939293524686 0.019973385485619957 0.018195340167132115 -0.018243247439062027 -0.0085302528935606754 -0.00040952793739421322 0.003919592341760183 -0.0053344339163369269 0.044011656100278004 -0.00018872668418185587 0.024464669112344108 -0.015886811522482648 0.0075738543446074958 0.048574092716762454
leaf_weight=512.14497976424173 302.09657896123827 222.16601466666907 550.68737531453371 95.850021264515817 798.87037937156856 102.49842245597392 91.871862130239606 168.21327058505267 42.679419282823801 183.30944335553795 220.70206758566201 568.67178233433515 278.32837400585413 76.344316098839045
leaf_count=25466 3348 1868 4308 2503 18988 2195 1701 3574 297 2923 2709 24501 4039 334
internal_value=0 -0.0138049 0.00742159 0.00841287 0.00233153 -0.000265195 -0.0198341 0.00911516 -0.00477201 0.00847165 0.0166222 -0.0218567 0.017617 0.0220368
internal_weight=0 1490.7 2723.73 318.016 1818.37 1516.27 1172.69 491.414 1024.86 225.989 323.2 1080.82 905.36 627.032
internal_count=98754 56039 42715 4371 34034 30686 51668 8478 22208 3220 4904 49967 8681 4642
is_linear=0
shrinkage=0.03


Tree=7
num_leaves=15
num_cat=0
split_feature=16 12 12 17 10 26 26 6 6 16 17 26 10 26
split_gain=482.59 197.018 130.098 100.603 56.3378 54.6039 68.4403 65.5352 79.5184 49.2538 49.0502 69.6785 63.9011 52.7533
threshold=1.0605035071737678 0.36495986865405866 0.40436732693713884 0.51233642668475676 0.23043840477957403 5.3845507617950309e-11 4.7641089821685299e-12 -0.20178671604068985 0.34085938044382053 1.6174571655333332 0.72847421754004993 7.8322359916143686e-11 -0.19223304184841281 1.1143427939195841e-11
decision_type=2 2 2 2 2 2 2 2 2 2 2 2 2 2
left_child=1 4 5 -3 -1 6 -2 -8 9 -9 11 12 -4 -12
right_child=2 3 10 -5 -6 -7 7 8 -10 -11 13 -13 -14 -15
leaf_value=-0.02159846664448857 0.01411016016509237 0.018477320648209276 0.034548878662668772 -0.019342199544858468 0.0027950072098982177 0.021311674089372613 0.022842062664366315 -0.013146340858033624 0.0057307719718794423 0.0076070429394296465 0.028760204637815218 0.04591516191045452 0.01116076305748054 -0.0014355817300241895
leaf_weight=1046.9297409192659 304.78637671191245 216.10038601234555 141.04168496560305 87.34580197557807 92.277471220120788 131.18919203430414 89.929062495008111 614.03845634125173 506.28941502422094 122.19245160836726 67.41686987131834 87.957021355628967 410.65417259186506 207.70208568964154
leaf_count=50325 3371 1547 811 2856 1723 2032 1101 18234 6836 2120 630 386 3451 3399
internal_value=0 -0.0139065 0.00759697 0.00753575 -0.0196211 0.00283893 0.00133454 -0.00160454 -0.00340776 -0.00969062 0.0167689 0.0213166 0.0172432 0.00611795
internal_weight=0 1442.65 2683.2 303.446 1139.21 1768.42 1637.24 1332.45 1242.52 736.231 914.772 639.653 551.696 275.119
internal_count=98822 56451 42371 4403 52048 33694 31662 28291 27190 20354 8677 4648 4262 4029
is_linear=0
shrinkage=0.03


Tree=8
num_leaves=15
num_cat=0
split_feature=16 12 12 30 6 16 6 19 10 12 10 12 16 15
split_gain=438.601 206.593 118.81 87.2132 56.7629 81.1125 47.661 45.534 73.722 95.4459 43.165 38.1129 35.5648 34.9158
threshold=1.0605035071737678 0.36495986865405866 0.36090771379020797 0.23910198114538506 0.3522718429073089 1.5335139605718899 -0.098383313171361605 0.25604534084451636 -0.066139560661599081 0.60992753067278194 0.23043840477957403 0.16121932978633827 1.9744893242565908 0.9673398815344586
decision_type=2 2 2 2 2 2 2 2 2 2 2 2 2 2
left_child=1 10 4 -3 5 -2 -7 8 9 -4 11 -1 -10 -12
right_child=2 3 7 -5 -6 6 -8 -9 12 -11 13 -13 -14 -15
leaf_value=-0.030170452032000604 -0.0074327445248183154 0.017379869294619047 0.025708996586070235 -0.019835081703019893 0.0093570774302773711 0.038201171709607393 0.0055153240343895349 0.030682178116667444 -0.00035034821827996658 -0.017953696480618002 -0.017565852523385266 -0.017366429202296554 0.017975202107591372 0.01941481178549188
leaf_weight=308.99080295814201 732.21873062802479 230.27511420473456 413.38821959402412 73.141046136617661 571.32344806194305 50.228182930499315 177.62845764588565 140.64011315628886 370.23708281572908 49.122159521095455 44.973272657953203 692.34434023406357 126.32115475833416 42.983913529664278
leaf_count=16315 20323 1911 2983 2533 7109 453 3036 737 5317 1195 1179 33965 1173 533
internal_value=0 -0.0135127 0.00729455 0.00833775 0.00188683 -0.00256879 0.0129902 0.014808 0.0124211 0.0210143 -0.0196032 -0.0213697 0.00436496 0.000536129
internal_weight=0 1392.71 2631.11 303.416 1531.4 960.075 227.857 1099.71 959.069 462.51 1089.29 1001.34 496.558 87.9572
internal_count=98762 56436 42326 4444 30921 23812 3489 11405 10668 4178 51992 50280 6490 1712
is_linear=0
shrinkage=0.03


Tree=9
num_leaves=15
num_cat=0
split_feature=16 12 10 12 17 12 16 10 17 22 23 23 12 17
split_gain=369.824 181.149 98.5447 96.9649 81.2213 72.5246 60.0694 53.6824 50.9861 45.6753 55.6973 42.7688 40.3746 34.49
threshold=1.0639160828523011 0.36495986865405866 -0.21293913982980592 0.89871068003606436 0.50751305149029358 0.60992753067278194 1.3619955585689183 0.23043840477957403 0.28071080612010996 0.057211465954682524 -0.084589149485649204 0.084435117844852595 0.65943524881766136 0.15817615048883268
decision_type=2 2 2 2 2 2 2 2 2 2 2 2 2 2
left_child=1 7 5 6 13 -2 11 -1 -8 10 -10 -4 -13 -3
right_child=2 4 3 -5 -6 -7 8 -9 9 -11 -12 12 -14 -15
leaf_value=-0.020603301154271805 0.02839963603363679 0.033403919337963786 -0.0079733535132398697 0.040773508118648612 -0.01739696777941949 -0.026142057612887147 -0.030853350412781724 0.0034396207596304068 0.03482612227409853 0.020350143162968688 0.0041577246648732274 0.0024200789549443857 0.040597836156708929 0.008387566732305415
leaf_weight=969.88581489538774 246.9996848590672 76.505655772984028 520.11453473195434 62.735847033560276 81.277199558913708 22.513038999401033 28.204622652381659 90.866429265588522 54.467530257999897 240.65921889618039 970.49624765198678 408.68994128378108 24.576701682060957 140.07356126978993
leaf_count=50667 2085 269 13931 434 2958 737 231 1722 365 2379 14112 7630 161 1264
internal_value=0 -0.0127438 0.00658395 0.00456997 0.00788803 0.0236846 0.00352391 -0.0185411 0.00772954 0.00863669 0.00585212 -0.00218776 0.00476227 0.0174493
internal_weight=0 1358.61 2579.46 2309.94 297.856 269.513 2247.21 1060.75 1293.83 1265.62 1024.96 953.381 433.267 216.579
internal_count=98945 56880 42065 39243 4491 2822 38809 52389 17087 16856 14477 21722 7791 1533
is_linear=0
shrinkage=0.03


Tree=10
num_leaves=15
num_cat=0
split_feature=11 6 19 6 6 30 19 13 6 30 11 23 15 10
split_gain=215.896 107.284 74.681 100.595 68.571 58.2452 45.4976 38.9327 36.7984 35.2093 35.3348 31.4685 30.0541 28.9861
threshold=0.28738145370599394 0.33069383643814959 0.28469478653059793 -0.11348300132711041 -0.098383313171361605 0.3089306228160198 -0.25461087426402357 0.59186080731804092 1.0177794379185803 0.18602271003419038 0.1582932699787887 -0.24521815518450432 1.0025348286565186 0.22460454278146583
decision_type=2 2 2 2 2 2 2 2 2 2 2 2 2 2
left_child=1 4 3 5 -1 11 7 -5 -8 10 13 -2 -4 -6
right_child=2 -3 12 6 9 -7 8 -9 -10 -11 -12 -13 -14 -15
leaf_value=0.0055803532858361652 -0.02335279633343703 0.003960339028242576 0.035008789766920671 0.037630154299888537 -0.018853929309558121 -0.018819979034411651 -0.0019708687685097851 -0.026932376139438084 0.021780512733649362 -0.026566212602821083 -0.0070272384206493789 0.022293854364276468 0.0065083879034444833 0.02794627155426745
leaf_weight=200.94122098945081 12.507057582028208 635.64398412359878 117.31865521892905 46.588222250342369 460.41746682487428 34.723745189607143 977.64006015006453 8.6601868346333486 60.451270621269941 155.16336106229573 694.96882978267968 403.97296488378197 47.663329424336553 10.525710242800413
leaf_count=5211 330 11511 603 291 22340 991 19920 74 343 7187 24807 4678 353 164
internal_value=0 -0.00638229 0.00788301 0.00581396 -0.0107012 0.017698 0.000886261 0.0269226 -0.00054853 -0.0131824 -0.0113588 0.020818 0.0269516 -0.0176942
internal_weight=0 2157.66 1709.53 1544.54 1522.02 451.204 1093.34 55.2484 1038.09 1321.08 1165.91 416.48 164.982 470.943
internal_count=98803 71220 27583 26627 59709 5999 20628 365 20263 54498 47311 5008 956 22504
is_linear=0
shrinkage=0.03


end of trees

feature_importances:
vol_63=36
log_ret_252=24
beta_63=19
amihud_20=16
excess_log_ret_126=15
corr_63=15
ma_50_200=7
return_to_vol_63=5
residual_log_ret_63=5
benchmark_vol_20=5
vol_20=2
ma_20_50=2
log_ret_126=1
downside_vol_20=1
distance_to_63d_low=1

parameters:
[boosting: gbdt]
[objective: lambdarank]
[metric: ndcg]
[tree_learner: serial]
[device_type: cpu]
[data: ]
[valid: ]
[num_iterations: 400]
[learning_rate: 0.03]
[num_leaves: 15]
[num_threads: 0]
[deterministic: 0]
[force_col_wise: 0]
[force_row_wise: 0]
[histogram_pool_size: -1]
[max_depth: -1]
[min_data_in_leaf: 40]
[min_sum_hessian_in_leaf: 0.001]
[bagging_fraction: 0.85]
[pos_bagging_fraction: 1]
[neg_bagging_fraction: 1]
[bagging_freq: 1]
[bagging_seed: 26602]
[feature_fraction: 0.85]
[feature_fraction_bynode: 1]
[feature_fraction_seed: 18297]
[extra_trees: 0]
[extra_seed: 13015]
[early_stopping_round: 40]
[first_metric_only: 0]
[max_delta_step: 0]
[lambda_l1: 0]
[lambda_l2: 2]
[linear_lambda: 0]
[min_gain_to_split: 0]
[drop_rate: 0.1]
[max_drop: 50]
[skip_drop: 0.5]
[xgboost_dart_mode: 0]
[uniform_drop: 0]
[drop_seed: 30017]
[top_rate: 0.2]
[other_rate: 0.1]
[min_data_per_group: 100]
[max_cat_threshold: 32]
[cat_l2: 10]
[cat_smooth: 10]
[max_cat_to_onehot: 4]
[top_k: 20]
[monotone_constraints: ]
[monotone_constraints_method: basic]
[monotone_penalty: 0]
[feature_contri: ]
[forcedsplits_filename: ]
[refit_decay_rate: 0.9]
[cegb_tradeoff: 1]
[cegb_penalty_split: 0]
[cegb_penalty_feature_lazy: ]
[cegb_penalty_feature_coupled: ]
[path_smooth: 0]
[interaction_constraints: ]
[verbosity: -1]
[saved_feature_importance_type: 0]
[linear_tree: 0]
[max_bin: 255]
[max_bin_by_feature: ]
[min_data_in_bin: 3]
[bin_construct_sample_cnt: 200000]
[data_random_seed: 94]
[is_enable_sparse: 1]
[enable_bundle: 1]
[use_missing: 1]
[zero_as_missing: 0]
[feature_pre_filter: 0]
[pre_partition: 0]
[two_round: 0]
[header: 0]
[label_column: ]
[weight_column: ]
[group_column: ]
[ignore_column: ]
[categorical_feature: ]
[forcedbins_filename: ]
[precise_float_parser: 0]
[objective_seed: 20363]
[num_class: 1]
[is_unbalance: 0]
[scale_pos_weight: 1]
[sigmoid: 1]
[boost_from_average: 1]
[reg_sqrt: 0]
[alpha: 0.9]
[fair_c: 1]
[poisson_max_delta_step: 0.7]
[tweedie_variance_power: 1.5]
[lambdarank_truncation_level: 30]
[lambdarank_norm: 1]
[label_gain: ]
[eval_at: 1,3,5]
[multi_error_top_k: 1]
[auc_mu_weights: ]
[num_machines: 1]
[local_listen_port: 12400]
[time_out: 120]
[machine_list_filename: ]
[machines: ]
[gpu_platform_id: -1]
[gpu_device_id: -1]
[gpu_use_dp: 0]
[num_gpu: 1]

end of parameters

pandas_categorical:[]
