tree
version=v3
num_class=1
num_tree_per_iteration=1
label_index=0
max_feature_idx=30
objective=lambdarank
feature_names=log_ret_1 log_ret_5 log_ret_10 log_ret_21 log_ret_63 log_ret_126 log_ret_252 excess_log_ret_5 excess_log_ret_21 excess_log_ret_63 excess_log_ret_126 vol_20 vol_63 downside_vol_20 return_to_vol_21 return_to_vol_63 beta_63 corr_63 residual_log_ret_21 residual_log_ret_63 distance_to_63d_high distance_to_63d_low ma_20_50 ma_50_200 volume_z_20 dollar_volume_z_20 amihud_20 gap_pct intraday_ret benchmark_log_ret_21 benchmark_vol_20
feature_infos=[-0.27745556184218101:0.42061695919913433] [-0.30876824934746239:0.39053944262320706] [-0.47892633715840871:0.37583330941101889] [-0.52439456220246994:0.52782319843673764] [-0.57662282607992665:0.76926225495481715] [-0.64208789918266884:1.3474796323168969] [-0.81361011884137557:1.9976326629446586] [-0.30924255824666202:0.38478323005754611] [-0.47884292299856535:0.49897534497940166] [-0.47534171093818856:0.69285018273018073] [-0.7127994658011616:1.2086989061493809] [0.037807546527101075:1.6902742360877918] [0.063234462298234151:1.084895230302396] [0:1.6951523916319398] [-1.2321822191905951:1.9818238970052768] [-1.3314865148858583:2.1549690400112573] [-0.53974793899975126:3.8769339233884854] [-0.29636955902704382:0.93843861727305711] [-0.46540003620909276:0.49235861662545222] [-0.48059572805301265:0.76893104733728268] [-0.47616396967684205:0] [0:1.1857047853785452] [-0.23056464974984947:0.26860021762241182] [-0.28190571173856027:0.67221878813955005] [-3.0367420695947178:4.2399592092532954] [-3.712571118244806:4.093929137987935] [8.5174270759869074e-13:1.6431304686732721e-09] [-0.23285127672811012:0.21755732693025198] [-0.1202045952625459:0.25078367961446957] [-0.095135066740593466:0.10195536959830775] [0.030611701262277222:0.27374387470471828]
tree_sizes=1767 1756 1750 1760 1765 1771 1762 1764 1757 1749 1742 1758 1756 1756 1767 1766 1764 1770 1758 1764 1759 1751 1768 1767 1767 1764 1764

Tree=0
num_leaves=15
num_cat=0
split_feature=12 23 6 5 5 11 12 6 17 19 10 20 23 17
split_gain=40.75 43.9068 44.604 36.9558 25.1002 21.5597 20.1225 15.6289 13.263 19.5333 17.8193 12.0697 12.003 18.4596
threshold=0.22477926313535992 -0.079358702088299579 -0.19600852935595456 0.08111564334894418 0.046997625612089429 0.4622795366852156 0.1044815019172138 0.25775717212256272 0.58841066156401467 0.010264381269138536 0.050068137895582517 -0.048715246521591919 0.085007905996252089 0.39668493189409465
decision_type=2 2 2 2 2 2 2 2 2 2 2 2 2 2
left_child=4 5 -3 7 -1 -2 -6 -4 10 -10 -8 -12 13 -13
right_child=1 2 3 -5 6 -7 8 -9 9 -11 11 12 -14 -15
leaf_value=-0.014032070740377836 -0.033337877573798982 0.040201462965106162 -0.00055848606087989755 0.014195894928624973 -0.032720046915308429 0.024267736912630171 -0.0055184477503178019 -0.026644112894670165 0.0056223442067686001 -0.016566490618930844 0.030111480579642275 -0.010830851653650915 0.00078909767488926361 0.026335379780301232
leaf_weight=190.53079444961622 31.598932021763176 36.377620480488986 151.32452404405922 226.8891836325638 15.632912151981143 5.5657033789902917 127.60222990904003 21.958744431380183 58.774591573514044 85.940728491172194 19.363859001547098 14.939820666331796 125.03019970469177 44.710859933868051
leaf_count=10918 1417 740 6613 8485 1102 210 5609 771 2522 4188 365 860 4487 1024
internal_value=0 0.00658298 0.00927633 0.00627914 -0.0048482 -0.0239123 -0.00124923 -0.00413039 -8.39625e-05 -0.00760093 0.003222 0.00868846 0.00614372 0.0169775
internal_weight=0 473.715 436.55 400.172 682.526 37.1646 491.995 173.283 476.362 144.715 331.647 204.045 184.681 59.6507
internal_count=49311 18236 16609 15869 31075 1627 20157 7384 19055 6710 12345 6736 6371 1884
is_linear=0
shrinkage=0.03


Tree=1
num_leaves=15
num_cat=0
split_feature=16 6 5 6 23 17 21 12 16 11 17 17 21 18
split_gain=182.809 147.39 97.541 77.1765 66.7126 48.8971 58.5376 54.7732 44.2367 34.7719 34.1308 32.3663 32.0902 28.5786
threshold=1.0183699988017818 -0.11605105633914679 0.08111564334894418 0.42721733055391581 -0.055604748819163212 0.55085426658464132 0.070044307769833961 0.16853903880970075 1.828665662643622 0.4622795366852156 0.38479485431105187 0.78156005141589191 0.53473198556344403 -0.078359187572245539
decision_type=2 2 2 2 2 2 2 2 2 2 2 2 2 2
left_child=3 4 -3 5 9 6 7 -1 11 -2 -8 -4 13 -10
right_child=1 2 8 -5 -6 -7 10 -9 12 -11 -12 -13 -14 -15
leaf_value=-0.032112088225946585 -0.015011012832830536 -0.013088869697131572 0.0063533042979403622 0.02650807104764567 0.041835572394888942 -0.022385319139557665 -0.0089172841570127146 -0.0056234474784604884 0.037718904936430708 0.033858678500950985 0.0065125227786036084 -0.010144300133721463 0.047310749326311415 0.0086135343973804054
leaf_weight=133.53858555667102 35.055322758853436 266.98246558755636 723.63789928983897 49.595101924613118 139.11145478487015 259.37195229716599 260.21039730589837 148.02739607263356 35.884675158187747 18.2832055632025 252.06952097360045 123.69943297933787 29.088848643004894 163.61773501709104
leaf_count=4209 721 7984 9608 618 986 7489 6660 3381 254 149 3795 1899 184 1482
internal_value=0 0.00661832 0.00307883 -0.00937976 0.0310311 -0.0111167 -0.00738795 -0.0183241 0.00710754 0.00235866 -0.00132918 0.00392667 0.018762 0.0141712
internal_weight=0 1535.36 1342.91 1102.81 192.45 1053.22 793.846 281.566 1075.93 53.3385 512.28 847.337 228.591 199.502
internal_count=49419 23267 21411 26152 1856 25534 18045 7590 13427 870 10455 11507 1920 1736
is_linear=0
shrinkage=0.03


Tree=2
num_leaves=15
num_cat=0
split_feature=12 16 6 10 17 17 5 6 16 6 16 13 5 12
split_gain=269.378 138.803 88.8438 80.6371 61.4668 48.1705 45.988 81.8424 68.1849 41.35 41.0905 31.5662 37.9468 25.4898
threshold=0.25344541927329695 1.9659384860172697 -0.11605105633914679 0.050068137895582517 0.59064405810500487 0.47809361528472444 0.21983608424586978 -0.11605105633914679 0.96332545586751173 0.56374009308070538 1.5226594447160386 0.33401905726260545 0.024892120665294563 0.42299262053547915
decision_type=2 2 2 2 2 2 2 2 2 2 2 2 2 2
left_child=2 6 5 10 9 -1 7 8 -2 -5 -4 12 -3 -10
right_child=1 11 3 4 -6 -7 -8 -9 13 -11 -12 -13 -14 -15
leaf_value=-0.010226460695723043 -0.020287551774778471 -0.026194584771042924 -0.020437529975039788 -0.0010078812995523692 -0.017991528545596398 0.031562412066593555 0.016168765505943445 -0.0088586099682099479 0.016988426015841527 0.028175287066707955 0.0067845643329427869 0.046428692095892607 0.027301702590814762 0.045270506745731166
leaf_weight=36.11087030172348 34.901805494911969 11.415643395856021 583.38894290290773 508.94619837310165 195.48392004985362 72.195378628559411 240.37406567670405 318.5187470195815 101.68076479341835 45.789919760078192 53.614353908225894 84.418981717899442 146.42847337573767 40.805480445735157
leaf_count=844 690 305 20541 7899 5153 825 2302 6825 1058 321 1081 357 1015 247
internal_value=0 0.0119764 -0.00825096 -0.0102994 -0.00361798 0.0176966 0.00545875 0.000223337 0.0164479 0.00149357 -0.0181323 0.0315776 0.0231534 0.0256024
internal_weight=0 978.544 1495.53 1387.22 750.22 108.306 736.281 495.907 177.388 554.736 637.003 242.263 157.844 142.486
internal_count=49463 12799 36664 34995 13373 1669 11122 8820 1995 8220 21622 1677 1320 1305
is_linear=0
shrinkage=0.03


Tree=3
num_leaves=15
num_cat=0
split_feature=12 12 26 23 6 23 26 5 6 17 10 17 17 17
split_gain=287.225 105.528 93.755 60.66 96.6759 104.492 58.839 54.7493 54.2639 54.1075 48.4376 42.0696 38.5178 37.1984
threshold=0.22580346402842782 0.43294024954470678 2.6370474504407476e-12 0.13350740739057246 -0.099393592846567444 -0.057745403627303231 6.7593154816989962e-11 0.59791549969365076 -0.11605105633914679 0.68837337361907358 0.050068137895582517 0.59064405810500487 0.29285225109171736 0.47809361528472444
decision_type=2 2 2 2 2 2 2 2 2 2 2 2 2 2
left_child=8 2 -2 4 5 -4 7 -3 13 -5 -10 -12 -9 -1
right_child=1 6 3 9 -6 -7 -8 12 10 -11 11 -13 -14 -15
leaf_value=-0.019211414797150935 0.047536727961701358 0.026327930602996097 -0.019554654428713469 0.018456990785661858 -0.0093275731091301793 0.029022197309192848 0.051467576774799802 -0.038256716970344662 -0.020237738167386405 -0.013433108899628902 -0.0022393911694858159 -0.02246891562961879 0.031816771085592596 0.027084274138556588
leaf_weight=20.643548462539911 43.486797438934445 123.30449727643281 53.447232746519148 300.53458644449711 464.73812861274928 142.35982786305249 66.31460870243609 21.572655439376835 488.52136345300823 55.387521490454674 393.66237027198076 119.16639968566597 8.3321322053670865 50.100082974880934
leaf_count=667 277 1111 1365 2357 10439 1316 313 128 18851 775 7227 4110 25 546
internal_value=0 0.00934004 0.00539301 0.0035002 -0.00188387 0.0156991 0.0281772 0.0175629 -0.0116931 0.013447 -0.0134904 -0.00700917 -0.0179621 0.0134181
internal_weight=0 1279.48 1059.95 1016.47 660.545 195.807 219.524 153.209 1072.09 355.922 1001.35 512.829 29.9048 70.7436
internal_count=49507 18106 16529 16252 13120 2681 1577 1264 31401 3132 30188 11337 153 1213
is_linear=0
shrinkage=0.03


Tree=4
num_leaves=15
num_cat=0
split_feature=12 10 6 5 23 12 18 26 26 6 10 16 16 12
split_gain=308.247 118.377 106.594 91.933 70.7509 50.2486 47.7195 52.7212 41.665 41.3962 56.443 36.4196 35.8155 31.6451
threshold=0.22580346402842782 0.26295574185908893 -0.099393592846567444 0.092383516351657327 -0.057745403627303231 0.42299262053547915 -0.071990792886481608 2.6370474504407476e-12 3.0074986611721003e-11 -0.11605105633914679 0.050068137895582517 1.5226594447160386 0.96720492143822179 0.40153441521835648
decision_type=2 2 2 2 2 2 2 2 2 2 2 2 2 2
left_child=9 2 4 -4 5 -2 -5 -8 -9 -1 11 -11 -6 -3
right_child=1 13 3 6 12 -7 7 8 -10 10 -12 -13 -14 -15
leaf_value=0.010058512619993038 -0.023073686755315487 0.017983666479849805 -0.016041965311810017 0.030854771579266058 -0.00023703108928714074 0.02738451683772981 0.045734394666792098 -0.0075267224200640534 0.012189994499765086 -0.023691738485230349 -0.0067656154109799211 0.010342452786480867 0.037685440329627749 0.039102177200556296
leaf_weight=68.959533294662833 43.104730528779328 147.0112187396735 233.48844073154032 62.446524370461702 26.238411324098706 27.32398471608758 22.584527544677258 236.26908613182604 160.07442149333656 421.96171180251986 496.18804492149502 29.231216656044126 150.78437297232449 120.6645295098424
leaf_count=1216 1322 1049 7200 480 386 248 102 3408 2215 18098 11248 736 1035 544
internal_value=0 0.0101519 0.00521696 -0.000673148 0.0221019 -0.00328198 0.00681695 0.00310423 0.000457648 -0.0121553 -0.01379 -0.0214509 0.0321247 0.027723
internal_weight=0 1229.99 962.314 714.863 247.451 70.4287 481.375 418.928 396.344 1016.34 947.381 451.193 177.023 267.676
internal_count=49287 17989 16396 13405 2991 1570 6205 5725 5623 31298 30082 18834 1421 1593
is_linear=0
shrinkage=0.03


Tree=5
num_leaves=15
num_cat=0
split_feature=12 12 26 6 26 6 23 23 26 16 16 23 6 19
split_gain=270.935 89.99 101.491 62.6534 47.5615 45.9138 85.1223 71.6898 43.8219 37.3214 33.9581 25.936 27.7472 33.0291
threshold=0.22580346402842782 0.43294024954470678 2.6370474504407476e-12 0.84225170394513038 6.7593154816989962e-11 -0.099393592846567444 -0.057745403627303231 0.097683849719304341 2.6564723613803731e-11 1.2795808736495922 0.68638125036310915 0.14924212397794914 -0.11605105633914679 0.10392001513908186
decision_type=2 2 2 2 2 2 2 2 2 2 2 2 2 2
left_child=9 2 -2 5 -3 6 -4 -7 10 11 -9 12 -1 -14
right_child=1 4 3 -5 -6 7 -8 8 -10 -11 -12 -13 13 -15
leaf_value=0.0039729135288233738 0.045086647486867387 0.016846330134050819 -0.023737707083585382 0.04043126084845701 0.047311118764962058 -0.01249908889762261 0.025426958082159608 0.034656115849239139 0.017261373587036704 0.00067360344630892335 -0.0069771016476040783 0.0058930335505140742 -0.019928031464795472 -0.00053700264105248331
leaf_weight=58.487797564826906 53.760232800617814 138.79478345252573 38.674350419081748 37.3264952711761 70.203677732497454 310.38844609353691 145.38751085102558 17.534760737791657 184.98947719391435 182.11982125416398 180.1066561229527 52.305564531125128 607.99203823786229 90.957416356541216
leaf_count=1099 274 1243 1368 208 312 8913 1314 82 1998 4425 2432 927 22584 2311
internal_value=0 0.00967092 0.00578839 0.00338459 0.0274311 0.00171958 0.0149526 -0.00182794 0.00684843 -0.0115926 -0.00297322 -0.0143463 -0.0157558 -0.0174133
internal_weight=0 1177.17 968.168 914.408 208.998 877.081 184.062 693.019 382.631 991.863 197.641 809.743 757.437 698.949
internal_count=49490 18144 16589 16315 1555 16107 2682 13425 4512 31346 2514 26921 25994 24895
is_linear=0
shrinkage=0.03


Tree=6
num_leaves=15
num_cat=0
split_feature=12 10 6 23 26 23 17 16 23 12 16 26 12 12
split_gain=262.734 91.4061 77.0851 71.9009 64.0535 56.5307 38.5531 37.5435 38.2844 36.1334 27.6301 27.4754 27.3799 24.7591
threshold=0.22680208536951918 0.25220362592964235 -0.099393592846567444 0.13502863814597479 2.4177465468216828e-12 -0.057745403627303231 0.73873375738239855 1.2795808736495922 0.14924212397794914 0.39349623995202271 0.97103433617992085 5.9194919942664908e-11 0.34622803058112989 0.5261475175376068
decision_type=2 2 2 2 2 2 2 2 2 2 2 2 2 2
left_child=7 2 5 4 -4 9 12 8 -1 -2 -7 13 -5 -3
right_child=1 11 3 6 -6 10 -8 -9 -10 -11 -12 -13 -14 -15
leaf_value=-0.016224934414546956 -0.026196089897244819 0.024000794311625356 0.0410193589920579 0.024993415329222706 -0.00947654093562144 0.0013901215854339301 -0.02103044340772426 0.00047147673727707194 0.0080673239820499999 0.018697198768590155 0.034142122990385118 0.045616839801761455 -0.0087690412264953173 -0.0068312339661738726
leaf_weight=720.85411394480616 31.616022855974734 192.14153461530805 21.911460220813751 142.99729379918426 425.56060413829982 27.88969461992383 21.774090735241771 193.53289682883769 62.335664179176092 29.111148662865162 140.60941335186362 47.827401410788298 24.371687099337578 25.779422044754028
leaf_count=26112 1241 1331 118 1301 11013 391 490 4405 947 339 1020 216 287 165
internal_value=0 0.00985908 0.00510854 -0.000279072 -0.00683238 0.0199442 0.0151339 -0.0113587 -0.0142758 -0.00476535 0.028801 0.0251832 0.0200315 0.0203245
internal_weight=0 1131.59 865.841 636.615 447.472 229.226 189.143 976.723 783.19 60.7272 168.499 265.748 167.369 217.921
internal_count=49376 17912 16200 13209 11131 2991 2078 31464 27059 1580 1411 1712 1588 1496
is_linear=0
shrinkage=0.03


Tree=7
num_leaves=15
num_cat=0
split_feature=12 10 6 23 23 26 16 23 26 20 12 16 26 17
split_gain=245.673 91.3566 59.5773 68.674 57.8021 54.5479 41.9516 34.8584 32.5827 30.5652 28.8498 22.7949 21.7193 20.8145
threshold=0.22680208536951918 0.25220362592964235 -0.099393592846567444 0.13502863814597479 -0.057745403627303231 2.4177465468216828e-12 1.2795808736495922 0.14924212397794914 3.0546279525562874e-11 -0.24479120224316978 0.37135878648373105 0.97103433617992085 3.4126617085663179e-12 0.39378138352830311
decision_type=2 2 2 2 2 2 2 2 2 2 2 2 2 2
left_child=6 2 4 5 9 -4 7 -1 -5 -2 12 -6 -3 -9
right_child=1 10 3 8 11 -7 -8 13 -10 -11 -12 -13 -14 -15
leaf_value=-0.016186065616628914 0.026534505035066974 0.040349336373555686 0.038313247769306502 0.0042999034943842487 0.0016124904408737464 -0.0087336707826164133 0.00096672122830819042 0.028892720398015735 0.029582261165623104 -0.020946770412566405 0.034084482222570003 0.032206812484342311 0.0073227559473472877 -0.0062784710917082355
leaf_weight=694.88374014943838 15.1196077382192 20.433537222445011 21.450711909681559 106.19454606901854 26.328058894723654 419.70564082823694 206.26826064195484 22.587432784959674 79.876129056327045 41.100235379301012 144.24167335033417 135.63350653648376 96.127476550638676 38.004961909726262
leaf_count=26153 237 89 115 1427 392 10915 4428 292 669 1351 766 1041 880 612
internal_value=0 0.00969212 0.00487676 0.000163283 0.0183025 -0.00628348 -0.0110187 -0.014285 0.0153522 -0.00770443 0.0251455 0.0273138 0.0136954 0.0073368
internal_weight=0 1106.21 845.408 627.227 218.181 441.156 961.744 755.476 186.071 56.2198 260.803 161.962 116.561 60.5924
internal_count=49367 17882 16147 13126 3021 11030 31485 27057 2096 1588 1735 1433 969 904
is_linear=0
shrinkage=0.03


Tree=8
num_leaves=15
num_cat=0
split_feature=12 10 16 23 6 15 23 6 4 22 23 12 6 6
split_gain=217.399 72.8394 43.5409 47.807 32.6003 52.843 35.0275 29.8168 30.1147 26.5327 23.6174 20.5307 18.7213 18.6981
threshold=0.24669123672938395 0.26295574185908893 1.2735056940517342 0.20523217965545129 -0.15853780454666874 0.2533050240837752 -0.055604748819163212 -0.11605105633914679 0.11514522424091835 -0.077990847592684584 0.19166444951300923 0.3396724637608895 0.27557674427229545 -0.033536139427875471
decision_type=2 2 2 2 2 2 2 2 2 2 2 2 2 2
left_child=2 4 3 7 6 -6 9 -1 12 -2 13 -7 -9 -4
right_child=1 -3 10 -5 5 11 -8 8 -10 -11 -12 -13 -14 -15
leaf_value=0.0054838592765505002 0.029784692134119654 0.026362603105739089 0.026210118390263215 0.030325928102359061 -0.0045654522377528437 0.017307798999380664 0.032167973115715384 -0.020923895549044908 -0.0048997211238572033 -0.018011619966142384 -0.027901611048410366 -0.0087892211785728178 -0.0055627867217557386 0.0010665033120155331
leaf_weight=68.589712467975914 13.95790433231741 210.8197122476995 28.04531239438802 21.384288338944316 329.17938584927469 206.58872221317142 76.926054194569588 472.76278354972601 197.42877335008234 28.318444008007646 20.794819008558989 29.939490268006921 86.117741905152798 235.15303299110383
leaf_count=1392 217 1420 391 183 7527 2810 572 20227 5209 916 322 519 2769 4889
internal_value=0 0.0110235 -0.00874394 -0.012148 0.00623897 0.00320148 0.0203635 -0.0133198 -0.015035 -0.00159866 0.00141403 0.0139585 -0.0185852 0.00392316
internal_weight=0 895.73 1130.28 846.283 684.91 565.708 119.202 824.899 756.309 42.2763 283.993 236.528 558.881 263.198
internal_count=49363 13981 35382 29780 12561 10856 1705 29597 28205 1133 5602 3329 22996 5280
is_linear=0
shrinkage=0.03


Tree=9
num_leaves=15
num_cat=0
split_feature=12 5 16 5 11 16 5 11 17 23 17 22 12 10
split_gain=189.992 85.7678 52.6553 45.1766 43.0249 28.4658 23.0506 23.0357 23.0081 22.6878 18.8278 16.0633 15.1743 14.8698
threshold=0.25344541927329695 0.14762530259704401 1.2795808736495922 0.28817544064471395 0.4622795366852156 1.8825502187272887 -0.10136582695212935 0.17363384520476807 0.79564851556097005 -0.076369213232646657 0.39378138352830311 0.022153821708885028 0.23343545442720773 0.64113455837878441
decision_type=2 2 2 2 2 2 2 2 2 2 2 2 2 2
left_child=2 4 3 6 9 8 -1 -4 13 -2 12 -9 -5 -3
right_child=1 5 7 10 -6 -7 -8 11 -10 -11 -12 -13 -14 -15
leaf_value=0.0039684049777800158 -0.025556253653735147 0.017526535221788705 0.012359809556375227 0.03388779051006037 0.021232041703211007 0.029303050463840873 -0.015138401754808276 0.0030003013965003446 -0.015168646655754122 -0.0013053015348213292 -0.0063989346640652275 -0.015176062435417852 -0.013222076244208594 -0.01799679696680364
leaf_weight=60.891861868090928 37.821162807755172 257.69087206572294 129.53330558072776 30.860346982255578 70.617059297859669 171.98555009812117 718.48812534520403 110.75850639119744 21.376340392976999 273.06117177475244 27.749874393455684 69.780748181045055 6.4337114654481402 9.5028770603239519
leaf_count=1805 1394 2820 2458 337 920 1143 28001 2040 414 6074 540 1348 80 89
internal_value=0 0.0109629 -0.00775712 -0.0116322 0.000430485 0.0196478 -0.0136393 0.00280283 0.0137312 -0.00440011 0.0121068 -0.0041144 0.0255014 0.0161388
internal_weight=0 842.055 1154.5 844.424 381.499 460.556 779.38 310.073 288.57 310.882 65.0439 180.539 37.2941 267.194
internal_count=49463 12854 36609 30763 8388 4466 29806 5846 3323 7468 957 3388 417 2909
is_linear=0
shrinkage=0.03


Tree=10
num_leaves=15
num_cat=0
split_feature=23 6 21 23 17 23 11 10 5 11 17 13 6 21
split_gain=137.02 137.016 80.284 39.9017 31.5388 28.1463 25.0311 24.9345 17.0451 16.692 15.7106 15.3849 14.7158 25.5669
threshold=0.13641327400715267 -0.099393592846567444 0.13887015117227811 -0.06215981416986132 0.39378138352830311 0.3561489911746431 0.4622795366852156 0.24462665864420099 0.08111564334894418 0.4622795366852156 0.78156005141589191 0.33401905726260545 0.60998156897482969 0.44005645482203387
decision_type=2 2 2 2 2 2 2 2 2 2 2 2 2 2
left_child=1 3 -3 6 11 10 -1 8 -4 -5 12 -2 -6 -14
right_child=4 2 7 9 5 -7 -8 -9 -10 -11 -12 -13 13 -15
leaf_value=-0.01435313528965931 0.017247950882229454 -0.014760146863030696 -0.012001800988847946 0.016630846207341322 0.011061501634658326 0.044013023447814895 0.026429038243181498 0.033131844489969753 0.0033482314979419994 0.039202093444629466 -0.020201631124895876 0.037093212605071799 -0.011790929119927553 0.036496498278572556
leaf_weight=55.708737512584776 124.23618375323713 787.27448763139546 81.372791426256299 165.33482547383755 222.73460852634162 16.221055824309587 15.747227134183047 19.596285369247198 295.16305952146649 36.364675756543875 18.076343223452568 52.210319608449936 61.990158002823591 9.6910542286932451
leaf_count=1750 1185 29826 2660 2328 3069 101 217 158 6553 217 465 282 655 57
internal_value=0 -0.00480768 -0.00922885 0.0142742 0.0132949 0.00772412 -0.00489081 0.00178301 -1.49337e-05 0.0210452 0.0055725 0.0234701 0.00728059 -0.00444918
internal_weight=0 1456.56 1183.41 273.155 505.16 328.713 71.456 396.132 376.536 201.7 312.492 176.447 294.416 71.6812
internal_count=49523 43709 39197 4512 5814 4347 1967 9371 9213 2545 4246 1467 3781 712
is_linear=0
shrinkage=0.03


Tree=11
num_leaves=15
num_cat=0
split_feature=16 5 26 6 5 6 21 26 26 23 21 17 10 17
split_gain=165.65 105.255 55.6541 46.5558 38.3166 32.4607 29.7835 26.8122 26.6832 25.3314 25.3074 27.9524 24.6467 23.1976
threshold=1.2795808736495922 0.28817544064471395 5.6201996549766924e-11 -0.039703070551584833 0.099814740074903888 -0.099393592846567444 0.13887015117227811 2.6370474504407476e-12 2.8978478211065394e-12 -0.06215981416986132 0.53473198556344403 0.31249299537937641 0.52907744176529392 0.62584163838592366
decision_type=2 2 2 2 2 2 2 2 2 2 2 2 2 2
left_child=1 5 3 9 -5 -1 8 -6 -7 -2 -9 -12 -3 -4
right_child=2 12 13 4 7 6 -8 10 -10 -11 11 -13 -14 -15
leaf_value=0.0022914580427591843 -0.00780796238235961 0.020429461381824148 0.036147630706233558 -0.010992356267350459 0.031450509431844152 0.027286403937414414 -0.0042790861501849015 0.0031429080824843542 -0.017609149937275137 0.031080989800858477 -0.019297857014187739 0.041486765256568352 -0.034354105174474674 0.0056807728021637605
leaf_weight=145.19281807169318 17.132565272040665 127.24319749698043 92.717731948941946 124.36209447029978 37.081852841190994 10.453311004675923 247.76493508275598 392.01516207307577 576.53027083072811 91.44642601814121 7.4394601546227923 28.935411043465137 6.0650047436356536 30.597092264331877
leaf_count=3124 467 1430 718 3341 300 238 6861 5837 25376 956 58 130 62 560
internal_value=0 -0.00736678 0.0103721 0.00704549 0.00368301 -0.0107737 -0.0130462 0.00763414 -0.0167197 0.0249145 0.005436 0.0286971 0.0174661 0.0287995
internal_weight=0 1113.25 821.728 698.413 589.834 979.941 834.749 465.472 586.984 108.579 428.39 36.3749 133.308 123.315
internal_count=49458 37091 12367 11089 9666 35599 32475 6325 25614 1423 6025 188 1492 1278
is_linear=0
shrinkage=0.03


Tree=12
num_leaves=15
num_cat=0
split_feature=12 5 6 16 5 23 26 26 6 22 26 17 6 9
split_gain=168.303 69.9314 53.2889 38.8568 41.0397 36.3859 36.0984 38.2382 34.7222 22.0552 21.5246 20.615 19.842 18.6402
threshold=0.25344541927329695 0.14762530259704401 -0.099393592846567444 1.2795808736495922 0.28817544064471395 -0.055604748819163212 4.7528770180842527e-11 2.8978478211065394e-12 -0.11605105633914679 -0.088692555911416102 2.6370474504407476e-12 0.39378138352830311 0.036392554579102183 0.08597810275403496
decision_type=2 2 2 2 2 2 2 2 2 2 2 2 2 2
left_child=3 2 5 4 8 9 7 -3 -1 -2 13 -6 -5 -10
right_child=1 6 -4 12 11 -7 -8 -9 10 -11 -12 -13 -14 -15
leaf_value=0.0055597471781719853 0.028001063261358195 0.043901105137054822 -0.008991199033410625 0.020296600731018386 0.023070144554060559 0.024881411559961392 0.033980969819701869 0.010075759619802562 0.03252495423519116 -0.016783034331782468 -0.016654710030222515 -0.00931311121037336 -0.0017239459061089248 -0.021922731127507585
leaf_weight=76.732813932001591 11.080502973869441 31.664956144988537 216.12305863108486 41.004968544468284 42.587527099996805 96.711044162511826 99.809236604720354 310.65451402030885 13.568313649855556 39.305256607942283 627.85559987369925 27.881748196668923 254.78750214818865 7.1696738731116048
leaf_count=1454 168 127 6046 669 415 882 827 3466 265 1299 27977 522 5158 173
internal_value=0 0.0102256 0.000459785 -0.00783337 -0.0112769 0.0142801 0.0182103 0.0134415 -0.0134011 -0.00624138 -0.0156545 0.010354 0.00144452 0.0134284
internal_weight=0 805.349 363.22 1091.59 795.796 147.097 442.129 342.319 725.326 50.3858 648.594 70.4693 295.792 20.738
internal_count=49448 12815 8395 36633 30806 2349 4420 3593 29869 1467 28415 937 5827 438
is_linear=0
shrinkage=0.03


Tree=13
num_leaves=15
num_cat=0
split_feature=12 16 16 23 23 12 26 6 4 11 17 23 13 16
split_gain=146.971 55.6483 41.0599 42.4377 36.9766 31.9135 30.8006 25.2323 32.946 23.9184 21.7639 21.5949 20.8919 20.2882
threshold=0.25344541927329695 1.9659384860172697 1.2795808736495922 0.20523217965545129 0.13350740739057246 0.43294024954470678 2.8978478211065394e-12 -0.11605105633914679 0.12334610028530425 0.17280572921669565 0.65335906115178011 0.11157301371349106 0.12015307519528631 1.2072384444568518
decision_type=2 2 2 2 2 2 2 2 2 2 2 2 2 2
left_child=2 4 3 6 5 -2 11 -8 -9 -4 -7 -1 -6 -14
right_child=1 -3 9 -5 12 10 7 8 -10 -11 -12 -13 13 -15
leaf_value=0.029814586357289976 -0.0040963509047293326 0.0237352579092544 0.011770245249705174 0.025900978620819796 0.031318675374907005 0.02400921078659924 0.0030071005346910674 -0.019117040614912081 -0.0030880889590097689 -0.0052355082916136133 -0.037280829615463605 -0.022959442723155497 0.022476860147972254 0.00089684019360433242
leaf_weight=23.710397284477953 327.00571213755757 190.87937419768423 129.36099803075194 25.406323455274105 52.367514669895172 57.988956406712532 74.147435257211328 496.17035737726837 151.33386549260467 169.93713246937841 3.9366454631090155 7.9093403154984108 63.72262654453516 97.624396353960037
leaf_count=455 8203 1666 2392 203 432 667 1420 24308 4287 3421 84 176 599 1164
internal_value=0 0.0097025 -0.00729018 -0.0109126 0.00519402 -0.000329363 -0.0122195 -0.0134983 -0.0153918 0.00214397 0.0190685 0.0160332 0.0151557 0.00959054
internal_weight=0 793.525 1077.98 778.678 602.646 388.931 753.271 721.652 647.504 299.298 61.9256 31.6197 213.715 161.347
internal_count=49477 12815 36662 30849 11149 8954 30646 30015 28595 5813 751 631 2195 1763
is_linear=0
shrinkage=0.03


Tree=14
num_leaves=15
num_cat=0
split_feature=12 10 6 5 16 16 5 26 26 17 26 17 26 12
split_gain=130.831 55.1718 43.8211 50.4089 33.5551 30.8429 30.7166 26.9262 35.1816 23.8488 21.6052 21.3122 19.0127 18.6353
threshold=0.22680208536951918 0.26295574185908893 -0.099393592846567444 0.092383516351657327 1.0183699988017818 1.2795808736495922 0.28817544064471395 2.6370474504407476e-12 3.0074986611721003e-11 0.39378138352830311 2.8978478211065394e-12 0.84087158049005251 5.6201996549766924e-11 0.19192579121164247
decision_type=2 2 2 2 2 2 2 2 2 2 2 2 2 2
left_child=5 2 4 -4 -2 6 10 -5 -9 -8 -1 -10 -3 -7
right_child=1 12 3 7 -6 13 9 8 11 -11 -12 -13 -14 -15
leaf_value=0.014494093042500359 -0.0062119316431060254 0.015994583674718715 -0.012687098191023186 0.038637575566443531 0.022789519604986073 0.0082294409763290048 0.027136519955679988 -0.0044882494494158306 0.016763096641548535 -0.0137238343946855 -0.015092705476870225 -0.030319288732576385 0.03855508397582643 -0.0092807814202331279
leaf_weight=21.602028832770884 46.279489730484784 168.53401447460055 199.30610179621726 19.327615939080715 147.57582836505026 129.60432071425021 28.931699346750975 199.94254864845425 153.49865831620991 20.365789609961212 563.38041107309982 7.3661074852570882 42.535582456737757 91.627194966189563
leaf_count=466 1199 1356 7144 98 1791 2500 307 3729 2096 438 25930 190 219 1936
internal_value=0 0.00733997 0.00360534 -0.000539429 0.0158732 -0.00868152 -0.0120365 0.0058627 0.00390372 0.0103793 -0.0139545 0.0142613 0.0208603 0.000959078
internal_weight=0 984.366 773.296 579.441 193.855 855.511 634.28 380.135 360.807 49.2975 584.982 160.865 211.07 221.232
internal_count=49399 17822 16247 13257 2990 31577 27141 6113 6015 745 26396 2286 1575 4436
is_linear=0
shrinkage=0.03


Tree=15
num_leaves=15
num_cat=0
split_feature=12 5 6 6 6 26 26 23 30 12 11 9 11 18
split_gain=123.308 59.8768 41.5902 31.2934 28.9401 28.798 32.8267 28.7731 24.4872 25.5102 23.5953 22.668 18.7034 17.0076
threshold=0.25344541927329695 0.14906205985982249 -0.099393592846567444 -0.11605105633914679 0.58321559661046096 4.7528770180842527e-11 2.8978478211065394e-12 -0.055604748819163212 0.12063440621345682 0.14585780209673413 0.4622795366852156 0.052600347668335885 0.1935484650650682 -0.070225715645399645
decision_type=2 2 2 2 2 2 2 2 2 2 2 2 2 2
left_child=3 2 7 -1 8 6 -3 10 9 11 -2 -5 -6 -8
right_child=1 5 -4 4 12 -7 13 -9 -10 -11 -12 -13 -14 -15
leaf_value=0.0095765545913073982 -0.019789006059723269 0.041401629417371924 -0.0088140703901982264 -0.023626087774937587 0.033820598067304211 0.030696664800236521 0.028382597615433797 0.021452071959389602 -0.02182776362209041 -0.0043316886696210984 0.022552119744062057 -0.0017779026978192592 -0.0090633131170631404 0.0062971579799961045
leaf_weight=94.183599997311831 34.598023102618754 29.385719124227762 205.82317459117621 134.5499849319458 21.638372894376516 98.286200661212206 34.011063355952501 96.088518258184195 122.91469616722316 591.43583709187806 15.606048895046113 62.712474777363241 13.800814112648366 263.56674450542778
leaf_count=1651 1265 130 6033 6923 171 830 293 913 5549 19797 224 2302 215 3150
internal_value=0 0.00900415 -0.000154613 -0.00676838 -0.00841063 0.016553 0.0121406 0.0119832 -0.00945519 -0.00747665 -0.00626742 -0.0167678 0.0175286 0.008994
internal_weight=0 777.365 352.116 1041.24 947.052 425.25 326.964 146.293 911.613 788.698 50.2041 197.262 35.4392 297.578
internal_count=49446 12838 8435 36608 34957 4403 3573 2402 34571 29022 1489 9225 386 3443
is_linear=0
shrinkage=0.03


Tree=16
num_leaves=15
num_cat=0
split_feature=12 5 6 23 16 5 26 26 11 26 17 11 26 6
split_gain=113.213 45.6618 39.1098 29.2464 28.8991 40.4713 32.2949 26.9167 25.0195 24.2339 22.6684 20.1416 19.656 19.5151
threshold=0.24669123672938395 0.16740509444556009 -0.088757497157218909 -0.055604748819163212 1.2795808736495922 0.28817544064471395 2.8978478211065394e-12 6.082618585868133e-11 0.42422256193890523 2.8978478211065394e-12 0.39378138352830311 0.17196687715337472 2.4177465468216828e-12 -0.11605105633914679
decision_type=2 2 2 2 2 2 2 2 2 2 2 2 2 2
left_child=4 2 3 8 5 6 -1 9 -2 -3 -7 -6 -4 -8
right_child=1 7 12 -5 11 10 13 -9 -10 -11 -12 -13 -14 -15
leaf_value=0.017867397562055288 -0.021041320894158406 0.039266081124365193 0.032396321229601663 0.02158574039312134 0.010074660512086201 0.024973989868880653 0.0014083774998446157 0.033350887274641826 0.019999151997322311 0.0097068836454452419 -0.011369758515878636 -0.005886102482019674 -0.0082675249699681215 -0.015570443810191435
leaf_weight=29.008239481598139 32.958391450345516 25.379637625068426 9.267325244843958 106.00436935201287 129.38018251769245 42.233572147786617 68.249932322651148 62.06084642931819 19.738424208946526 329.59672846272588 22.275549351237714 153.31820748746395 231.34047562349588 542.19249466154724
leaf_count=543 1295 118 68 1081 2326 402 1334 436 299 3853 502 3201 6833 27160
internal_value=0 0.00842767 0.00116221 0.0126355 -0.00665778 -0.00990377 -0.0121917 0.0153455 -0.00549978 0.0120284 0.0124597 0.00143798 -0.00644715 -0.0136737
internal_weight=0 816.346 399.309 158.701 986.658 703.96 639.451 417.037 52.6968 354.976 64.5091 282.698 240.608 610.442
internal_count=49451 13983 9576 2675 35468 29941 29037 4407 1594 3971 904 5527 6901 28494
is_linear=0
shrinkage=0.03


Tree=17
num_leaves=15
num_cat=0
split_feature=12 10 6 5 23 26 26 17 18 22 12 23 26 12
split_gain=101.964 49.5006 33.6727 35.5713 30.3082 25.9367 31.5006 21.2665 21.2026 20.8628 16.5401 23.8709 14.1539 18.3445
threshold=0.22680208536951918 0.26295574185908893 -0.099393592846567444 0.089938707674303689 -0.05998293007416871 3.3717125077045627e-11 2.6370474504407476e-12 0.78877870090383018 -0.071990792886481608 -0.088692555911416102 0.14251166070947136 0.14675625083656699 5.4845414540265487e-11 0.5261475175376068
decision_type=2 2 2 2 2 2 2 2 2 2 2 2 2 2
left_child=10 2 4 -4 9 6 -5 -7 -8 -2 11 -1 13 -3
right_child=1 12 3 5 -6 7 8 -9 -10 -11 -12 -13 -14 -15
leaf_value=-0.018269620430008758 0.026903606771916711 0.019306460335372453 -0.011319251154310676 0.035916561133485063 0.021070581585223323 0.01915604791466621 0.019526571027120718 -0.015367835425961643 -0.0082972973677400714 -0.016248635379277898 -0.0053208355662691447 0.023970146147030073 0.03549277678969566 -0.010447841169358877
leaf_weight=174.36528188362718 11.435843507759271 141.67277995310724 183.4912750935182 16.68784387037158 140.13842217810452 123.27126085013151 26.431646885350347 16.900278649292886 186.49787313304842 38.979029747657478 640.60554411029443 11.230345925316213 40.728522449731827 20.143365178257227
leaf_count=8761 175 1195 6999 100 1451 1590 354 408 3741 1412 22550 206 219 161
internal_value=0 0.00677109 0.00316764 -0.000590735 0.0139731 0.00476507 -0.00145778 0.0148359 -0.00469387 -0.00580714 -0.00763606 -0.0154854 0.0198442 0.0155202
internal_weight=0 946.378 743.833 553.28 190.553 369.789 229.617 140.172 212.93 50.4149 826.201 185.596 202.545 161.816
internal_count=49322 17805 16230 13192 3038 6193 4195 1998 4095 1587 31517 8967 1575 1356
is_linear=0
shrinkage=0.03


Tree=18
num_leaves=15
num_cat=0
split_feature=12 5 11 16 5 26 26 9 26 5 16 5 8 12
split_gain=100.997 50.7489 28.9949 27.249 31.6433 32.7022 24.6518 22.2878 20.8882 19.9983 16.8235 15.0127 14.6872 15.3211
threshold=0.25344541927329695 0.16740509444556009 0.44596321444215775 1.2735056940517342 0.29900680634810001 2.8978478211065394e-12 4.7528770180842527e-11 0.09287985999091021 2.8978478211065394e-12 0.36679876222056024 0.82996804131030599 -0.077554229949780659 -0.056387033625022724 0.5261475175376068
decision_type=2 2 2 2 2 2 2 2 2 2 2 2 2 2
left_child=3 2 -2 4 5 7 8 -1 -3 -5 -6 -7 -10 -14
right_child=1 6 -4 9 10 11 -8 -9 12 -11 -12 -13 13 -15
leaf_value=0.03103257512286374 -0.0040913124934686095 0.037366727429761028 0.016765219289715333 0.0029654445246036381 0.027406112907522841 0.00047166951973241382 0.029277404791578497 -0.022688082753782719 0.027232463637466384 -0.035615334083210999 -0.004379341521468863 -0.014447297447455968 0.0082997252111099169 -0.021194315470026516
leaf_weight=24.404991306364536 287.84682021709159 23.867642696946859 73.647436311468482 290.69793136697263 28.218201453797519 68.062286133877933 92.078825080767274 7.8050808105617753 32.883220877498388 10.615680413320659 28.790844374336302 550.23642662307248 226.57276557944715 15.136752698570488
leaf_count=381 7722 112 1059 5796 243 2484 750 174 277 202 538 26719 2792 151
internal_value=0 0.00833811 0.000226666 -0.00616951 -0.00937961 -0.0112616 0.0158069 0.0174497 0.0114838 0.00138031 0.0117494 -0.0128088 0.00898015 0.00629392
internal_weight=0 752.033 361.494 1008.83 707.518 650.509 390.539 32.2101 298.46 301.314 57.009 618.299 274.593 241.71
internal_count=49400 12863 8781 36537 30539 29758 4082 555 3332 5998 781 29203 3220 2943
is_linear=0
shrinkage=0.03


Tree=19
num_leaves=15
num_cat=0
split_feature=12 10 6 23 16 26 17 26 16 5 17 26 4 23
split_gain=93.1102 42.4139 31.5392 34.7399 27.4827 27.1804 26.1503 22.8332 18.2773 27.7126 19.8293 19.5572 17.0565 15.2916
threshold=0.22580346402842782 0.26295574185908893 -0.099393592846567444 0.13502863814597479 0.98548174612936645 2.4177465468216828e-12 0.78156005141589191 3.0546279525562874e-11 1.2795808736495922 0.28817544064471395 0.39378138352830311 2.8978478211065394e-12 0.1712593425743352 -0.057745403627303231
decision_type=2 2 2 2 2 2 2 2 2 2 2 2 2 2
left_child=8 2 4 5 -2 -4 7 -5 9 11 -11 -1 13 -6
right_child=1 -3 3 6 12 -7 -8 -9 -10 10 -12 -13 -14 -15
leaf_value=0.013154689804567838 -0.0069169044325331722 0.018848942949741897 0.031578819636631408 0.0036511401581030799 0.0031644984241673839 -0.0069326337962922098 -0.026947036213658796 0.026744050486480368 0.00013413865054783016 0.025389902703818214 -0.012545293319361607 -0.01328444414121693 -0.030576691309606177 0.027083762320746947
leaf_weight=24.924401133321226 43.38181519228965 197.26674201525748 15.291517935693262 82.774042779579759 31.398671833798289 373.80590332997963 13.149446363560854 71.327073242515326 216.39130687434226 30.612591098994017 18.450088826008141 515.04845727328211 4.1173607800155869 109.57423783652484
leaf_count=465 1167 1588 116 1210 831 11194 361 642 4319 311 450 25791 57 1015
internal_value=0 0.00655197 0.00325334 -0.000352695 0.0137899 -0.00526539 0.0110035 0.0145456 -0.00732419 -0.0100553 0.0111917 -0.01202 0.0199911 0.0218751
internal_weight=0 942.087 744.82 556.348 188.472 389.097 167.251 154.101 805.427 589.036 49.0627 539.973 145.09 140.973
internal_count=49517 18181 16593 13523 3070 11310 2213 1852 31336 27017 761 26256 1903 1846
is_linear=0
shrinkage=0.03


Tree=20
num_leaves=15
num_cat=0
split_feature=23 6 26 16 26 21 26 6 5 17 16 15 18 16
split_gain=76.4208 75.2669 37.6891 35.2767 31.5935 30.7982 24.0565 22.1975 18.1565 31.4687 14.7634 14.7632 15.3716 17.6469
threshold=0.13502863814597479 -0.099393592846567444 2.6370474504407476e-12 1.2953993651811697 5.3719441176422086e-11 0.13887015117227811 4.5639945323211833e-11 0.84225170394513038 0.59791549969365076 0.29895214040496004 1.128138368797148 0.1678864256311409 -0.076170271868597636 1.4751580166795912
decision_type=2 2 2 2 2 2 2 2 2 2 2 2 2 2
left_child=1 3 -3 -1 7 10 -7 11 -9 -10 -4 -2 -13 -14
right_child=4 2 5 -5 -6 6 -8 8 9 -11 -12 12 13 -15
leaf_value=0.00065810698716071904 -0.013794112403470313 0.018317099135954092 -0.016113666283819418 0.02313570232130505 0.030311223406224459 -0.0050851871423076133 0.015587672486435602 0.036220341490105376 -0.03845049344556245 0.028375415511007571 -0.0067879884746225366 0.031943034298069627 0.0093833154391609625 -0.0067480110373186091
leaf_weight=139.06071153236553 34.579930378124118 46.93091609235853 392.63036277657375 112.82806046400219 60.528187990188599 260.12814721371979 60.80648348107934 37.173076502978802 8.4637760445475596 14.114053163677452 256.9076453349553 17.88359472155571 202.89133804477751 85.256128046661615
leaf_count=3192 591 669 21277 1319 463 7779 1212 220 117 123 7961 180 3177 1180
internal_value=0 -0.00379506 -0.00742993 0.0108294 0.0104418 -0.00871013 -0.00109608 0.00730208 0.0238663 0.00223395 -0.0124573 0.00427397 0.00639188 0.00459682
internal_weight=0 1269.29 1017.4 251.889 460.89 970.473 320.935 400.362 59.7509 22.5778 649.538 340.611 306.031 288.147
internal_count=49460 43409 38898 4511 6051 38229 8991 5588 460 240 29238 5128 4537 4357
is_linear=0
shrinkage=0.03


Tree=21
num_leaves=15
num_cat=0
split_feature=12 16 26 26 13 16 5 26 9 19 10 17 17 5
split_gain=73.4334 37.4237 23.9582 32.7428 22.101 19.5914 30.184 26.3994 19.8751 17.9359 17.0431 16.9369 16.675 16.4815
threshold=0.24669123672938395 1.9659384860172697 2.8971739923593757e-11 2.6370474504407476e-12 0.36020134876825521 1.2795808736495922 0.28817544064471395 2.8978478211065394e-12 0.08597810275403496 0.2095895951123343 0.051254815749837597 0.39378138352830311 0.79888366037787983 0.35480499329487608
decision_type=2 2 2 2 2 2 2 2 2 2 2 2 2 2
left_child=5 2 3 -2 10 6 7 8 -1 -3 -4 -8 -12 -7
right_child=1 9 4 -5 -6 13 11 -9 -10 -11 12 -13 -14 -15
leaf_value=0.028056385884093513 0.030307779062807776 0.013750937308222081 -0.0033213636780997239 -0.0050505531799093922 0.031687743762145261 0.0024341917406255163 0.021562958117594927 -0.012221589349680911 -0.02047277025959756 0.037901131731568331 0.016445444035154102 -0.010167752986342449 -0.018499329917961108 -0.033506801054486973
leaf_weight=24.459857909008861 23.561100283637643 137.18957738950849 95.855008024722338 302.14443173166364 34.028554925695062 267.17210869817063 42.029913760721684 564.30418271990493 8.993167747743426 34.470794446766376 122.86709130182862 21.60074661206454 11.973998104222117 9.9961901735514385
leaf_count=341 162 1602 2677 7041 375 5280 397 28374 193 176 1640 509 277 219
internal_value=0 0.00673547 0.00312313 -0.00232342 0.00979151 -0.005785 -0.00858379 -0.0106774 0.0145913 0.0189811 0.00631714 0.0108097 0.0131173 0.000907204
internal_weight=0 762.091 590.43 325.706 264.725 938.556 661.388 597.757 33.453 171.66 230.696 63.6307 134.841 277.168
internal_count=49263 13950 12172 7203 4969 35313 29814 28908 534 1778 4594 906 1917 5499
is_linear=0
shrinkage=0.03


Tree=22
num_leaves=15
num_cat=0
split_feature=10 12 18 26 12 17 26 5 10 30 12 9 17 21
split_gain=66.8203 32.0398 22.3723 28.032 21.2935 26.3714 20.6174 19.7262 17.8654 14.9682 15.6753 16.0512 12.5064 11.7448
threshold=0.24462665864420099 0.22384268880525154 -0.070225715645399645 2.6370474504407476e-12 0.30474862653982893 0.39052667407913921 2.8752689781820133e-11 0.079958129063806296 0.52907744176529392 0.11843112581815848 0.14585780209673413 0.049928213427057784 0.85375405439954777 0.082818156760596132
decision_type=2 2 2 2 2 2 2 2 2 2 2 2 2 2
left_child=1 9 13 -4 5 -2 -5 -8 -7 10 11 -1 -9 -3
right_child=4 2 3 6 -6 8 7 12 -10 -11 -12 -13 -14 -15
leaf_value=-0.018529963519423192 0.024466311615177424 0.0059787287314557354 0.031099320170360361 -0.0074940727649614814 0.021679015649876895 -0.014901022786325333 -0.0059126593357022783 0.0122930145031832 0.034576663696502134 -0.018251393488754656 -0.0022816192784942914 0.00029029909184964897 -0.028880961375638284 0.024155063354089897
leaf_weight=125.97543228510767 30.851786160841584 87.351292654406279 22.179930783808231 284.3974967552349 146.26232390850782 51.557565761730075 105.76801635231823 155.5545802526176 5.5706742852926245 88.412308861501515 474.73493939032778 59.773019847460091 5.0757570387795559 50.282761828973889
leaf_count=6929 266 1959 184 7955 1143 843 3264 2463 52 4207 16934 2427 169 642
internal_value=0 -0.0024586 0.00210223 -0.000520081 0.0147376 0.00297253 -0.00190127 0.00408076 -0.00907001 -0.00678034 -0.00519436 -0.0125351 0.0106528 0.0128701
internal_weight=0 1459.51 710.61 572.976 234.242 87.98 550.796 266.398 57.1282 748.896 660.483 185.748 160.63 137.634
internal_count=49437 47133 16636 14035 2304 1161 13851 5896 895 30497 26290 9356 2632 2601
is_linear=0
shrinkage=0.03


Tree=23
num_leaves=15
num_cat=0
split_feature=10 16 6 23 17 26 23 17 26 20 26 26 10 11
split_gain=67.902 49.8365 47.475 20.2134 27.1298 20.1423 19.6674 19.1547 19.9808 19.0444 18.4456 17.9016 20.019 13.8627
threshold=0.24462665864420099 1.0183699988017818 -0.088757497157218909 0.13502863814597479 0.66813366707509847 2.8978478211065394e-12 -0.06215981416986132 0.3753353917465086 2.6370474504407476e-12 -0.24479120224316978 6.7593154816989962e-11 3.0999607597073095e-11 0.14015201960129534 0.24704694042593356
decision_type=2 2 2 2 2 2 2 2 2 2 2 2 2 2
left_child=1 5 6 7 11 -1 9 -4 -9 -3 -2 12 -5 -10
right_child=10 2 3 4 -6 -7 -8 8 13 -11 -12 -13 -14 -15
leaf_value=0.016944985698551043 0.011299380427348842 0.027494454119245955 -0.024732940301747688 0.0202607423967744 -0.015767308024490872 -0.01052741447467353 0.022544471405870643 0.019659845408419793 -0.0007081996678158719 -0.019028963235928856 0.035078897558758156 0.02436060350099039 -0.0072334729242754412 -0.011842243773097007
leaf_weight=23.380306196399033 199.68307024240494 9.8948638476431388 35.89344716956839 38.054139747284353 36.273176905699074 542.21135845361277 121.42008858174086 31.931987877935171 322.5696425428614 21.800444479100406 33.442742463201284 64.304589438252151 57.104935823008418 144.46932055894285
leaf_count=402 2141 139 1128 549 879 25218 1387 376 10162 681 187 733 1043 4341
internal_value=0 -0.00239869 0.00205238 -0.0011449 0.00705861 -0.00933606 0.0171265 -0.00416214 -0.00258955 -0.00373509 0.01498 0.0123818 0.00395221 -0.00418811
internal_weight=0 1449.31 883.717 730.601 195.737 565.592 153.115 534.864 498.971 31.6953 233.126 159.464 95.1591 467.039
internal_count=49366 47038 21418 19211 3204 25620 2207 16007 14879 820 2328 2325 1592 14503
is_linear=0
shrinkage=0.03


Tree=24
num_leaves=15
num_cat=0
split_feature=12 10 6 30 26 16 6 13 10 17 12 23 16 19
split_gain=66.3063 31.7676 20.6755 19.1926 19.0424 20.3125 31.2166 19.8337 18.4617 15.6581 15.2176 18.4654 14.841 11.8799
threshold=0.25344541927329695 0.26295574185908893 -0.11015922541699251 0.11843112581815848 3.0074986611721003e-11 1.9659384860172697 0.58321559661046096 0.3754018060307216 0.050068137895582517 0.49960847812614773 0.14251166070947136 0.14675625083656699 1.0620108026669135 0.070535060215654616
decision_type=2 2 2 2 2 2 2 2 2 2 2 2 2 2
left_child=2 4 9 10 5 -2 -7 8 -6 -1 11 12 13 -4
right_child=1 -3 3 -5 7 6 -8 -9 -10 -11 -12 -13 -14 -15
leaf_value=-0.0052198934714363029 -0.0059111114174653003 0.018282661896090849 -0.025294832573956386 -0.018118832291204406 -0.0036907726482263135 0.024153896567671262 -0.026007582846249291 0.030995078904774917 0.013830496137899873 0.019221250255606833 -0.0027681988768882477 0.021846400108528202 0.0079452559918767648 -0.0045916439000552789
leaf_weight=42.185745493508875 233.83520400477573 163.99953664466739 92.180039128288627 113.76349569112062 96.947165572084486 48.269271144177765 12.579534603282807 31.227574150077999 118.60903450008482 49.616996577940881 599.14993351465091 10.823862262070177 19.066186023876071 35.325959239155054
leaf_count=999 6100 1369 5685 5651 2501 636 207 331 1652 828 20760 199 782 1692
internal_value=0 0.00679702 -0.0052963 -0.00672666 0.00326377 -0.00188425 0.0132862 0.00937675 0.00598876 0.00811808 -0.00497033 -0.0132132 -0.0160614 -0.0197184
internal_weight=0 705.467 962.112 870.309 541.468 294.684 60.8488 246.784 215.556 91.8027 756.546 157.396 146.572 127.506
internal_count=49392 12796 36596 34769 11427 6943 843 4484 4153 1827 29118 8358 8159 7377
is_linear=0
shrinkage=0.03


Tree=25
num_leaves=15
num_cat=0
split_feature=12 26 12 26 6 26 10 5 17 10 6 16 12 5
split_gain=57.3654 28.0102 35.3542 23.6346 21.6952 20.7853 18.8114 15.9644 17.1941 14.9935 25.6883 11.082 18.714 16.0926
threshold=0.22680208536951918 2.6370474504407476e-12 0.42299262053547915 6.7593154816989962e-11 0.84225170394513038 2.6564723613803731e-11 0.043930609992258958 0.59791549969365076 0.29895214040496004 0.22569864821222499 0.11391359604043451 1.2795808736495922 0.19192579121164247 0.28817544064471395
decision_type=2 2 2 2 2 2 2 2 2 2 2 2 2 2
left_child=11 -2 4 7 5 -3 -7 9 -9 10 -4 13 -13 -1
right_child=1 2 3 -5 -6 6 -8 8 -10 -11 -12 12 -14 -15
leaf_value=-0.0097516794269615521 0.029347375668644909 -0.0055559036295708252 0.019054547684322527 0.034187733285241405 0.028492506770263236 -0.0038090801209114378 0.010605792283315646 -0.041198206038311605 0.024444522178315328 0.028597544479791296 -0.01962263740993056 0.0069348643818940726 -0.010973886426151835 0.0084158250322601356
leaf_weight=516.17683093622327 39.149786237627268 315.92781530832872 37.116777877323329 46.952659789472818 22.912408195436001 130.82100940030068 210.44648806843907 8.7984269261360151 3.7872591614723197 33.385503433644772 23.602702741511166 129.46134511660784 85.446922866627574 46.429483951069415
leaf_count=26398 300 8366 514 321 188 3995 3261 128 21 212 509 2451 1921 751
internal_value=0 0.00517017 0.00396739 0.0168659 0.00101256 -2.90336e-05 0.00509002 0.0087541 -0.0208018 0.0130576 0.00387376 -0.00602104 -0.000221135 -0.00822789
internal_weight=0 872.901 833.751 153.643 680.108 657.195 341.267 106.691 12.5857 94.105 60.7195 777.515 214.908 562.606
internal_count=49336 17815 17515 1705 15810 15622 7256 1384 149 1235 1023 31521 4372 27149
is_linear=0
shrinkage=0.03


Tree=26
num_leaves=15
num_cat=0
split_feature=12 26 12 26 23 5 17 16 5 17 26 23 12 5
split_gain=55.2558 29.1703 37.5516 21.9359 21.4572 17.9659 21.8027 12.1843 16.7313 19.9258 18.8007 17.6867 15.777 12.6544
threshold=0.22477926313535992 2.6370474504407476e-12 0.42299262053547915 4.1287431855562585e-11 -0.05998293007416871 0.59791549969365076 0.73007488226328732 1.2795808736495922 0.28817544064471395 0.39378138352830311 2.8978478211065394e-12 0.11715485144976835 0.19271624610683794 -0.10136582695212935
decision_type=2 2 2 2 2 2 2 2 2 2 2 2 2 2
left_child=7 -2 4 5 -3 6 -4 8 10 -10 11 -1 -9 -12
right_child=1 2 3 -5 -6 -7 -8 12 9 -11 13 -13 -14 -15
leaf_value=0.024555322232173438 0.029334025280237454 -0.018507149955047125 0.01720457553801669 0.031275399594967557 0.0023324157466906113 -0.025286521403450786 -0.034939115151224671 0.0062642899261436645 0.023515368344344149 -0.015070114718103917 0.0047443202310413855 -0.031701986109700542 -0.010550579734019063 -0.012669602485269368
leaf_weight=22.724076712504033 40.720371622592211 45.720929020550102 79.144966403953731 58.986529175192118 650.95482301525772 10.912041615694759 6.0630569234490386 137.82211686298251 28.844999946653843 18.024645929224789 40.060821254272014 4.4909458775073281 76.368807956576347 436.54318666504696
leaf_count=338 310 2023 958 502 14319 140 149 2581 298 442 1389 105 1784 24226
internal_value=0 0.0051293 0.00390616 0.0171554 0.000915709 0.00802943 0.0127781 -0.00584535 -0.00819942 0.00866709 -0.00979656 0.0137372 0.000226882 -0.0111922
internal_weight=0 892.503 851.782 155.107 696.676 96.1201 85.208 764.88 550.689 46.8696 503.819 27.215 214.191 476.604
internal_count=49564 18401 18091 1749 16342 1247 1107 31163 26798 740 26058 443 4365 25615
is_linear=0
shrinkage=0.03


end of trees

feature_importances:
amihud_20=57
vol_63=48
log_ret_252=43
ma_50_200=39
beta_63=38
corr_63=38
log_ret_126=35
excess_log_ret_126=23
vol_20=13
distance_to_63d_low=8
residual_log_ret_21=6
excess_log_ret_63=5
downside_vol_20=5
residual_log_ret_63=4
ma_20_50=4
log_ret_63=3
distance_to_63d_high=3
benchmark_vol_20=3
return_to_vol_63=2
excess_log_ret_21=1

parameters:
[boosting: gbdt]
[objective: lambdarank]
[metric: ndcg]
[tree_learner: serial]
[device_type: cpu]
[data: ]
[valid: ]
[num_iterations: 400]
[learning_rate: 0.03]
[num_leaves: 15]
[num_threads: 0]
[deterministic: 0]
[force_col_wise: 0]
[force_row_wise: 0]
[histogram_pool_size: -1]
[max_depth: -1]
[min_data_in_leaf: 40]
[min_sum_hessian_in_leaf: 0.001]
[bagging_fraction: 0.85]
[pos_bagging_fraction: 1]
[neg_bagging_fraction: 1]
[bagging_freq: 1]
[bagging_seed: 26602]
[feature_fraction: 0.85]
[feature_fraction_bynode: 1]
[feature_fraction_seed: 18297]
[extra_trees: 0]
[extra_seed: 13015]
[early_stopping_round: 40]
[first_metric_only: 0]
[max_delta_step: 0]
[lambda_l1: 0]
[lambda_l2: 2]
[linear_lambda: 0]
[min_gain_to_split: 0]
[drop_rate: 0.1]
[max_drop: 50]
[skip_drop: 0.5]
[xgboost_dart_mode: 0]
[uniform_drop: 0]
[drop_seed: 30017]
[top_rate: 0.2]
[other_rate: 0.1]
[min_data_per_group: 100]
[max_cat_threshold: 32]
[cat_l2: 10]
[cat_smooth: 10]
[max_cat_to_onehot: 4]
[top_k: 20]
[monotone_constraints: ]
[monotone_constraints_method: basic]
[monotone_penalty: 0]
[feature_contri: ]
[forcedsplits_filename: ]
[refit_decay_rate: 0.9]
[cegb_tradeoff: 1]
[cegb_penalty_split: 0]
[cegb_penalty_feature_lazy: ]
[cegb_penalty_feature_coupled: ]
[path_smooth: 0]
[interaction_constraints: ]
[verbosity: -1]
[saved_feature_importance_type: 0]
[linear_tree: 0]
[max_bin: 255]
[max_bin_by_feature: ]
[min_data_in_bin: 3]
[bin_construct_sample_cnt: 200000]
[data_random_seed: 94]
[is_enable_sparse: 1]
[enable_bundle: 1]
[use_missing: 1]
[zero_as_missing: 0]
[feature_pre_filter: 0]
[pre_partition: 0]
[two_round: 0]
[header: 0]
[label_column: ]
[weight_column: ]
[group_column: ]
[ignore_column: ]
[categorical_feature: ]
[forcedbins_filename: ]
[precise_float_parser: 0]
[objective_seed: 20363]
[num_class: 1]
[is_unbalance: 0]
[scale_pos_weight: 1]
[sigmoid: 1]
[boost_from_average: 1]
[reg_sqrt: 0]
[alpha: 0.9]
[fair_c: 1]
[poisson_max_delta_step: 0.7]
[tweedie_variance_power: 1.5]
[lambdarank_truncation_level: 30]
[lambdarank_norm: 1]
[label_gain: ]
[eval_at: 1,3,5]
[multi_error_top_k: 1]
[auc_mu_weights: ]
[num_machines: 1]
[local_listen_port: 12400]
[time_out: 120]
[machine_list_filename: ]
[machines: ]
[gpu_platform_id: -1]
[gpu_device_id: -1]
[gpu_use_dp: 0]
[num_gpu: 1]

end of parameters

pandas_categorical:[]
