tree
version=v3
num_class=1
num_tree_per_iteration=1
label_index=0
max_feature_idx=30
objective=lambdarank
feature_names=log_ret_1 log_ret_5 log_ret_10 log_ret_21 log_ret_63 log_ret_126 log_ret_252 excess_log_ret_5 excess_log_ret_21 excess_log_ret_63 excess_log_ret_126 vol_20 vol_63 downside_vol_20 return_to_vol_21 return_to_vol_63 beta_63 corr_63 residual_log_ret_21 residual_log_ret_63 distance_to_63d_high distance_to_63d_low ma_20_50 ma_50_200 volume_z_20 dollar_volume_z_20 amihud_20 gap_pct intraday_ret benchmark_log_ret_21 benchmark_vol_20
feature_infos=[-0.28555187224505252:0.42061695919913433] [-0.62105101977820443:0.61400386604068213] [-1.0219770247907585:0.51640879618814939] [-1.2639619709335861:0.73575930944702739] [-1.2412368752575453:1.0499116805603581] [-1.3860546340170732:1.8107174298259121] [-1.3430914583140829:2.4018725595624506] [-0.49634537079170116:0.52753711459536401] [-0.90224872031983594:0.67364022283111646] [-0.9246316532271317:0.96310139270213302] [-1.1500462376648652:1.4590525481398702] [0.037807546527101075:2.2382360020276399] [0.063234462298234151:1.4628226026712341] [0:1.6951523916319398] [-1.2321822191905951:1.9818238970052768] [-1.457723515524058:2.1549690400112573] [-0.53974793899975126:3.9702633267029679] [-0.29636955902704382:0.9806948131460449] [-0.69531164866102846:0.6537953484641329] [-0.77976250720550522:0.89651689102531118] [-0.7249236475233175:0] [0:1.8825287209390953] [-0.42682311714453591:0.31739199068254953] [-0.53225419139565833:0.83938718222935149] [-3.0367420695947178:4.2399592092532954] [-3.712571118244806:4.093929137987935] [7.2755284903293579e-13:1.6431304686732721e-09] [-0.25104787681263196:0.21755732693025198] [-0.16855459902968484:0.25078367961446957] [-0.40105860262986504:0.2275689519512607] [0.030611701262277222:0.98464553272519229]
tree_sizes=1751 1744 1760 1769 1762 1760 1749 1755

Tree=0
num_leaves=15
num_cat=0
split_feature=10 12 12 6 5 15 17 6 17 12 12 12 23 12
split_gain=114.154 59.5164 46.7146 29.2667 29.1726 28.7124 29.4997 26.6693 35.0146 25.2331 28.8096 22.2857 21.3167 15.5096
threshold=0.20034895736620298 0.2101659330454054 0.63737146912138043 -0.1304340507026189 0.14231373619670865 0.95704951137899752 0.62441750425848275 0.11309434701155398 0.61540227873397257 0.5544371336215127 0.36108342330854698 0.10350002995398654 -0.10310945587598673 0.25033293897992692
decision_type=2 2 2 2 2 2 2 2 2 2 2 2 2 2
left_child=1 11 5 9 12 -2 -7 8 -6 10 -3 -1 -5 -10
right_child=2 3 -4 4 7 6 -8 -9 13 -11 -12 -13 -14 -15
leaf_value=-0.038680283445586397 0.0045377318281269148 0.0080701231238974498 0.047117719757441889 0.02061824366511731 -0.011059765925477463 0.0091010555760363179 0.048482262145646972 0.0024084658955292127 -0.0054844974875667219 -0.012227349057009593 0.034861550129769596 -0.0078585379786578063 -0.0046452288161036295 0.046905840437157752
leaf_weight=19.874792724382132 131.55876792781055 105.37356138043106 42.595010009594262 29.713512788526714 15.371365323197095 36.705306704621762 32.08778812084347 129.5436643329449 5.3982118288986376 29.056856034323573 54.376492768991739 771.54555203625932 587.51878180122003 36.924217910505831
leaf_count=1330 4847 3952 756 963 692 1202 231 5729 276 1559 1836 35968 25396 614
internal_value=0 -0.00260122 0.0192376 0.00228828 -0.000216598 0.0129031 0.0283207 0.0100926 0.0266874 0.0128515 0.0175078 -0.00872811 -0.00336638 0.0402775
internal_weight=0 1784.7 242.947 993.277 804.47 200.352 68.7931 187.237 57.6938 188.807 159.75 791.42 617.232 42.3224
internal_count=85351 78315 7036 41017 33670 6280 1433 7311 1582 7347 5788 37298 26359 890
is_linear=0
shrinkage=0.03


Tree=1
num_leaves=15
num_cat=0
split_feature=16 6 12 5 12 6 6 21 16 6 12 6 19 16
split_gain=681.784 429.759 174.886 145.102 83.6048 82.355 73.0746 65.06 54.8686 52.1453 38.9315 38.5006 54.4151 41.1735
threshold=1.3113418689996315 0.45022730443961129 0.2101659330454054 0.28873510764495031 0.32295805811582823 -0.1304340507026189 -0.46471328824334529 0.075619882655650797 1.9809742799597889 0.57951255134901258 0.36553332733492649 0.57951255134901258 0.17665669686872179 1.9809742799597889
decision_type=2 2 2 2 2 2 2 2 2 2 2 2 2 2
left_child=1 2 3 -1 11 6 10 -8 -6 -3 -4 12 -2 -13
right_child=4 9 5 -5 8 -7 7 -9 -10 -11 -12 13 -14 -15
leaf_value=-0.022080619357504962 0.009026596045080949 0.012334006363713282 -0.047830391775833349 0.01564477333953862 0.018477015574072077 -0.0087585563400390254 0.018418170375739739 -0.0058153316684473174 0.036424996350358028 0.038515487224579849 0.019455893459260777 0.040149895564576432 -0.040558573856851514 -0.0051460207838970717
leaf_weight=1202.8843775456771 671.98627173434943 121.71574307791889 30.075292464345694 97.930703397840261 492.11034284811467 1155.3912821058184 275.70998566225171 154.33949552290142 227.98295529745519 162.72479207254946 8.9715481065213663 66.304293924942613 18.574653649702668 23.98405934125185
leaf_count=33567 10792 1184 225 827 6076 24921 2343 1973 1851 891 131 357 133 205
internal_value=0 -0.00760424 -0.0110317 -0.0192208 0.0168768 -0.00445872 0.00612408 0.0097344 0.0242445 0.0274764 -0.0321757 0.0100377 0.00757958 0.0282668
internal_weight=0 3209.74 2925.3 1300.82 1500.94 1624.49 469.096 430.049 720.093 284.441 39.0468 780.849 690.561 90.2884
internal_count=85476 66062 63987 34394 19414 29593 4672 4316 7927 2075 356 11487 10925 562
is_linear=0
shrinkage=0.03


Tree=2
num_leaves=15
num_cat=0
split_feature=16 6 10 10 6 12 6 26 26 12 12 26 16 16
split_gain=729.332 500.148 160.896 141.278 110.915 91.9973 72.7815 69.1617 63.1915 58.5794 53.939 52.7505 50.8003 46.133
threshold=1.3113418689996315 0.52120706986342891 -0.16722155732531105 0.24571432293490972 -0.096447791840097871 0.75832930469744908 0.31506408910432043 3.1636128858216608e-12 4.3688789378573636e-11 0.6636547151857346 0.20740558223329067 1.2550573362898589e-11 0.93971381189083869 2.0220850741018661
decision_type=2 2 2 2 2 2 2 2 2 2 2 2 2 2
left_child=1 2 -1 4 5 -2 7 -4 11 -5 -9 13 -8 -6
right_child=3 -3 6 9 8 -7 12 10 -10 -11 -12 -13 -14 -15
leaf_value=0.0054915508222792 0.028198640773427392 0.03149164988370623 0.023465078848453641 0.024116449224801079 0.0052072598524569649 -0.030209596572712032 -0.01829965944533694 -0.026709724130725393 0.023067261439585415 0.052339556224179427 -0.015743354924062869 -0.0034884622978687339 0.007705927715571821 0.030446668832936192
leaf_weight=303.98859517369419 357.66761580854654 230.10509972646832 30.348684602417052 254.16805740259588 269.45016779378057 24.423529515042901 116.81632011663169 801.06014163699001 154.41056881099939 91.919873461127281 840.16718430630863 541.89214272424579 155.04455959796906 84.471903510391712
leaf_count=5302 2809 1233 778 1747 3851 472 3254 28308 1930 260 23636 7818 3427 621
internal_value=0 -0.010455 -0.0147739 0.0147126 0.0105282 0.0243273 -0.0179462 -0.0202853 0.00547118 0.0318701 -0.0211219 0.00239353 -0.00352049 0.0113685
internal_weight=0 2477.53 2247.43 1778.4 1432.32 382.091 1943.44 1671.58 1050.22 346.088 1641.23 895.814 271.861 353.922
internal_count=85446 65938 64705 19508 17501 3281 59403 52722 14220 2007 51944 12290 6681 4472
is_linear=0
shrinkage=0.03


Tree=3
num_leaves=15
num_cat=0
split_feature=10 12 6 6 6 12 26 30 12 26 26 6 5 26
split_gain=556.638 365.663 143.243 111.305 105.677 92.5065 86.0913 78.9657 73.1893 69.0329 91.1715 50.7921 47.5548 46.6361
threshold=0.26213885759012073 0.20740558223329067 -0.11032454869809148 0.31506408910432043 0.37337466091729904 0.6636547151857346 2.8544880165031292e-12 0.27235791166680401 0.3253636899559102 4.5748136053047206e-12 4.3688789378573636e-11 0.57951255134901258 0.0016704556991333777 3.6673194572491369e-11
decision_type=2 2 2 2 2 2 2 2 2 2 2 2 2 2
left_child=1 3 7 6 9 11 -1 8 -3 -4 -11 -2 -10 -6
right_child=5 2 4 -5 13 -7 -8 -9 12 10 -12 -13 -14 -15
leaf_value=0.031581533363921811 0.0061167121853288355 0.0039879041856258086 0.017047985284435692 -0.00028977879087097925 0.0057140842871940102 0.050215871170832947 -0.025292563108724384 -0.011673707341689816 0.019583175568342905 -0.013342288094450344 0.0066159995490518821 0.028309363027088478 0.045039443871356305 0.031328436631400294
leaf_weight=23.023991407826543 139.51927202567458 225.32179769687355 98.94628584664315 231.88688178360462 319.61466490384191 128.29589936882257 838.23607869818807 94.788524460047483 292.69605584815145 906.75413836818188 265.02878243569285 283.39464677870274 86.494592064991593 78.419351268559694
leaf_count=386 1773 3669 1474 5290 3720 516 31729 1828 2631 24406 5398 1423 509 791
internal_value=0 -0.00441089 0.00221655 -0.0187456 -0.00256178 0.0279964 -0.0237025 0.013594 0.0175815 -0.00678641 -0.00882463 0.0210513 0.0255957 0.0108919
internal_weight=0 3461.21 2368.06 1093.15 1668.76 551.21 861.26 699.301 604.512 1270.73 1171.78 422.914 379.191 398.034
internal_count=85543 81831 44426 37405 35789 3712 32115 8637 6809 31278 29804 3196 3140 4511
is_linear=0
shrinkage=0.03


Tree=4
num_leaves=15
num_cat=0
split_feature=16 6 20 19 26 26 6 26 16 23 12 6 23 19
split_gain=602.66 311.767 133.686 103.294 91.346 84.3358 71.5667 47.7863 55.8829 53.533 46.8884 45.4585 43.7365 43.1014
threshold=1.2786690581004232 0.42477645324678243 -0.10415955656274532 0.24281096422116752 3.6855141304605109e-12 4.4272004242733106e-11 -0.3611847481904073 1.3832847148860763e-11 2.070948397510644 -0.045080348689836285 0.63737146912138043 0.31506408910432043 -0.093512819048229709 -0.048109949974433443
decision_type=2 2 2 2 2 2 2 2 2 2 2 2 2 2
left_child=1 2 -1 5 -4 6 -2 8 9 -8 -3 12 -6 -10
right_child=3 10 4 -5 11 -7 7 -9 13 -11 -12 -13 -14 -15
leaf_value=-0.0010598645930463969 0.038345497224937596 0.013878869746827132 0.013593439275514787 0.038573969378780444 0.0046667508623088249 0.024617823965021973 0.032918320865088085 0.00043066732354337062 0.0065513607693697658 0.0023365451782440733 0.05166242682151248 -0.0067442874604195383 -0.024954308304672993 0.043313216469602442
leaf_weight=447.21627770829946 61.998997597023845 248.16748617962003 68.277776586823165 130.74676261842251 46.146019835956395 322.12881626654416 58.795021424070001 668.08806072827429 46.079922329634428 340.01913519296795 32.137313220649958 163.02694015484303 1109.9658500226215 77.863909464329481
leaf_count=10856 420 2182 1211 624 930 3294 587 10561 395 5020 168 4497 44012 470
internal_value=0 -0.0108278 -0.015331 0.0131269 -0.019923 0.0109682 0.007425 0.00575359 0.0125288 0.00698681 0.0185461 -0.0216757 -0.023766 0.0299669
internal_weight=0 2114.94 1834.63 1705.72 1387.42 1574.97 1252.85 1190.85 522.758 398.814 280.305 1319.14 1156.11 123.944
internal_count=85227 63856 61506 21371 50650 20747 17453 17033 6472 5607 2350 49439 44942 865
is_linear=0
shrinkage=0.03


Tree=5
num_leaves=15
num_cat=0
split_feature=16 6 20 16 26 26 17 19 23 12 12 6 30 17
split_gain=575.167 321.916 109.622 93.2804 85.3351 76.0389 61.6483 44.7051 48.1549 58.8464 43.5877 42.5843 42.3697 50.1551
threshold=1.2786690581004232 0.45022730443961129 -0.10543309366118107 1.9809742799597889 3.6855141304605109e-12 4.2682386237552354e-11 0.79356680998125328 0.24281096422116752 -0.082364031174182381 0.52138996424320394 0.63737146912138043 0.31506408910432043 0.079604368417776142 0.29399442594931186
decision_type=2 2 2 2 2 2 2 2 2 2 2 2 2 2
left_child=1 2 -1 5 -4 7 -7 8 9 -2 -3 -6 13 -5
right_child=3 10 4 12 11 6 -8 -9 -10 -11 -12 -13 -14 -15
leaf_value=-0.002357728968511723 0.031914299143583749 0.015205377361754381 0.010806876594577132 -0.040475639104606304 -0.024077193908304914 0.028182211557487652 -0.0026622164354707981 0.026630572903723709 0.00017918162279124326 -0.017865906961955481 0.050316475283802842 -0.0078203794863252272 0.034233050952846962 0.018744170002206309
leaf_weight=425.01362408231944 90.830153230577707 215.25340277515352 75.473339227028191 12.008561752736567 1053.8314520609565 256.0346556333825 74.927758643403649 74.916588317602873 805.1524918442592 26.33621215634048 36.224888436496258 170.9619267070666 217.75820978172123 176.95178429968655
leaf_count=10765 714 1739 1240 85 45114 2271 1003 397 13692 427 165 4956 1405 1522
internal_value=0 -0.010975 -0.0155989 0.0126816 -0.0199167 0.00880809 0.0212252 0.00465287 0.00281395 0.0206128 0.0206202 -0.0218244 0.0252259 0.0145962
internal_weight=0 1976.76 1725.28 1734.92 1300.27 1328.2 330.962 997.235 922.319 117.166 251.478 1224.79 406.719 188.96
internal_count=85495 63979 62075 21516 51310 18504 3274 15230 14833 1141 1904 50070 3012 1607
is_linear=0
shrinkage=0.03


Tree=6
num_leaves=15
num_cat=0
split_feature=16 6 20 26 21 23 26 17 16 17 23 12 10 12
split_gain=529.075 275.371 98.0187 92.522 88.4511 85.8199 82.0355 58.76 53.8013 64.0082 41.6272 40.2112 39.2318 37.04
threshold=1.2786690581004232 0.45022730443961129 -0.10415955656274532 5.6821876491487612e-11 0.1727927922080528 -0.077104722484354779 3.6855141304605109e-12 0.809528821490484 2.0220850741018661 0.31980352885186047 -0.12995686148446159 0.63737146912138043 -0.081151306104717755 0.6166146921108453
decision_type=2 2 2 2 2 2 2 2 2 2 2 2 2 2
left_child=1 2 -1 4 5 -2 -4 12 -6 -10 -11 -3 13 -5
right_child=3 11 6 7 8 -7 -8 -9 9 10 -12 -13 -14 -15
leaf_value=-0.0031245361413223352 0.028120040389651043 0.013609367848455808 0.0096245228607636322 0.023575271703510071 0.01141831980270242 -0.0014836182040911874 -0.021949795112443736 -0.0050855637626054662 -0.040257576547773746 -0.015944898314859179 0.037350865223782163 0.048716972866418323 0.042956594597689815 -0.038931405947379628
leaf_weight=425.75909562967718 98.892762010917068 207.26480429805815 78.175147091969848 44.800385111942887 482.75342091731727 695.62348281498998 1125.1204680446535 37.94462095759809 9.5124343223869783 13.131046727299688 181.40866081044078 32.925086379051208 152.53788577951491 8.5504246912896615
leaf_count=10958 756 1737 1252 342 5832 11688 49768 551 79 125 1004 166 968 121
internal_value=0 -0.0110918 -0.0155145 0.0119334 0.00908968 0.00226248 -0.0198859 0.0289947 0.0169581 0.0298262 0.0336279 0.0187845 0.0352641 0.0125127
internal_weight=0 1869.24 1629.05 1725.16 1481.32 794.516 1203.3 243.833 686.806 204.052 194.54 240.19 205.889 53.3508
internal_count=85347 63881 61978 21466 19484 12444 51020 1982 7040 1208 1129 1903 1431 463
is_linear=0
shrinkage=0.03


Tree=7
num_leaves=15
num_cat=0
split_feature=16 6 26 20 21 23 26 17 16 26 12 6 17 11
split_gain=515.942 236.768 118.355 102.332 85.4348 85.3351 84.1554 57.1791 49.5191 44.3271 39.5292 37.0724 36.0136 31.8011
threshold=1.2786690581004232 0.45022730443961129 5.5556402720368102e-11 -0.10415955656274532 0.18894777431771184 -0.082364031174182381 3.6855141304605109e-12 0.80709464769882533 2.070948397510644 1.6339747303337585e-11 0.63737146912138043 0.55633334609895779 0.79356680998125328 0.59547665736501953
decision_type=2 2 2 2 2 2 2 2 2 2 2 2 2 2
left_child=1 3 4 -1 5 12 -5 -4 -6 -10 13 -11 -2 -3
right_child=2 10 7 6 8 -7 -8 -9 9 11 -12 -13 -14 -15
leaf_value=-0.0026983862254750931 0.036560239685542992 0.014771618315488058 0.035738406613240507 0.0094593352704508624 0.011390945270299735 -0.001286900974446897 -0.022142888019622924 -0.0045336061935161353 0.039239296023443962 0.029742731320292974 0.047459546155278254 -0.019363520943065267 -0.0065596148018705613 -0.040279021747553552
leaf_weight=429.12838328350335 81.383776932954788 187.1662359200418 229.60167417861521 80.593330325558782 432.79847757704556 738.69580324366689 1059.2965939454734 36.279946900904179 130.78992678783834 26.63283497095108 31.9520558193326 24.889408703893423 21.345550123602152 8.0466867275536043
leaf_count=10860 540 1667 1479 1257 5052 12661 49873 564 617 181 170 250 192 60
internal_value=0 -0.0110563 0.0119113 -0.0152018 0.00852669 0.00230274 -0.0198959 0.0302504 0.0170055 0.030066 0.0174589 0.00618332 0.0276464 0.012117
internal_weight=0 1796.18 1722.42 1569.02 1456.54 841.425 1139.89 265.882 615.111 182.312 227.165 51.5222 102.729 195.213
internal_count=85423 63887 21536 61990 19493 13393 51130 2043 6100 1048 1897 431 732 1727
is_linear=0
shrinkage=0.03


end of trees

feature_importances:
log_ret_252=22
vol_63=21
amihud_20=17
beta_63=14
corr_63=8
ma_50_200=7
excess_log_ret_126=5
residual_log_ret_63=4
distance_to_63d_high=4
log_ret_126=3
distance_to_63d_low=3
benchmark_vol_20=2
vol_20=1
return_to_vol_63=1

parameters:
[boosting: gbdt]
[objective: lambdarank]
[metric: ndcg]
[tree_learner: serial]
[device_type: cpu]
[data: ]
[valid: ]
[num_iterations: 400]
[learning_rate: 0.03]
[num_leaves: 15]
[num_threads: 0]
[deterministic: 0]
[force_col_wise: 0]
[force_row_wise: 0]
[histogram_pool_size: -1]
[max_depth: -1]
[min_data_in_leaf: 40]
[min_sum_hessian_in_leaf: 0.001]
[bagging_fraction: 0.85]
[pos_bagging_fraction: 1]
[neg_bagging_fraction: 1]
[bagging_freq: 1]
[bagging_seed: 26602]
[feature_fraction: 0.85]
[feature_fraction_bynode: 1]
[feature_fraction_seed: 18297]
[extra_trees: 0]
[extra_seed: 13015]
[early_stopping_round: 40]
[first_metric_only: 0]
[max_delta_step: 0]
[lambda_l1: 0]
[lambda_l2: 2]
[linear_lambda: 0]
[min_gain_to_split: 0]
[drop_rate: 0.1]
[max_drop: 50]
[skip_drop: 0.5]
[xgboost_dart_mode: 0]
[uniform_drop: 0]
[drop_seed: 30017]
[top_rate: 0.2]
[other_rate: 0.1]
[min_data_per_group: 100]
[max_cat_threshold: 32]
[cat_l2: 10]
[cat_smooth: 10]
[max_cat_to_onehot: 4]
[top_k: 20]
[monotone_constraints: ]
[monotone_constraints_method: basic]
[monotone_penalty: 0]
[feature_contri: ]
[forcedsplits_filename: ]
[refit_decay_rate: 0.9]
[cegb_tradeoff: 1]
[cegb_penalty_split: 0]
[cegb_penalty_feature_lazy: ]
[cegb_penalty_feature_coupled: ]
[path_smooth: 0]
[interaction_constraints: ]
[verbosity: -1]
[saved_feature_importance_type: 0]
[linear_tree: 0]
[max_bin: 255]
[max_bin_by_feature: ]
[min_data_in_bin: 3]
[bin_construct_sample_cnt: 200000]
[data_random_seed: 94]
[is_enable_sparse: 1]
[enable_bundle: 1]
[use_missing: 1]
[zero_as_missing: 0]
[feature_pre_filter: 0]
[pre_partition: 0]
[two_round: 0]
[header: 0]
[label_column: ]
[weight_column: ]
[group_column: ]
[ignore_column: ]
[categorical_feature: ]
[forcedbins_filename: ]
[precise_float_parser: 0]
[objective_seed: 20363]
[num_class: 1]
[is_unbalance: 0]
[scale_pos_weight: 1]
[sigmoid: 1]
[boost_from_average: 1]
[reg_sqrt: 0]
[alpha: 0.9]
[fair_c: 1]
[poisson_max_delta_step: 0.7]
[tweedie_variance_power: 1.5]
[lambdarank_truncation_level: 30]
[lambdarank_norm: 1]
[label_gain: ]
[eval_at: 1,3,5]
[multi_error_top_k: 1]
[auc_mu_weights: ]
[num_machines: 1]
[local_listen_port: 12400]
[time_out: 120]
[machine_list_filename: ]
[machines: ]
[gpu_platform_id: -1]
[gpu_device_id: -1]
[gpu_use_dp: 0]
[num_gpu: 1]

end of parameters

pandas_categorical:[]
